,0,1,2,3,4,5,6,7,8,9,10,11,12,13,14,15,16,17,18,19,20,21,22,23,24,25,26,27,28,29,30,31,32,33,34,35,36,37,38,39,40,41,42,43,44,45,46,47,48,49,50,51,52,53,54,55,56,57,58,59,60,61,62,63,64,65,66,67,68,69,70,71,72,73,74,75,76,77,78,79,80,81,82,83,84,85,86,87,88,89,90,91,92,93,94,95,96,97,98,99,100,101,102,103,104,105,106,107,108,109,110,111,112,113,114,115,116,117,118,119,120,121,122,123,124,125,126,127,128,129,130,131,132,133,134,135,136,137,138,139,140,141,142,143,144,145,146,147,148,149,150,151,152,153,154,155,156,157,158,159,160,161,162,163,164,165,166,167,168,169,170,171,172,173,174,175,176,177,178,179,180,181,182,183,184,185,186,187,188,189,190,191,192,193,194,195,196,197,198,199,200,201,202,203,204,205,206,207,208,209,210,211,212,213,214,215,216,217,218,219,220,221,222,223,224,225,226,227,228,229,230,231,232,233,234,235,236,237,238,239,240,241,242,243,244,245,246,247,248,249,250,251,252,253,254,255,256,257,258,259,260,261,262,263,264,265,266,267,268,269,270,271,272,273,274,275,276,277,278,279,280,281,282,283,284,285,286,287,288,289,290,291
Eucalyptol,0.07351546734571457,-0.11454705148935318,0.02344391494989395,0.09720144420862198,0.06951423734426498,0.2165975421667099,-0.05380488559603691,0.0592704601585865,-0.05233006179332733,0.07271761447191238,-0.1129523515701294,0.06824946403503418,-0.013317294418811798,0.027646690607070923,-0.005660157650709152,-0.05348536744713783,-0.004847638309001923,-0.09910693764686584,0.02895374596118927,0.15226568281650543,0.009559080004692078,-0.12627141177654266,-0.03255767375230789,0.03701309114694595,0.04101052135229111,0.013714000582695007,0.10050653666257858,-0.11133973300457001,-0.1844867765903473,0.09412891417741776,-0.025363456457853317,0.09555462747812271,-0.06695250421762466,-0.041770171374082565,-0.129828080534935,0.1183525025844574,0.024067465215921402,0.05167582631111145,0.039492417126894,-0.10921543836593628,0.019020039588212967,0.058912493288517,-0.0342315211892128,-0.08265712857246399,-0.020341675728559494,-0.02507966198027134,0.00483296811580658,0.07023443281650543,0.17797550559043884,0.04386138916015625,0.07288318127393723,0.23244896531105042,0.039519261568784714,0.04860096052289009,-0.10177820175886154,0.15577897429466248,-0.04797413945198059,0.03863290697336197,-0.0073601678013801575,-0.01820513978600502,0.04033837839961052,0.06203947961330414,-0.22172561287879944,0.011182131245732307,-0.052449166774749756,0.13988277316093445,-0.1856180876493454,0.0203036367893219,0.007943980395793915,0.07633336633443832,0.014528371393680573,-0.14950698614120483,0.05485120043158531,0.007067475467920303,0.032739780843257904,0.017600400373339653,0.09862301498651505,0.0039027929306030273,0.06969607621431351,-0.08944011479616165,-0.05874783545732498,0.03784000501036644,0.1537037491798401,0.052565790712833405,0.002018757164478302,-0.00028769252821803093,-0.09125103801488876,-0.09413525462150574,-0.024142848327755928,0.07721154391765594,-0.17724207043647766,-0.04128864407539368,-0.002797655761241913,-0.06909004598855972,-0.08312053978443146,-0.11829429119825363,-0.06684604287147522,-0.02872132509946823,0.05134592205286026,-0.03959447517991066,0.032085493206977844,0.03597229719161987,-0.012757943943142891,0.10149789601564407,0.034606460481882095,0.006535150110721588,-0.07550616562366486,0.05363456904888153,0.0837230235338211,0.06763008236885071,0.01637577824294567,-0.14899086952209473,0.09444145113229752,0.06330797076225281,-0.01772383600473404,-0.04099058732390404,-0.07217057794332504,-0.032442186027765274,-0.044574297964572906,0.06383980065584183,-0.055264245718717575,0.0328911654651165,-0.06832461059093475,-0.15745902061462402,-0.02206849865615368,0.021992355585098267,-0.06104539334774017,0.0484151691198349,0.06418642401695251,0.2759290933609009,0.004983250051736832,0.08855406939983368,-0.09583285450935364,0.010937115177512169,0.02406412921845913,-0.07316562533378601,-0.03038257360458374,-0.12404150515794754,-0.03645234555006027,-0.0685465931892395,0.03597870469093323,0.06987719237804413,0.0612759031355381,0.2259233295917511,0.12439611554145813,0.13107900321483612,-0.18826156854629517,-0.11739394068717957,-0.1713966280221939,-0.05614890903234482,0.02130826562643051,0.10773074626922607,-0.2957804203033447,-0.11132676899433136,-0.14130589365959167,-0.020178232342004776,-0.004140246659517288,0.008578242734074593,-0.07461613416671753,-0.03132152557373047,0.08839908987283707,0.07075228542089462,0.021389394998550415,-0.06782525032758713,-0.16004469990730286,0.04733952879905701,-0.04002012312412262,0.12505821883678436,-0.07510178536176682,-0.07915720343589783,-0.07370705157518387,0.10032957047224045,0.017931219190359116,-0.033474236726760864,0.01456691324710846,0.05101507902145386,-0.042267151176929474,0.16389518976211548,-0.0021473937667906284,-0.0463167168200016,-0.05845165625214577,-0.12074380367994308,-0.0012245215475559235,-0.08458960801362991,0.062335625290870667,-0.2418188452720642,0.008795998990535736,-0.07416704297065735,0.04996902495622635,0.06968306750059128,-0.20675934851169586,0.11040787398815155,0.04123346880078316,-0.025277845561504364,-0.018671561032533646,0.020809590816497803,-0.06184954196214676,-0.02613990008831024,-0.01986020989716053,-0.17660623788833618,0.16624492406845093,-0.00224502757191658,-0.11147300899028778,0.20997397601604462,-0.005510082468390465,-0.034177180379629135,0.017643742263317108,0.05077674612402916,-0.021708454936742783,-0.003354838117957115,-0.04704570025205612,-0.011390892788767815,-0.004998631775379181,0.01685645803809166,0.08398564159870148,0.09056263417005539,-0.1497601866722107,0.12368939816951752,-0.07095254212617874,0.027390966191887856,-0.0983877182006836,0.04909319430589676,-0.056932441890239716,-0.05753002688288689,-0.07206182181835175,-0.008228331804275513,-0.12298575043678284,-0.06209607422351837,0.047015100717544556,0.09091540426015854,-0.06338471919298172,0.022757213562726974,-0.15079884231090546,0.001546524465084076,-0.013025444000959396,0.21920610964298248,0.06841517239809036,0.13141317665576935,-0.0007455497980117798,-0.034022971987724304,0.1489182859659195,0.03337649628520012,0.08846992254257202,-0.15254831314086914,-0.16219624876976013,0.0489187054336071,0.2262955904006958,0.12082165479660034,-0.10653078556060791,0.01462985947728157,-0.014061052352190018,0.05145127326250076,0.006730266846716404,-0.0022072605788707733,0.024878421798348427,0.048023708164691925,0.07879307866096497,0.02695438824594021,-0.0948106050491333,0.018874868750572205,0.07154956459999084,0.12065818160772324,-0.013175969943404198,0.17230041325092316,-0.0076053813099861145,-0.10189174860715866,0.011600273661315441,0.030563674867153168,0.022787854075431824,-0.16593065857887268,-0.07266970723867416,0.009385216981172562,0.017531700432300568,-0.015287309885025024,-0.0275442972779274,-0.16516169905662537,0.07747683674097061,-0.06214512139558792,-0.18555593490600586,0.1354331076145172,0.012283895164728165,-0.20925918221473694,0.09943105280399323,-0.07576054334640503,0.046007659286260605,0.06476456671953201,0.08808020502328873,-0.040849827229976654,0.009082913398742676,0.028129922226071358,0.23626428842544556,0.02348881959915161
trans-2-Dodecenal,0.06605101376771927,-0.010488919913768768,-0.0345645509660244,0.1046353131532669,0.04223991185426712,0.04791245236992836,-0.01568099483847618,-0.1415751427412033,0.0842728391289711,0.014700168743729591,0.003030039370059967,-0.025371920317411423,0.03902040794491768,-0.030175939202308655,-0.0145295150578022,-0.061755042523145676,0.1164107546210289,-0.06562633812427521,0.08615287393331528,0.061382658779621124,0.08876220136880875,-0.12918217480182648,0.025234542787075043,-0.03460533916950226,-0.0742955356836319,0.08237604796886444,0.1278410404920578,-0.10262782126665115,-0.08421055227518082,0.001462407410144806,0.04887735843658447,0.14046069979667664,-0.023081881925463676,-0.20562131702899933,-0.10366176068782806,0.044101715087890625,0.05607476085424423,0.14525926113128662,0.11464017629623413,-0.0728791207075119,-0.02999064326286316,0.12272104620933533,-0.09741074591875076,0.04748380556702614,0.039589062333106995,-0.10848800092935562,-0.010092053562402725,0.12652036547660828,0.2120119035243988,0.0748353898525238,-0.013615541160106659,0.2206578552722931,0.1180768683552742,0.20121225714683533,-0.04380173236131668,0.05337120592594147,-0.1084546372294426,-0.09808700531721115,0.037179283797740936,0.02307724766433239,0.0030955225229263306,-0.11287665367126465,-0.16070613265037537,-0.07690685987472534,0.022862877696752548,-0.009488791227340698,-0.06439448893070221,0.07977407425642014,-0.02825232222676277,-0.1340426355600357,-0.0031419694423675537,-0.20435938239097595,0.059204742312431335,-0.05467360094189644,0.061697475612163544,0.1331147849559784,0.08830296993255615,0.22957894206047058,0.044505275785923004,-0.057204075157642365,0.03803160414099693,0.05045752972364426,0.07864101231098175,0.020606564357876778,0.06194459646940231,0.0010450747795403004,0.012408776208758354,0.038925785571336746,0.04919591173529625,-0.016051016747951508,-0.06266823410987854,0.016713939607143402,0.01900605857372284,0.02387549728155136,0.011814966797828674,-0.044245921075344086,-0.14237235486507416,0.014370106160640717,0.14628781378269196,0.07126125693321228,0.013540047220885754,0.1048927828669548,-0.0203417856246233,0.062459200620651245,0.004009874537587166,0.030722185969352722,0.05856306850910187,-0.05141251161694527,0.02767307311296463,0.055396806448698044,0.024093955755233765,-0.0727689117193222,0.15234076976776123,0.05183006078004837,-0.07388215512037277,0.14423373341560364,0.012991659343242645,-0.02602268010377884,0.044344380497932434,-0.019834117963910103,-0.0787353366613388,-0.04128395393490791,0.015282363630831242,-0.059312738478183746,0.08449576795101166,-0.13799281418323517,0.06476802378892899,-0.0194497462362051,-0.026449007913470268,0.2425047606229782,0.04653318598866463,0.14672665297985077,-0.06523554772138596,-0.03521887958049774,-0.10325915366411209,0.00033750105649232864,-0.05875058099627495,-0.1181766614317894,-0.13623978197574615,-0.08347740769386292,-0.01844632253050804,0.10137508809566498,0.17134593427181244,0.06867993623018265,0.07664602994918823,0.11544537544250488,-0.1027030274271965,-0.059620201587677,-0.2047124058008194,0.08068808168172836,0.06568662822246552,0.05702631175518036,-0.11579453945159912,-0.044556062668561935,-0.12936431169509888,0.011315058916807175,0.06506287306547165,-0.04522310942411423,-0.032830849289894104,0.019301164895296097,-0.0135333351790905,0.017883678898215294,-0.061606451869010925,-0.08674143999814987,-0.1499996781349182,-0.07344195991754532,-0.05237273871898651,0.17362886667251587,-0.09786275774240494,0.0872906967997551,0.013848239555954933,0.044023625552654266,0.07115264236927032,0.06103448569774628,0.0888529121875763,-0.013493034988641739,0.06482400000095367,0.009378321468830109,0.03815818578004837,0.1071074828505516,0.028505999594926834,-0.1508592665195465,-0.1160334125161171,-0.19267719984054565,0.1336488276720047,-0.152652770280838,0.0999390184879303,-0.004804231226444244,0.017993777990341187,0.11767805367708206,-0.19214946031570435,0.07197246700525284,0.1005294993519783,-0.1642453968524933,-0.061284709721803665,0.013800280168652534,-0.03853157162666321,0.051748719066381454,-0.056483566761016846,-0.21913114190101624,0.024426976218819618,0.07732971757650375,-0.14591315388679504,0.18870030343532562,-0.05916781723499298,-0.19477532804012299,0.0175226591527462,-0.14776137471199036,-0.14989039301872253,0.005235807970166206,-0.0785173624753952,0.11172032356262207,-0.14577694237232208,-0.07824379205703735,0.059812601655721664,-0.033618416637182236,-0.15622851252555847,0.0028315759263932705,0.03288983553647995,-0.026442456990480423,0.08315537869930267,0.059077776968479156,0.06732689589262009,-0.03889623284339905,-0.09701686352491379,0.10112105309963226,-0.15023007988929749,0.04711738973855972,-0.08825404942035675,-0.008831223472952843,0.04966755583882332,-0.034376807510852814,-0.025593815371394157,-0.032622840255498886,-0.019172288477420807,0.11164059489965439,-0.054531387984752655,0.01201191172003746,0.0013426169753074646,-0.005177197977900505,0.07014606893062592,0.0017588697373867035,0.14869306981563568,-0.1258322298526764,-0.005886834114789963,0.1077723503112793,0.16851210594177246,0.12013662606477737,-0.12008535861968994,-0.04993846267461777,0.11419496685266495,0.002344297245144844,-0.04527515172958374,0.058413006365299225,0.01744789071381092,-0.12974272668361664,-0.023117907345294952,-0.1692926585674286,-0.1454654037952423,0.0006238007918000221,0.07137064635753632,-0.013927559368312359,-0.05028879642486572,-0.0545385479927063,0.00609033927321434,-0.13572902977466583,0.0552976131439209,0.06440260261297226,0.055261604487895966,-0.06189130246639252,-0.06375078111886978,0.09270869940519333,0.08213618397712708,-0.004955723881721497,-0.11536005139350891,-0.08714399486780167,-0.025357555598020554,-0.22290605306625366,-0.09147659689188004,-0.11583247780799866,-0.027202388271689415,-0.11310432106256485,0.010132648050785065,0.0703815445303917,-0.022334162145853043,0.0717926099896431,0.021270956844091415,0.06613794714212418,0.04866096377372742,-0.005943026393651962,0.2056306004524231,-0.07234707474708557
2-Isopropyl-3-methoxypyrazine,0.07784558087587357,-0.0952293649315834,0.05651206895709038,0.0946526974439621,-0.013528997078537941,0.12486618757247925,0.04385261982679367,-0.07190091907978058,0.027931027114391327,0.018361598253250122,0.019198071211576462,0.024087950587272644,-0.004529621452093124,0.05574639141559601,-0.04268014803528786,-0.06948194652795792,0.02368120104074478,-0.15998101234436035,0.05028117448091507,0.09385668486356735,0.07689926773309708,-0.1187543123960495,0.016588643193244934,-0.008009359240531921,0.03369348123669624,0.08929705619812012,0.18999327719211578,-0.08928508311510086,-0.08072956651449203,0.07052763551473618,0.0343109667301178,0.08159568160772324,-0.06804562360048294,-0.07343560457229614,-0.056777309626340866,0.0034796372056007385,-0.011852189898490906,0.15301090478897095,0.0706283450126648,-0.04959196224808693,-0.008174464106559753,0.0429609939455986,-0.0422251932322979,-0.023005783557891846,0.04819783195853233,0.014082187786698341,-0.006146669387817383,0.014804139733314514,0.17429965734481812,0.03713741898536682,0.099083311855793,0.14131805300712585,-0.023203857243061066,0.10078586637973785,-0.11287937313318253,0.04151514172554016,-0.10089074820280075,0.04054874926805496,-0.05053272098302841,0.004119459539651871,-0.015068711712956429,-0.09481970965862274,-0.1977756917476654,-0.060139402747154236,0.06241559982299805,0.17107942700386047,-0.09178635478019714,0.07972034811973572,-0.10478609055280685,-0.0855294018983841,-0.053554754704236984,-0.1178288608789444,0.022193338721990585,-0.0344344787299633,-0.04562879353761673,0.050384003669023514,0.09080268442630768,0.09496431052684784,0.1035500317811966,0.04892304539680481,0.0024765729904174805,0.03369508683681488,0.06653225421905518,0.04525870084762573,-0.007939815521240234,-0.03194592520594597,-0.07429760694503784,0.07019854336977005,-0.1256447285413742,0.0325922966003418,-0.0157177671790123,-0.021724866703152657,0.07513843476772308,0.016642175614833832,0.09725555777549744,-0.13676311075687408,-0.11681663990020752,0.07429400831460953,0.06461451202630997,0.02703266404569149,0.04528410732746124,-0.0808287188410759,0.040436021983623505,0.05444130301475525,-0.016259999945759773,-0.07877805829048157,0.040758825838565826,0.04036565124988556,0.03868183493614197,0.031871240586042404,-0.08731988817453384,-0.09699895232915878,0.019901923835277557,0.09890490770339966,0.02325700968503952,0.06307344138622284,0.10110977292060852,-0.05721035227179527,-0.0002483227290213108,0.005463117267936468,-0.026037555187940598,-0.018631678074598312,-0.08403298258781433,-0.03567591309547424,0.015817373991012573,-0.016096491366624832,-0.06434126198291779,0.028028151020407677,0.0009149492252618074,0.21699298918247223,0.05209598317742348,-0.03382515534758568,-0.05889824777841568,-0.054521456360816956,-0.0317646749317646,-0.008755817078053951,-0.07103443890810013,-0.07298136502504349,0.014068842865526676,-0.04681193828582764,-0.01654691994190216,0.0614728182554245,0.02093106135725975,0.14986009895801544,0.07309523224830627,0.08276603370904922,-0.08966439217329025,-0.0065126121044158936,-0.13342049717903137,0.016616012901067734,0.1850348263978958,0.1642930656671524,-0.1664782613515854,-0.15005096793174744,-0.04627925902605057,-0.11846113204956055,0.06359638273715973,-0.05957407504320145,-0.05992310121655464,-0.02044856920838356,-0.05006010830402374,0.031156430020928383,0.02156990021467209,-0.14888018369674683,-0.09664034098386765,-0.018498830497264862,-0.010471299290657043,0.07579321414232254,-0.08596602827310562,-0.046486206352710724,-0.05058523267507553,0.03400089219212532,0.0915050059556961,-0.074304960668087,0.006918206810951233,0.07143040001392365,0.13558197021484375,0.06935642659664154,-0.012508093379437923,0.07807368040084839,0.008665774017572403,-0.114460788667202,-6.907619535923004e-05,-0.13096363842487335,0.044241368770599365,-0.14264237880706787,0.09715737402439117,-0.028633344918489456,-0.08368425816297531,0.1289914846420288,-0.18484516441822052,0.005529072135686874,-0.05302717909216881,-0.0868692398071289,-0.06455327570438385,-0.006506682373583317,0.024838721379637718,0.004088371992111206,-0.04260311275720596,-0.06714353710412979,0.02388542704284191,0.10282927751541138,-0.05808449164032936,0.14915847778320312,-0.12761910259723663,0.01356339082121849,-0.02001960575580597,-0.07996231317520142,-0.09121723473072052,-0.04010966420173645,0.045739855617284775,0.08938196301460266,0.01965416967868805,-0.010714078322052956,0.07362999022006989,0.07351703941822052,-0.06657642871141434,-0.06633894890546799,-0.078420490026474,0.092908576130867,-0.04683010280132294,0.07104241102933884,0.08013734966516495,0.029196156188845634,0.017727985978126526,-0.04172813519835472,-0.05779404938220978,0.07547419518232346,-0.03900999203324318,-0.039142586290836334,-0.00510411337018013,0.005610037595033646,-0.12947699427604675,-0.02299252152442932,-0.028459925204515457,0.12571419775485992,0.03453334793448448,0.0014936216175556183,-0.12015964090824127,-0.08470769971609116,0.02595711499452591,-0.03927655145525932,0.16831046342849731,-0.12655459344387054,-0.11974169313907623,0.0047691576182842255,0.15056264400482178,0.10116922855377197,-0.0713069960474968,-0.03334816172719002,-0.012812006287276745,0.06239664554595947,-0.014201829209923744,0.07717186957597733,0.052114494144916534,-0.004537835717201233,0.11808276176452637,-0.17261436581611633,0.002075865864753723,-0.11118277907371521,-0.0726957619190216,0.025217659771442413,-0.09905858337879181,0.03417712450027466,0.06141111999750137,-0.06927013397216797,0.046763986349105835,0.046745359897613525,-0.029173217713832855,-0.08744903653860092,-0.01921379566192627,0.028221100568771362,0.05690758302807808,0.05280407890677452,-0.06947508454322815,-0.07556813210248947,0.0911221131682396,-0.11676084250211716,-0.12830200791358948,0.051244307309389114,-0.055229369550943375,-0.1032695397734642,0.06313260644674301,0.02574053220450878,-0.0018491684459149837,0.0468473806977272,-0.0006565675139427185,-0.04527244716882706,0.03489209711551666,-0.01567002572119236,0.18277324736118317,0.07549111545085907
(-)-Carvone,0.03388625383377075,-0.04598318785429001,0.05706627294421196,0.1971941590309143,0.2314925491809845,0.09724815934896469,-0.12824217975139618,-0.07229544222354889,-0.05649811029434204,-0.0064689344726502895,0.05344715341925621,-0.03027704544365406,-0.033223941922187805,0.01805507019162178,0.02093716710805893,0.08928268402814865,0.05258467048406601,0.018280699849128723,-0.028148479759693146,-0.04865498095750809,0.16910409927368164,-0.06843527406454086,-0.06031111627817154,-0.02547295019030571,-0.02372829243540764,0.03757857158780098,0.2141544073820114,-0.05011077970266342,-0.0979345366358757,0.052973441779613495,0.042289696633815765,0.14574295282363892,-0.009849349036812782,-0.008008215576410294,-0.09519515931606293,0.1019466370344162,0.003959042020142078,0.06796436011791229,0.05142004042863846,-0.2077062726020813,0.19947074353694916,0.17159511148929596,-0.07222837209701538,-0.08425123989582062,0.0787569135427475,0.06454477459192276,-0.07069903612136841,0.10497593879699707,0.07246967405080795,0.007927551865577698,-0.037567175924777985,0.15914364159107208,0.050226032733917236,0.16105592250823975,-0.033695071935653687,0.17167386412620544,-0.09707651287317276,0.09791558980941772,-0.021061204373836517,0.07238918542861938,0.060669850558042526,0.028290390968322754,-0.17417454719543457,-0.015913313254714012,-0.04244817793369293,0.014530621469020844,-0.18640518188476562,-0.08620350062847137,0.11607125401496887,0.010467421263456345,0.09082717448472977,-0.11658084392547607,-0.07883187383413315,0.012206126004457474,-0.011761896312236786,0.17153692245483398,0.01260519027709961,0.045890435576438904,0.1144423633813858,-0.04557982087135315,0.0011606141924858093,-0.04557152837514877,0.043143391609191895,-0.09635883569717407,0.0611380860209465,-0.038345955312252045,-0.041938140988349915,-0.11995792388916016,0.06952188909053802,0.17711979150772095,-0.1032261848449707,-0.11354271322488785,0.03623056784272194,-0.03358343616127968,0.03049522638320923,-0.1527167707681656,-0.07908730953931808,-0.0522967204451561,0.19254928827285767,-0.04874267801642418,-0.0644356906414032,0.034900516271591187,-0.025981184095144272,-0.010691317729651928,0.0257335864007473,-0.015694256871938705,-0.023809764534235,-0.014022212475538254,0.06767786294221878,0.07465242594480515,-0.0403391532599926,-0.09624864906072617,0.2255321443080902,0.025260355323553085,0.19614991545677185,-0.04660038277506828,-0.024859145283699036,0.0641167163848877,-0.051831476390361786,0.14625851809978485,-0.043080393224954605,-0.024683594703674316,-0.0016815841663628817,-0.03272007405757904,0.05841006338596344,-0.014859739691019058,-0.020303670316934586,0.12422560900449753,-0.03668387606739998,0.19986318051815033,0.011830360628664494,0.09976179897785187,0.021777939051389694,0.06680486351251602,-0.050858281552791595,-0.029958996921777725,-0.0851060152053833,-0.03372810781002045,0.06651461124420166,-0.11814776062965393,0.03974340856075287,-0.007771167904138565,0.11854802072048187,0.11728595197200775,0.13852174580097198,0.20199723541736603,-0.07516928762197495,-0.019144341349601746,-0.1619608998298645,0.004814676940441132,0.06414562463760376,0.10975423455238342,-0.09289154410362244,0.08894425630569458,-0.07898623496294022,-0.012734677642583847,-0.011539038270711899,-0.01360357366502285,-0.0017785057425498962,0.0499013252556324,0.08770237118005753,0.11021678894758224,-0.021261408925056458,-0.1433376520872116,-0.15513253211975098,-0.028697887435555458,0.016825474798679352,0.0753764882683754,-0.08462107181549072,-0.05938797444105148,-0.04725990444421768,-0.0647643506526947,0.1132870689034462,0.07165462523698807,-0.022861525416374207,0.005565090104937553,0.1334197223186493,0.019560661166906357,0.0015469593927264214,-0.017334386706352234,0.052713558077812195,-0.11038202792406082,-0.030970530584454536,-0.15678822994232178,0.07562142610549927,-0.11992982774972916,0.0019682496786117554,-0.007643433287739754,0.014547653496265411,0.12015090137720108,-0.23629741370677948,-0.007538631558418274,0.10376720875501633,-0.10706508904695511,0.022429268807172775,0.08889184147119522,-0.09499642997980118,0.029626276344060898,-0.0032661985605955124,-0.06393038481473923,0.01705509051680565,-0.016500653699040413,0.048646971583366394,0.15085645020008087,0.020754516124725342,-0.06841510534286499,-0.016746193170547485,-0.0001262091100215912,-0.12016663700342178,-0.16422371566295624,0.06486599892377853,-0.004379380494356155,0.013926230370998383,0.06089319288730621,-0.03294498473405838,0.0010920874774456024,-0.1416192352771759,0.011920302174985409,-0.04681079462170601,0.08614964783191681,-0.028046386316418648,0.03632806986570358,-0.057414792478084564,0.009813100099563599,0.01344207488000393,0.004645198583602905,-0.15528766810894012,0.12507569789886475,-0.08263351768255234,0.06976685672998428,-0.01917198672890663,-0.030357597395777702,0.055349238216876984,0.06218652427196503,0.07231791317462921,0.03353632241487503,0.06201079487800598,0.0910344272851944,-0.0368892103433609,0.04267853498458862,0.09977594017982483,0.159769207239151,0.011155594140291214,-0.1591724008321762,-0.03776393458247185,0.06728625297546387,0.07753167301416397,0.1172824501991272,-0.09353014826774597,0.07513897120952606,-0.04669935256242752,0.0363847017288208,-0.09376063942909241,-0.061381932348012924,0.08786094933748245,-0.15501761436462402,-0.030524369329214096,-0.1003652885556221,0.061367519199848175,0.033581484109163284,-0.04712508246302605,-0.011826296336948872,0.04894913733005524,0.0912698283791542,0.00240982323884964,-0.08761488646268845,0.16468101739883423,-0.0014725401997566223,0.029253952205181122,-0.14091143012046814,-0.061020419001579285,0.04117141291499138,0.07954950630664825,0.05369227007031441,-0.09383860230445862,-0.10471022874116898,-0.00013128668069839478,-0.09281757473945618,-0.02215953916311264,0.0754849836230278,0.07141216099262238,-0.143894761800766,0.0989626795053482,-0.06832882016897202,-0.02997802570462227,0.06887859851121902,0.1311403512954712,0.04676852747797966,-0.027065958827733994,-0.053468022495508194,0.1781885176897049,-0.006079802289605141
Triethylamine,-0.12585808336734772,0.018118660897016525,-0.0656203180551529,0.017449768260121346,-0.07782311737537384,0.05699792876839638,-0.09646861255168915,-0.08364300429821014,0.03499758988618851,0.09874182194471359,0.08675651252269745,0.04394109547138214,0.06915725767612457,0.07082519680261612,-0.07397712767124176,-0.06869851052761078,0.013088535517454147,-0.1141519546508789,0.041955769062042236,0.07389932125806808,-0.007547731511294842,-0.07341119647026062,0.2080194354057312,0.05230153352022171,-0.015397757291793823,-0.07228501886129379,0.05663702264428139,-0.147478848695755,-0.2015167474746704,0.012138135731220245,0.08481650054454803,0.05676829069852829,-0.01765020377933979,-0.19809453189373016,-0.04359244927763939,0.11121286451816559,0.22376348078250885,-0.028604067862033844,0.1257803738117218,-0.1113671064376831,-0.08578288555145264,0.05235546827316284,-0.11905056238174438,0.01591075211763382,0.12608875334262848,-0.04914209991693497,0.03320031240582466,0.051501721143722534,0.02698253095149994,0.07283459603786469,-0.018390148878097534,0.22064009308815002,0.06550393253564835,0.08342254906892776,-0.05586664378643036,0.13724492490291595,-0.057250797748565674,-0.03330393508076668,-0.012561194598674774,0.031409263610839844,0.008596984669566154,0.06985790282487869,0.10741304606199265,0.1155395358800888,-0.09155494719743729,0.014874771237373352,0.006141025573015213,0.08592000603675842,0.11218984425067902,-0.04505234956741333,-0.18291547894477844,-0.2587871551513672,0.1145198792219162,0.04451903700828552,-0.14033626019954681,0.04210955649614334,0.07064354419708252,0.06869816780090332,-0.0017476454377174377,0.02748473547399044,0.22715607285499573,0.16521573066711426,-0.01637868583202362,0.0003382377326488495,0.035593658685684204,0.013283765874803066,0.1841629594564438,0.12337858974933624,0.021360352635383606,0.11437808722257614,-0.11855185031890869,0.18777692317962646,0.04430239275097847,0.10425271093845367,-0.03624666482210159,-0.13798946142196655,0.02671973593533039,0.03386170044541359,0.008933509700000286,-0.02300592139363289,0.17470614612102509,0.033255159854888916,0.1158398762345314,-0.0019640065729618073,0.16529682278633118,-0.06516923755407333,0.0122038833796978,-0.014279741793870926,-0.031086090952157974,0.1716148406267166,-0.11774756014347076,-0.027730271220207214,-0.02621133252978325,0.11675560474395752,-0.2232113629579544,0.17228004336357117,0.06763774156570435,0.006167083978652954,0.15939578413963318,-0.008823873475193977,-0.050585415214300156,-0.02403596043586731,0.13810256123542786,0.11209806799888611,0.05361231416463852,-0.08955319225788116,-0.06179212033748627,0.023977776989340782,0.14811524748802185,0.15654362738132477,0.026839841157197952,-0.1256333589553833,-0.03078596107661724,-0.05804688483476639,-0.1376287192106247,-0.10932889580726624,0.0030484413728117943,0.011097244918346405,-0.06131003051996231,0.10339266806840897,-0.057078227400779724,0.09528285264968872,0.04157464578747749,0.040688611567020416,-0.13487209379673004,0.13845990598201752,-0.09114754945039749,0.07630568742752075,-0.03157249838113785,0.11539789289236069,-0.051130570471286774,-0.0712505578994751,0.0647643655538559,0.002080921083688736,-0.1165139377117157,-0.05971209704875946,-0.05274317413568497,-0.12625068426132202,-0.06547965109348297,0.051037367433309555,0.006537139415740967,0.009419091045856476,-0.16224068403244019,-0.03859893977642059,0.13837414979934692,0.0717446506023407,-0.0027566924691200256,0.07452701777219772,-0.00931854173541069,0.009892672300338745,0.1070004254579544,0.025075506418943405,0.060374945402145386,-0.05552304536104202,0.15494666993618011,-0.07289090007543564,0.03519042581319809,0.18799300491809845,0.07459737360477448,-0.14797618985176086,-0.1380757838487625,0.0598837174475193,-0.005276629701256752,0.09640324860811234,0.0388733372092247,0.016554635018110275,-0.07925310730934143,0.05502932146191597,-0.0484049990773201,-0.06332764029502869,0.10058961808681488,0.08471432328224182,0.1163562536239624,0.04622415453195572,-0.028943821787834167,-0.07570108771324158,-0.08412031084299088,0.034086111932992935,-0.02840227074921131,-0.08816104382276535,0.02776302397251129,-0.04762882739305496,-0.11169029027223587,0.10370859503746033,-0.06989966332912445,0.10923774540424347,0.09979154169559479,-0.1206316277384758,0.07448552548885345,-0.02350747399032116,0.13023385405540466,0.06047345697879791,-0.021701030433177948,0.09901294112205505,0.052185602486133575,-0.02974020317196846,0.0554550401866436,-0.019640395417809486,0.07111769169569016,-0.11252249032258987,0.0005049416795372963,-0.12320977449417114,-0.07925312966108322,-0.13280996680259705,0.15177443623542786,0.09101808071136475,-0.031759366393089294,-0.11073228716850281,-0.10898727178573608,0.02664761245250702,0.000387704698368907,-0.005791662260890007,-0.08432579040527344,0.0027172714471817017,-0.11236816644668579,-0.1052611768245697,0.01690259389579296,-0.0029832832515239716,0.02203524112701416,0.061658166348934174,0.22071151435375214,0.03239629045128822,-0.17381790280342102,-0.08382037281990051,-0.016099758446216583,-0.010596048086881638,0.05110917240381241,0.13371290266513824,-0.10619708895683289,0.23093514144420624,0.019652439281344414,-0.11524849385023117,0.17492352426052094,-0.0003304407000541687,-0.07267031073570251,0.05451609194278717,0.09059715270996094,-0.08254636079072952,-0.06578001379966736,-0.045744720846414566,0.018402650952339172,0.12430504709482193,-0.12637346982955933,-0.024240702390670776,0.04767056554555893,-0.05600830912590027,0.03825749456882477,-0.13286614418029785,0.09280198067426682,0.12043794989585876,0.05188322812318802,-0.031174471601843834,0.011485885828733444,-0.07818286120891571,-0.19968964159488678,-0.05387895554304123,-0.10782480239868164,0.0074379099532961845,0.13109228014945984,0.03156157582998276,0.060348931699991226,-0.06199025362730026,-0.09772462397813797,0.08387312293052673,-0.07839203625917435,0.04642392694950104,-0.09675637632608414,0.11618779599666595,0.012422695755958557,0.03940105438232422,0.05995902046561241,-0.03860069811344147
w-Pentadecalactone,0.08703678846359253,6.114691495895386e-05,0.023888185620307922,0.1432897001504898,0.17898015677928925,0.10480441153049469,-0.03751833364367485,-0.08787885308265686,-0.10523180663585663,0.026738101616501808,0.006095103919506073,0.04720548167824745,-0.06850829720497131,-0.07380552589893341,0.02478862553834915,0.046509236097335815,0.05309046059846878,0.008870266377925873,0.005774620920419693,0.05022810399532318,-0.03338432312011719,-0.09289825707674026,-0.04625018686056137,0.03621430695056915,0.05071234703063965,0.035293351858854294,0.13290850818157196,-0.02792777121067047,-0.22947219014167786,0.08806037157773972,-0.011101915501058102,0.0752592608332634,-0.05003669112920761,-0.016718406230211258,-0.05215172842144966,0.09474563598632812,-0.002693519927561283,-0.07761036604642868,0.060512300580739975,-0.07535256445407867,-0.027279438450932503,0.10570351779460907,-0.08871740102767944,-0.09432987868785858,-0.09068600833415985,-0.01451687142252922,0.03315248340368271,0.046706244349479675,0.08375438302755356,0.07180020213127136,0.007628915831446648,0.27968379855155945,0.07654625922441483,0.07744330912828445,0.008027797564864159,0.09317468106746674,-0.05694354325532913,0.023203544318675995,0.05296441167593002,0.03194773942232132,-0.01268453523516655,0.042539894580841064,-0.05224205553531647,-0.024014750495553017,-0.07654613256454468,0.03420598804950714,-0.20667073130607605,-0.0033063217997550964,0.018338389694690704,0.08006547391414642,0.011211760342121124,-0.012462422251701355,0.06771237403154373,0.08964263647794724,0.05404772609472275,-0.010601374320685863,0.0993340015411377,-0.019208528101444244,0.004710955545306206,-0.07440420240163803,-0.08625125139951706,0.038549818098545074,0.11448349058628082,0.08981291204690933,0.04582878202199936,0.032784685492515564,-0.08259189128875732,-0.06177464500069618,0.08403488993644714,0.06923913955688477,-0.16253119707107544,-0.053235799074172974,0.034491680562496185,0.04067477583885193,-0.07354184985160828,-0.031364187598228455,-0.01615973375737667,-0.0607612207531929,-0.09542477875947952,-0.021254774183034897,0.09164805710315704,-0.040338076651096344,-0.01102264691144228,0.06902635097503662,0.11323009431362152,0.08437135815620422,-0.08465088158845901,0.04100048169493675,0.0741252675652504,0.10494932532310486,0.13894885778427124,-0.17627783119678497,0.15258902311325073,0.032944757491350174,-0.09653037041425705,0.00511946901679039,-0.12685760855674744,-0.04010772332549095,-0.06224307790398598,0.1787412464618683,-0.015830371528863907,-0.011167504824697971,0.013846778310835361,-0.005624234676361084,0.009082213044166565,-0.07238879799842834,0.010488422587513924,-0.03051031194627285,0.07434549182653427,0.23965857923030853,-0.04939975216984749,0.11480878293514252,-0.1282355636358261,0.026524949818849564,-0.07610223442316055,0.007248072884976864,-0.08275571465492249,-0.07802847772836685,-0.12213636189699173,-0.11809603869915009,0.03388019651174545,0.14460375905036926,0.06510189175605774,0.07819917052984238,0.10233667492866516,0.12262730300426483,-0.19069474935531616,-0.12243697047233582,-0.16313734650611877,-0.05637465417385101,-0.06965706497430801,0.011155359447002411,-0.1651134192943573,-0.08195658028125763,-0.09886225312948227,0.007154520601034164,-0.05291146785020828,-0.011423679068684578,-0.012085922062397003,0.03979691490530968,0.015542782843112946,0.10417491942644119,0.05879762023687363,-0.075441874563694,-0.060146041214466095,0.03272027522325516,0.020550508052110672,0.07543712109327316,-0.09301047772169113,-0.09235525876283646,-0.053535886108875275,-0.023434828966856003,0.07807482033967972,0.16962581872940063,-0.0355021208524704,-0.023589223623275757,-0.10488899797201157,0.19386425614356995,0.014545937068760395,-0.19715538620948792,0.01717858761548996,-0.11369233578443527,-0.019741574302315712,-0.04852665960788727,-0.1281430423259735,-0.23389485478401184,0.06251135468482971,0.07233533263206482,0.050800248980522156,0.038643017411231995,-0.08247198164463043,0.13211458921432495,0.15596994757652283,-0.14020264148712158,-0.02879583090543747,-0.013185345567762852,-0.022368278354406357,-0.03663225099444389,0.04736337065696716,-0.22240190207958221,0.014947783201932907,0.01049228198826313,-0.145615816116333,0.23634253442287445,0.09112910181283951,-0.10677133500576019,0.13096623122692108,-0.0035845041275024414,-0.05720346421003342,-0.04510517045855522,-0.012942280620336533,-0.0604434460401535,-0.017430417239665985,-0.11189239472150803,0.12096771597862244,0.06784480810165405,-0.14110705256462097,0.07448676228523254,-0.040711648762226105,-0.05825795978307724,-0.06887492537498474,-0.005752548575401306,-0.026583503931760788,-0.09186793863773346,-0.08695390820503235,0.10953275859355927,-0.07990892231464386,-0.09246814996004105,-0.02768588811159134,0.08384416252374649,-0.06431448459625244,0.00927472673356533,-0.09772573411464691,-0.054055020213127136,0.07339353114366531,0.13002410531044006,0.025309648364782333,0.017156142741441727,0.07995560020208359,0.033803507685661316,0.1682988852262497,0.06095780059695244,-0.03778174892067909,-0.16959279775619507,-0.04263404384255409,0.12421706318855286,0.0932357981801033,0.08517522364854813,-0.019636211916804314,0.11727933585643768,0.01451353169977665,0.021786073222756386,0.059822335839271545,0.02281658537685871,-0.009891487658023834,0.011440807953476906,0.057893067598342896,0.15665028989315033,-0.09505584836006165,0.09424415230751038,0.08834585547447205,0.1883164346218109,0.01183921005576849,0.19528043270111084,0.0008743368089199066,-0.09912780672311783,0.0006423955783247948,0.07237844914197922,0.04562588781118393,-0.12247544527053833,-0.08533580601215363,-0.018206670880317688,0.1111249327659607,0.011606760323047638,0.03145025297999382,-0.12374383956193924,0.05732914060354233,-0.0872124433517456,-0.06720848381519318,0.02484165132045746,0.06675831973552704,-0.2846972346305847,0.04716207832098007,-0.03710704296827316,0.013074363581836224,-0.011264540255069733,0.07159769535064697,0.016170058399438858,-0.09338836371898651,0.074130579829216,0.28964611887931824,-0.023548319935798645
"Isopentylamine (1-Amino-3-methylbutane, Isoamylamine)",-0.09702575951814651,0.05937720835208893,-0.07827823609113693,-0.025415539741516113,-0.24697835743427277,0.03384212777018547,-0.01652161031961441,-0.1473517268896103,0.005653053522109985,0.058033861219882965,0.08516615629196167,0.025567810982465744,0.004114322364330292,0.09921019524335861,-0.06862135976552963,-0.013120319694280624,-0.029734013602137566,-0.21102866530418396,0.07800265401601791,0.046418026089668274,-0.03122703731060028,-0.11767414212226868,0.24900248646736145,0.024251526221632957,0.0014666654169559479,-0.05530180782079697,0.14423500001430511,-0.10316099226474762,-0.15128520131111145,0.03487511724233627,0.14474605023860931,0.06293182820081711,0.0015823710709810257,-0.17432573437690735,0.016567789018154144,0.05393251031637192,0.19483865797519684,0.032704081386327744,0.12545843422412872,-0.053696777671575546,-0.24328261613845825,-0.006080329418182373,-0.05640427768230438,0.05394808575510979,0.045405417680740356,-0.059782423079013824,0.028249435126781464,0.03494248539209366,0.006721042096614838,0.10370807349681854,-0.029573308303952217,0.07197614014148712,-0.02847912162542343,0.052732132375240326,-0.10231603682041168,0.08992727100849152,0.02757817506790161,0.021252721548080444,-0.020296402275562286,0.04206471890211105,-0.0722656399011612,0.08801373094320297,0.03837917372584343,0.1075892522931099,-0.038195159286260605,0.05566449090838432,0.08478260040283203,0.1142047792673111,0.05157953500747681,0.008471104316413403,-0.20658504962921143,-0.1103905439376831,0.10745777934789658,0.09229803085327148,-0.17639774084091187,-0.05005926266312599,0.12882061302661896,0.02738717943429947,0.0208834670484066,0.0927349254488945,0.22368882596492767,0.07652944326400757,0.052947260439395905,0.12075202167034149,-0.08794526010751724,0.054748985916376114,0.1529962718486786,0.14327532052993774,-0.10454286634922028,0.16988541185855865,-0.07525740563869476,0.1490795761346817,0.09341016411781311,0.08504912257194519,0.0015387162566184998,-0.044563837349414825,-0.035929299890995026,0.06258991360664368,-0.06754537671804428,0.05136440694332123,0.15770377218723297,-0.07747483253479004,0.19600313901901245,0.04376460611820221,0.1812199503183365,-0.09157329797744751,0.08290456980466843,0.0831533819437027,-0.13050463795661926,0.0618927963078022,-0.10328049212694168,0.0012151752598583698,-0.056269221007823944,0.18994735181331635,-0.22225317358970642,0.15888601541519165,0.09219488501548767,-0.0778229832649231,0.15341195464134216,-0.010566198267042637,-0.0027048587799072266,-0.06148719787597656,0.10000523924827576,0.13991421461105347,0.08422267436981201,-0.007353771477937698,-0.007148352917283773,0.0518685057759285,0.08427546173334122,0.17844901978969574,0.010443535633385181,-0.15444520115852356,-0.1368730515241623,-0.08223321288824081,-0.09557294100522995,-0.1323876976966858,-0.05686655640602112,-0.02138209342956543,0.05804440379142761,0.21708481013774872,-0.09049221873283386,0.19743895530700684,0.0048867762088775635,0.16046474874019623,-0.167036771774292,0.12627887725830078,-0.20890751481056213,0.10674859583377838,-0.0715748518705368,0.16186104714870453,0.043147601187229156,0.03501174598932266,0.00450526736676693,-0.06097804382443428,-0.05877801030874252,-0.11088021099567413,0.002644054591655731,-0.05234288424253464,-0.059490133076906204,-0.04305090010166168,-0.050938501954078674,-0.06351981312036514,-0.019267767667770386,-0.08540204167366028,0.22924062609672546,0.08212868124246597,0.01852986589074135,0.0903068259358406,-0.013809625059366226,-0.04402729868888855,0.08970805257558823,0.03511880338191986,0.01890641823410988,-0.030425984412431717,0.198478564620018,-0.014794733375310898,-0.000654071569442749,0.18854203820228577,0.11071103811264038,-0.09917289763689041,-0.12470178306102753,0.05805560201406479,0.02984265796840191,0.17378605902194977,0.0673925131559372,-0.04210897535085678,0.011230561882257462,0.13386282324790955,-0.09328639507293701,-0.07508859783411026,0.20849797129631042,0.07961496710777283,-0.055781055241823196,-0.031569648534059525,-0.04304997995495796,-0.16485004127025604,0.06562590599060059,-0.05835174024105072,0.04878843575716019,-0.001726287417113781,-0.00420986395329237,0.038254283368587494,-0.11705441772937775,-0.011511052027344704,-0.12485256791114807,0.16252318024635315,0.11034338176250458,-0.08354554325342178,0.11043890565633774,0.07857125252485275,0.1552935242652893,0.07361570000648499,-0.022188980132341385,-0.036009032279253006,0.015631338581442833,0.08189272880554199,0.15612083673477173,-0.10251140594482422,0.08774954825639725,-0.0941745936870575,-0.06476057320833206,-0.24391239881515503,-0.03444322943687439,-0.1933407038450241,0.1796495020389557,-0.03683491051197052,0.15313443541526794,-0.25711917877197266,-0.11085426062345505,0.003757662605494261,-0.005058172158896923,-0.007351236417889595,-0.14828431606292725,-0.060652315616607666,-0.15250860154628754,-0.03638025373220444,0.00741918757557869,-0.055727019906044006,-0.058704257011413574,0.013936402276158333,0.13311263918876648,0.0012586377561092377,-0.1273149847984314,-0.1143571063876152,-0.05694400891661644,0.060990508645772934,0.14874517917633057,0.07339069247245789,0.02352007105946541,0.22985394299030304,-0.05698264390230179,-0.10447562485933304,0.17961359024047852,-0.00038525089621543884,-0.0808284729719162,0.1422848105430603,0.11333227157592773,-0.09823808819055557,-0.06033523753285408,-0.07204867899417877,-0.00895950198173523,0.029062021523714066,-0.17169682681560516,-0.07212674617767334,0.14766955375671387,-0.05642874538898468,-0.16237837076187134,-0.11707919090986252,-0.004165753722190857,0.18988892436027527,0.0611470490694046,0.059365496039390564,-0.04931550845503807,-0.03650038316845894,-0.09198004007339478,-0.06895778328180313,-0.0684506818652153,0.045619916170835495,0.11220122873783112,-0.009037729352712631,0.05261681601405144,0.00654110312461853,-0.03317428007721901,0.14060014486312866,-0.08151711523532867,0.06066267937421799,-0.06768205761909485,-0.02210479974746704,-0.0023050457239151,0.07898689806461334,0.1078820526599884,0.0030194511637091637
trans-2-Methyl-2-butenal (2MB),-0.03709375113248825,0.027836015447974205,-0.11532437801361084,0.08669701963663101,0.016768183559179306,0.11172623932361603,-0.06735526025295258,-0.09078069031238556,0.11662162095308304,0.0580388642847538,0.06654390692710876,0.022751785814762115,0.052011821419000626,0.02183672785758972,0.01894374191761017,-0.09389087557792664,0.04894852638244629,-0.11145944893360138,0.0784689262509346,0.1152295395731926,0.043040525168180466,-0.09021861106157303,0.08340152353048325,-0.07784079015254974,-0.03269952908158302,0.031879037618637085,0.12992890179157257,-0.12105714529752731,-0.148084819316864,0.019242525100708008,0.0499425083398819,0.10399743169546127,0.05013786256313324,-0.19554834067821503,-0.07792966067790985,0.0806402862071991,0.1083667203783989,0.11009025573730469,0.11901098489761353,-0.11125701665878296,-0.04125744849443436,0.10094393789768219,-0.1579848676919937,0.011476222425699234,0.038916606456041336,-0.0895896703004837,-0.04128667339682579,0.09103046357631683,0.04522132873535156,0.05439761281013489,-0.0829676166176796,0.14377658069133759,0.11245527863502502,0.18047836422920227,-0.057425081729888916,0.10526366531848907,-0.02419092319905758,-0.03431188315153122,-0.003254912793636322,0.07822004705667496,0.11692559719085693,-0.02343805320560932,0.009394928812980652,0.024625763297080994,-0.006838514469563961,0.03648926690220833,-0.023500613868236542,0.03284844011068344,0.10530067980289459,-0.06245342642068863,-0.0639801099896431,-0.2512376308441162,0.03251055255532265,0.054420508444309235,-0.012826800346374512,0.09358859807252884,0.06609450280666351,0.158623605966568,0.0564727708697319,-0.07380077242851257,0.12236420810222626,0.08109521865844727,-0.00987543910741806,-0.0474691279232502,0.061976440250873566,-0.006721474230289459,0.12094583362340927,0.11095237731933594,0.08613146841526031,0.06352812051773071,-0.0780070573091507,0.12764158844947815,0.07071597129106522,0.044890183955430984,-0.03332836180925369,-0.15348827838897705,-0.0190605316311121,-0.032719776034355164,0.1321101188659668,0.055585827678442,0.05451643466949463,0.041093938052654266,0.05789780616760254,0.009042853489518166,0.1259048581123352,0.0023237988352775574,0.07506963610649109,-0.012522120028734207,-0.022850507870316505,0.1824997216463089,-0.08101975172758102,-0.05566341057419777,0.04921969026327133,0.03461632877588272,-0.11418678611516953,0.10696607828140259,-0.004345066845417023,0.06933479011058807,0.16066868603229523,-0.014173561707139015,-0.04740890488028526,-0.05034564435482025,-0.02897391840815544,-0.03851650655269623,0.10450160503387451,-0.09388087689876556,-0.0003530113026499748,0.0608101561665535,0.027376804500818253,0.2031530886888504,0.08336617052555084,-0.03496628254652023,-0.036324478685855865,-0.008421381935477257,-0.08625666052103043,-0.05645592138171196,-0.028556348755955696,-0.04528539627790451,-0.05477439612150192,0.005333982408046722,-0.0639103353023529,0.14548179507255554,0.0925975888967514,0.020899448543787003,-0.0534718781709671,0.1731177121400833,-0.1272566318511963,0.03750203177332878,-0.09576861560344696,0.11099795252084732,0.0556441992521286,-0.0783335417509079,-0.004943268373608589,-0.034596581012010574,-0.09254486858844757,-0.023596931248903275,0.05037308484315872,-0.055757053196430206,-0.009223252534866333,0.028542306274175644,-0.049073610454797745,0.022219548001885414,-0.09027165174484253,-0.09408921003341675,-0.06289232522249222,0.017809778451919556,0.0869082659482956,0.15809185802936554,-0.07252015173435211,0.0021349331364035606,0.03798813000321388,-0.06450162827968597,0.03430145978927612,0.01794690079987049,0.19865648448467255,0.01784524694085121,0.07282541692256927,0.0788188949227333,0.11789760738611221,-0.01594524271786213,-0.04661128669977188,-0.023493759334087372,-0.05467543005943298,-0.08147559314966202,0.06015518307685852,-0.026166029274463654,0.018551241606473923,-0.030474793165922165,0.0654461681842804,0.0820150151848793,-0.047778788954019547,-0.00871850922703743,0.1622130274772644,-0.06971031427383423,-0.0463382788002491,-0.01745673641562462,-0.026441583409905434,-0.06108458712697029,-0.06685040146112442,-0.15892472863197327,0.05077999830245972,0.027125351130962372,-0.1327129602432251,0.0525425560772419,-0.0728909894824028,-0.09710406512022018,-0.0034426748752593994,-0.06931723654270172,-0.008590329438447952,-0.030228231102228165,0.0004967823624610901,0.13727977871894836,-0.14198152720928192,0.026387274265289307,0.08946432173252106,-0.04205469414591789,0.0028503164649009705,0.0516517274081707,0.1039661392569542,-0.07380737364292145,0.066938117146492,-0.029790841042995453,-0.047484129667282104,-0.04164944961667061,0.03944049030542374,0.0725133866071701,-0.13697205483913422,0.002260874956846237,-0.149501770734787,0.010771304368972778,0.03814207762479782,-0.05951649695634842,-0.13016819953918457,-0.08222872763872147,-0.01070227101445198,0.058507904410362244,0.013770055025815964,0.02717684581875801,-0.004902854561805725,0.024151304736733437,0.05895046889781952,0.05358203127980232,0.04201192781329155,-0.09731549024581909,-0.018773093819618225,0.05608157441020012,0.12755784392356873,0.07165472209453583,-0.0535847470164299,0.1255066841840744,0.07138896733522415,-0.08930680900812149,0.08446725457906723,0.0008913874626159668,-0.040048081427812576,-0.11882290244102478,-0.06340421736240387,-0.12670999765396118,-0.03149503841996193,0.03813968226313591,0.06021696329116821,0.05511697009205818,-0.05366332828998566,0.009590914472937584,0.09664233028888702,-0.02596471458673477,0.0644107311964035,-0.06517951190471649,0.025405332446098328,0.07997708022594452,-0.022632675245404243,0.09043749421834946,0.025696881115436554,-0.08292193710803986,-0.1320643126964569,-0.0743318423628807,-0.10818366706371307,-0.0150629673153162,0.012380789965391159,-0.025546180084347725,0.026189763098955154,-0.024226069450378418,-0.06375738233327866,0.05883768945932388,-0.028820576146245003,0.17883357405662537,-0.001917824149131775,0.07590420544147491,-0.003499086946249008,0.029892602935433388,0.10186591744422913,-0.021615348756313324
o-Tolyl isobutyrate,-0.0490071177482605,-0.10324206203222275,0.07714369148015976,0.14692401885986328,0.06327736377716064,0.05632888153195381,-0.07872439920902252,-0.050677333027124405,-0.03542501479387283,0.02956989035010338,0.031032081693410873,0.049429576843976974,-0.04456532746553421,0.06816460192203522,0.05194849520921707,0.035637225955724716,0.08357556909322739,0.01888112723827362,0.02191022038459778,0.013968050479888916,0.06017220765352249,-0.027700603008270264,-0.0577043816447258,-0.029726289212703705,0.024168379604816437,0.015662677586078644,0.17053811252117157,-0.07692791521549225,-0.07840899378061295,0.012112632393836975,0.07493874430656433,0.11048147827386856,0.007319631054997444,-0.027325991541147232,-0.1295998990535736,0.08244514465332031,0.00977316778153181,0.001663336530327797,0.011604437604546547,-0.16574294865131378,0.08363832533359528,0.11623615771532059,-0.02642957493662834,-0.05500354617834091,0.08528224378824234,0.020662611350417137,-0.10542875528335571,0.06720270216464996,0.05646941810846329,-0.054324470460414886,-0.03311849385499954,0.06836755573749542,0.11630537360906601,0.04814808815717697,-0.030140021815896034,0.19197291135787964,-0.07302071899175644,0.12089914083480835,-0.013989008963108063,0.0440836101770401,0.09040629118680954,-0.03014734759926796,-0.1257936656475067,0.09311001747846603,-0.03820403665304184,0.12380125373601913,-0.09134995937347412,-0.07750461995601654,-0.012492045760154724,0.04542600363492966,0.08837328106164932,-0.13341999053955078,-0.11755947023630142,0.04070118069648743,-0.023508664220571518,0.10070229321718216,-0.005267664790153503,0.003476642072200775,0.07345320284366608,-0.0009951423853635788,-0.06981717795133591,-0.0678539052605629,0.09098540246486664,-0.06906962394714355,-0.030757836997509003,0.05765479803085327,-0.05510881543159485,-0.03880595043301582,0.0023392699658870697,0.14634987711906433,-0.12009067833423615,-0.10711837559938431,0.01865396276116371,-0.007952137850224972,-0.002100735902786255,-0.12503045797348022,-0.10589179396629333,0.07168541103601456,0.1896274983882904,-0.03858962282538414,0.07641655951738358,0.03581847995519638,-0.0452401340007782,0.012990476563572884,0.026291925460100174,0.00574866309762001,0.009894099086523056,0.008362818509340286,0.06755754351615906,0.10991141945123672,0.013923311606049538,-0.13191556930541992,0.12132079154253006,0.030587520450353622,0.09987319260835648,-0.1102684885263443,-0.02756490558385849,0.05009355768561363,-0.0603986494243145,0.04312891140580177,-0.06852380931377411,-0.021500498056411743,-0.0394454300403595,-0.07337837666273117,-0.03485795110464096,-0.002082221210002899,-0.03092275746166706,0.04841857776045799,0.03607853874564171,0.20293869078159332,-0.0011366484686732292,0.08582424372434616,0.04773585870862007,0.015278253704309464,0.026062028482556343,-0.00884315650910139,-0.029114462435245514,-0.06266363710165024,0.027504652738571167,-0.052473679184913635,-0.02713211253285408,-0.004185784608125687,0.1273268610239029,0.17515677213668823,0.1127120703458786,0.1193661093711853,-0.09370360523462296,-0.05770982801914215,-0.11542750149965286,-0.031353600323200226,0.04605758935213089,0.029569685459136963,-0.13164521753787994,-0.011873796582221985,0.02656472474336624,-0.018504757434129715,0.02083957940340042,0.009604088962078094,-0.09345056116580963,0.018610093742609024,0.09384485334157944,-0.03129710257053375,-0.07605341076850891,-0.08361417055130005,-0.10816895216703415,-0.013965120539069176,0.01489931344985962,0.07259998470544815,-0.09121168404817581,-0.03299903869628906,-0.0539519265294075,-0.014258644543588161,0.023832999169826508,0.006213558837771416,0.08120706677436829,0.0058114007115364075,0.03434055298566818,0.016232870519161224,-0.0019244488794356585,-0.022218164056539536,0.07121352851390839,-0.13697603344917297,0.023110533133149147,-0.09049825370311737,0.0007749348878860474,-0.10510393232107162,0.041725222021341324,-0.07615932822227478,-0.030323894694447517,0.08040925115346909,-0.17894098162651062,-0.00484810397028923,0.09107378125190735,-0.04645524546504021,-0.026281360536813736,0.0021892902441322803,-0.0884239599108696,-0.10251472890377045,-0.007418151944875717,-0.1112227514386177,0.10067860782146454,-0.08338166773319244,-0.0819229856133461,0.065333291888237,-0.02035180665552616,0.007208980619907379,-0.02403067797422409,0.05187428742647171,-0.11429036408662796,-0.04711434990167618,0.027075067162513733,0.03963501378893852,-0.0067245736718177795,0.002451349049806595,-0.022722788155078888,-0.0023718364536762238,-0.11768830567598343,0.12669970095157623,0.01585187017917633,0.042091771960258484,-0.041792020201683044,0.022617749869823456,-0.06556158512830734,0.037990160286426544,-0.03304228186607361,0.03183674067258835,-0.11201503872871399,0.09194441139698029,-0.020901665091514587,-0.01019224151968956,-0.0783846527338028,0.048214226961135864,-0.08106382936239243,0.031466223299503326,0.021137531846761703,0.07088039815425873,0.14246276021003723,0.09802106022834778,-0.024576306343078613,0.06441569328308105,0.0824434906244278,0.06527243554592133,0.01040453091263771,-0.17655807733535767,-0.0779750794172287,0.019654210656881332,0.1086135134100914,0.07062725722789764,-0.07137711346149445,0.007307570427656174,-0.11162296682596207,0.027427205815911293,-0.0038033537566661835,-0.05182308331131935,0.08089133352041245,-0.023295078426599503,-0.02041376754641533,-0.026787489652633667,0.06186569854617119,0.04936382547020912,-0.02475586161017418,-0.030298564583063126,0.031389180570840836,0.14004725217819214,0.1134457141160965,-0.09449735283851624,0.09400645643472672,-0.034586306661367416,0.004525341093540192,-0.11328624933958054,-0.04077989608049393,0.07694443315267563,0.04499266669154167,-0.0122603140771389,-0.06691765785217285,-0.06183028966188431,0.10845760256052017,-0.017003925517201424,-0.0343267098069191,0.17482686042785645,0.06504380702972412,-0.11605409532785416,0.019170649349689484,-0.04601682722568512,0.007296242285519838,0.09907052665948868,0.145616352558136,-0.0106633510440588,0.019512169063091278,-0.0013357065618038177,0.1274155080318451,0.06532302498817444
(+)-Camphor,-0.03316900134086609,-0.06748639792203903,0.06999988108873367,0.08777153491973877,-0.014233728870749474,0.10865383595228195,-0.03448350355029106,-0.037198446691036224,-0.2415221780538559,0.026904316619038582,-0.017346534878015518,0.039269380271434784,0.022279400378465652,-0.01916614919900894,0.04074087738990784,-0.16927434504032135,0.01324448361992836,-0.01898101344704628,-0.025395726785063744,0.09525253623723984,0.06964490562677383,-0.03325819969177246,-0.05172859877347946,-0.07661262154579163,-0.16697588562965393,0.08749552071094513,-0.2740626335144043,0.01858493685722351,-0.06575939804315567,0.009014591574668884,-0.05949478596448898,0.09680063277482986,-0.10667292773723602,0.04452071338891983,-0.01521337777376175,0.17734955251216888,0.1123354509472847,-0.11709512770175934,0.14223723113536835,-0.18682298064231873,0.05191579461097717,-0.027370190247893333,0.05934813618659973,0.03623134270310402,0.13465891778469086,0.09266004711389542,0.09374876320362091,0.10793635249137878,0.4174700379371643,0.07701556384563446,0.10761699080467224,0.20844188332557678,0.006248123943805695,-0.036275140941143036,-0.05080252140760422,0.045143142342567444,-0.19086353480815887,0.05824483186006546,0.09341592341661453,-0.1347941756248474,-0.12079824507236481,-0.21083977818489075,-0.0589829683303833,0.0033004414290189743,-0.04069897159934044,0.01263522356748581,-0.030299747362732887,0.11060088872909546,-0.04791496321558952,-0.032676756381988525,0.1444908082485199,-0.14328351616859436,0.04456287994980812,-0.04757825657725334,0.15187206864356995,0.18752995133399963,-0.12766431272029877,0.13342364132404327,-0.05260607972741127,0.05520258843898773,-0.11863241344690323,0.10976463556289673,0.11730362474918365,-0.019841652363538742,0.09702175855636597,-0.06874864548444748,0.08165188133716583,-0.06593319773674011,-0.027348212897777557,-0.2517227530479431,-0.11219123005867004,-0.14260345697402954,-0.14545468986034393,-0.030843287706375122,0.035537395626306534,0.03543781489133835,-0.06416729092597961,-0.09203407913446426,0.12147310376167297,-0.13417688012123108,-0.026385771110653877,0.219112366437912,-0.26557305455207825,-0.018197260797023773,-0.12810397148132324,0.0344647541642189,-0.08540427684783936,-0.14511176943778992,0.12796829640865326,-0.01094399020075798,0.043738868087530136,-0.049841832369565964,0.10519848018884659,-0.02061626687645912,0.013192005455493927,0.037582170218229294,-0.2200131118297577,0.0794292688369751,-0.06589013338088989,0.001051351078785956,-0.22816042602062225,0.06306562572717667,0.007091552950441837,-0.05683361738920212,-0.10999012738466263,-0.20925374329090118,0.010900665074586868,-0.06388609856367111,-0.13836480677127838,0.26654064655303955,-0.11389520764350891,0.22750763595104218,-0.018217049539089203,-0.13793130218982697,0.06684156507253647,-0.09621186554431915,-0.011048049665987492,-0.11314432322978973,-0.15032146871089935,-0.22955633699893951,0.12967729568481445,-0.0859915167093277,0.13049502670764923,0.06703382730484009,0.18067237734794617,0.05350755155086517,0.0254846028983593,-0.107412189245224,-0.13546547293663025,0.00959219504147768,0.023855671286582947,-0.04390457645058632,0.07911144196987152,0.1478472203016281,-0.19379855692386627,0.024335738271474838,0.03739339858293533,0.004024231806397438,-0.052557896822690964,0.0550365187227726,0.11812561005353928,-0.11601156741380692,-0.001600503921508789,-0.016957566142082214,-0.14593330025672913,0.078886479139328,-0.21851521730422974,0.11785166710615158,-0.1334732174873352,0.16088032722473145,0.030807560309767723,0.24572047591209412,0.006707809865474701,-0.10106558352708817,-0.006439141929149628,-0.07265527546405792,-0.1148168221116066,0.01752740517258644,-0.004855395294725895,0.07945891469717026,0.06990844011306763,-0.12667301297187805,0.03293251991271973,-0.07700178772211075,0.0022750720381736755,-0.2542992830276489,-0.030401919037103653,-0.01221192255616188,-0.21837358176708221,-0.10115393996238708,-0.2926335036754608,0.3350996971130371,0.12636606395244598,-0.10527531057596207,-0.006102083250880241,-0.027334682643413544,-0.13279500603675842,0.12843167781829834,-0.041864462196826935,-0.1161692664027214,0.01046815887093544,-0.1843143105506897,-0.035206280648708344,0.3785615563392639,0.031365957111120224,0.008940465748310089,0.047141946852207184,-0.13969877362251282,-0.16661372780799866,0.033197320997714996,0.02199500799179077,-0.008792852982878685,0.08803411573171616,-0.013536881655454636,-0.06649375706911087,-0.14068813621997833,-0.23633790016174316,0.001658249064348638,0.09627807885408401,-0.14287243783473969,0.0879693254828453,0.27752572298049927,0.057554781436920166,0.06094738468527794,-0.2244580239057541,0.09037460386753082,-0.15990464389324188,0.010116884484887123,-0.004234778694808483,0.041250597685575485,-0.03671620413661003,0.0948195531964302,0.004586039111018181,0.24103392660617828,-0.14588475227355957,-0.24794980883598328,-0.032995037734508514,0.014400932937860489,0.12864896655082703,-0.010346991941332817,0.20132823288440704,0.07589106261730194,0.014406878501176834,-0.027416348457336426,0.09671492129564285,0.07885180413722992,0.009815312922000885,0.22963882982730865,-0.1518888771533966,-0.09637823700904846,0.11172465234994888,0.140378937125206,-0.1513625681400299,0.008912824094295502,0.1653522402048111,-0.008581537753343582,-0.07260067760944366,-0.017600279301404953,-0.1386747509241104,-0.07156337797641754,0.0648944079875946,0.03739205002784729,-0.09821420907974243,-0.053481653332710266,-0.27410227060317993,-0.10218670219182968,0.10737313330173492,0.07373389601707458,0.02862374484539032,-0.2475677728652954,0.03433668613433838,-0.1649141013622284,0.13508743047714233,0.16003209352493286,-0.06992736458778381,-0.2581602931022644,0.053069956600666046,-0.21574172377586365,-0.15556961297988892,0.04360663890838623,-0.10338583588600159,-0.17485976219177246,0.09717130661010742,0.11316951364278793,0.0065101333893835545,0.0326872393488884,0.08178427815437317,0.011332914233207703,0.03640780597925186,0.11473719030618668,0.023481260985136032,-0.004097494296729565
Methyl disulfide,-0.08427966386079788,0.057566121220588684,-0.1422184705734253,-0.08258704096078873,-0.19659554958343506,0.07666291296482086,0.09050706773996353,-0.10663440823554993,0.16057533025741577,-0.06038098409771919,0.032662492245435715,-0.05984000116586685,-0.006987564265727997,0.013958950527012348,-0.10316106677055359,-0.039137162268161774,-0.08257494866847992,-0.05328984931111336,-0.04969608411192894,0.016512004658579826,0.027594733983278275,0.030895065516233444,0.2581399977207184,0.046446457505226135,0.05574030801653862,-0.023472070693969727,0.14245478808879852,-0.13302680850028992,0.03460988774895668,0.0437510684132576,0.06851562857627869,-0.05707239359617233,0.10681504011154175,-0.06790867447853088,0.026636507362127304,-0.04315358027815819,0.1888343095779419,0.12922382354736328,0.11552640795707703,-0.07513314485549927,-0.15685783326625824,0.0019652117043733597,-0.08374255150556564,0.13255243003368378,0.03021487593650818,-0.016724426299333572,0.03395761549472809,0.045444488525390625,-0.09976626932621002,0.07817484438419342,-0.028944745659828186,-0.15985620021820068,-0.12508758902549744,-0.06724058836698532,-0.18818193674087524,-0.014482639729976654,0.0780542641878128,0.07790324836969376,-0.06470903009176254,0.02964610978960991,-0.11649630963802338,0.0758373811841011,0.13256588578224182,0.10202668607234955,0.00038656219840049744,0.06437835097312927,0.17906440794467926,-0.03325860947370529,-0.08290785551071167,0.06384429335594177,-0.2981588840484619,-0.106435626745224,-0.027667049318552017,0.09355688095092773,-0.1689305156469345,-0.11343644559383392,0.1404949277639389,-0.035767264664173126,0.046076856553554535,0.04202505201101303,0.34105420112609863,0.08517220616340637,-0.07439757138490677,0.02151678130030632,-0.06230602785944939,-0.009295845404267311,0.16603879630565643,0.1516905128955841,-0.19690774381160736,0.14248806238174438,-0.08748209476470947,0.1184270828962326,0.09898984432220459,0.03192950412631035,0.03987930342555046,-0.14376595616340637,-0.04107414931058884,0.05494006723165512,0.014408052898943424,0.12614431977272034,0.051192134618759155,-0.22405344247817993,0.24372586607933044,0.06670673936605453,0.055896054953336716,-0.03183513134717941,0.007717538625001907,0.15625037252902985,-0.1749015599489212,0.03409428149461746,-0.12176568061113358,0.0720728412270546,-0.12858523428440094,0.2668200135231018,-0.11452745646238327,0.08811305463314056,0.1410801112651825,0.043041128665208817,0.14324349164962769,-0.09579738229513168,0.11311380565166473,-0.06454063951969147,0.03661121800541878,0.08868776261806488,0.08220513164997101,0.1511646807193756,-0.0618978887796402,0.19633734226226807,-0.0010250031482428312,0.026682481169700623,-0.03382228687405586,-0.19241876900196075,0.015475153923034668,-0.08452451229095459,-0.08599440008401871,-0.13216784596443176,0.015702426433563232,0.04709690436720848,0.21077875792980194,0.2502281367778778,-0.15865981578826904,0.07365358620882034,-0.12033748626708984,0.06282874196767807,-0.12225766479969025,0.041734516620635986,0.018616827204823494,0.18366317451000214,0.04404451698064804,0.07173164933919907,0.05825577676296234,0.06223874166607857,-0.1101306900382042,0.04982205480337143,-0.08730889856815338,-0.07355675101280212,-0.04303237795829773,-0.018170492723584175,0.07128332555294037,-0.09630923718214035,-0.08380400389432907,-0.022234806790947914,0.09398014843463898,-0.07937323302030563,0.27474647760391235,0.012202726677060127,0.02499321848154068,-0.07447086274623871,0.007279958575963974,-0.19493025541305542,0.06537757813930511,-0.04805587977170944,0.0748678594827652,-0.1266143023967743,0.0051591843366622925,0.03513205796480179,0.023940015584230423,0.15856735408306122,0.13325335085391998,-0.06295400112867355,-0.13362497091293335,0.18375636637210846,-0.03829067200422287,0.09284545481204987,0.057051584124565125,0.10650306940078735,-0.08885607123374939,-0.02156754583120346,-0.053007449954748154,-0.21720698475837708,0.1932591050863266,-0.02123614028096199,-0.1286184936761856,0.13452520966529846,-0.05295684561133385,-0.14886923134326935,0.06268797814846039,-0.012201020494103432,0.1337694376707077,0.0651988759636879,-0.0552976094186306,0.08089539408683777,-0.09000730514526367,-0.12763404846191406,-0.08954430371522903,0.07371050119400024,0.013174101710319519,-0.0334947407245636,0.24309858679771423,0.01036830060184002,0.023024141788482666,0.020395085215568542,-0.10091449320316315,0.028059709817171097,-0.03910692408680916,0.1220729798078537,0.302062064409256,-0.05570833012461662,9.212642908096313e-05,-0.09961220622062683,-0.00015377067029476166,-0.2929517924785614,-0.029687121510505676,-0.10430875420570374,0.2737068235874176,-0.20802652835845947,0.11463091522455215,-0.1573520004749298,-0.020706208422780037,-0.06646863371133804,-0.040647976100444794,-0.018374977633357048,-0.09929165989160538,-0.1399553120136261,-0.16163349151611328,-0.07160568982362747,0.03329391032457352,-0.06969814002513885,-0.16224640607833862,0.04614495486021042,0.033412106335163116,0.10884442925453186,0.017285699024796486,-0.10951432585716248,-0.043966129422187805,-0.05070960149168968,-0.12171046435832977,-0.020800892263650894,0.025563355535268784,-0.042217012494802475,-0.04350794106721878,0.032361604273319244,0.11700327694416046,0.07534725964069366,-0.08934403955936432,0.08304163813591003,0.16179032623767853,-0.13159677386283875,0.17924465239048004,-0.1902342140674591,-0.12315432727336884,0.02254984900355339,-0.057625167071819305,0.03830539435148239,0.13545387983322144,-0.09338103979825974,-0.17542612552642822,0.04346592724323273,-0.09412776678800583,0.09734690189361572,0.058349352329969406,0.0686308965086937,-0.07149592787027359,-0.16110511124134064,-0.011079996824264526,0.05179407075047493,-0.11602777987718582,0.13359753787517548,0.061995528638362885,0.002001468325033784,0.09360608458518982,0.22302958369255066,-0.02381187304854393,-0.04410549998283386,-0.08000791072845459,0.01873578131198883,-0.14509126543998718,-0.02192409336566925,-0.046035654842853546,0.03215750306844711,-0.09884822368621826,-0.03483762592077255
Anethole,0.05078265070915222,-0.05292610824108124,0.09822692722082138,0.1300426423549652,0.08544442057609558,-0.010700834915041924,0.03566393256187439,-0.15430235862731934,-0.03898768126964569,-0.008596790954470634,0.11147777736186981,0.018393976613879204,0.04086427763104439,-0.08031442761421204,-0.09351003915071487,-0.05877210944890976,0.05548964440822601,-0.018070656806230545,0.041481293737888336,0.009517576545476913,0.10282531380653381,-0.0923691987991333,0.02872980758547783,-0.008927293121814728,0.013763748109340668,0.03864911198616028,0.10448185354471207,-0.060411229729652405,-0.10541041940450668,0.062146805226802826,0.030549565330147743,0.08179474622011185,-0.06091216206550598,-0.048477914184331894,-0.048972535878419876,0.047745123505592346,-0.04765334352850914,0.010617431253194809,0.07616956532001495,-0.016352538019418716,0.05269284546375275,0.10832798480987549,-0.15516068041324615,-0.06376972794532776,0.0040457965806126595,0.035936251282691956,0.06069188565015793,0.050252124667167664,0.25919678807258606,0.08904117345809937,0.08843779563903809,0.22357305884361267,0.05961950495839119,0.05213484913110733,-0.05958039313554764,0.0911727249622345,-0.17991457879543304,0.011380530893802643,-0.028274960815906525,-0.04048706591129303,-0.03281041607260704,-0.10916944593191147,-0.18121227622032166,-0.013012567535042763,-0.02952215075492859,0.05752761662006378,-0.2127213031053543,0.06452029198408127,-0.19102324545383453,-0.043446384370326996,0.0007949844002723694,-0.08317521214485168,-0.005621474236249924,-0.015268202871084213,-0.03446808457374573,0.08470099419355392,0.0921081006526947,0.0273355171084404,0.05657273903489113,0.03496579825878143,0.0028052106499671936,0.004636786878108978,0.11500343680381775,0.07233956456184387,0.007510025054216385,-0.041227418929338455,-0.1136934906244278,-0.04595903679728508,-0.016530096530914307,0.038267672061920166,-0.09027327597141266,-0.053988948464393616,0.04567139968276024,0.11665282398462296,0.07126329839229584,-0.03255694359540939,-0.12766599655151367,0.07574290037155151,0.013629107736051083,0.03612891957163811,0.059497103095054626,-0.06350936740636826,0.004002423956990242,-0.00015407614409923553,0.04396576061844826,-0.060059260576963425,-0.03418443724513054,0.011399142444133759,0.0415806919336319,0.03139789029955864,0.032318152487277985,-0.12962491810321808,0.12800264358520508,0.12228065729141235,0.009493201971054077,0.02835826203227043,-0.0534842386841774,-0.08297387510538101,-0.06410612165927887,0.1053030788898468,0.0020352043211460114,-0.00813386868685484,0.07273086160421371,-0.05088113248348236,-0.009396873414516449,-0.03718315437436104,-0.05826563388109207,-0.011968648061156273,0.029582804068922997,0.24273265898227692,0.03118497133255005,0.05380463972687721,-0.046724408864974976,0.028561048209667206,-0.022847577929496765,0.04171792417764664,-0.08949154615402222,-0.07678379863500595,-0.10806462913751602,-0.09031185507774353,0.009748734533786774,-0.04572828859090805,0.1444200873374939,0.043552644550800323,0.07538838684558868,0.14009256660938263,-0.019665174186229706,-0.09695154428482056,-0.11744295060634613,-0.04860352724790573,0.10684621334075928,0.14493872225284576,-0.11546145379543304,-0.08041542768478394,-0.02986234612762928,-0.03543917462229729,-0.016224004328250885,-0.07667795568704605,-0.036446910351514816,0.05335807427763939,-0.009463567286729813,0.04412941634654999,0.004112079739570618,-0.11696021258831024,-0.12371412664651871,0.008906573057174683,-0.04780834913253784,0.07749460637569427,-0.11901029199361801,-0.02626224234700203,-0.08031616359949112,0.013319789431989193,0.12737616896629333,0.07195433974266052,0.013462930917739868,0.016075190156698227,0.017660629004240036,0.09922174364328384,-0.005755777005106211,0.006670608185231686,0.005444969981908798,-0.12042229622602463,-0.08356065303087234,-0.04273541271686554,-0.029343832284212112,-0.22300046682357788,0.06892576813697815,-0.03709831088781357,-0.10268060117959976,0.06626266986131668,-0.16997849941253662,-0.017263229936361313,0.06472216546535492,-0.0599590465426445,-0.10798464715480804,0.0062756622210145,-0.08350998163223267,0.05757983401417732,0.029206616804003716,-0.14174790680408478,-0.10654275864362717,-0.025922799482941628,-0.08143151551485062,0.2246447652578354,0.02854878641664982,-0.010404866188764572,0.0734643042087555,-0.10603395849466324,-0.11738776415586472,-0.06647632271051407,0.08035968244075775,-0.0013938043266534805,0.01131991297006607,-0.01943061128258705,0.04682782292366028,0.03998503088951111,-0.14279863238334656,-0.051073864102363586,-0.1348876804113388,0.058541759848594666,-0.05837082117795944,0.06150650233030319,0.011735725216567516,0.03085942752659321,-0.015886669978499413,0.07627619802951813,-0.12397392094135284,0.06300564110279083,-0.04469861835241318,-0.0016711740754544735,0.026795251294970512,0.05583978816866875,-0.027749432250857353,0.01774432510137558,-0.0098276287317276,0.06011701375246048,-0.011474952101707458,-0.09509715437889099,0.016765475273132324,-0.04108060151338577,0.14318376779556274,0.0020724013447761536,0.07593753188848495,-0.14783792197704315,0.013843316584825516,0.07718496024608612,0.12192333489656448,0.1017746776342392,-0.07849173992872238,-0.08355333656072617,-0.0013537351042032242,0.10628301650285721,-0.0024669189006090164,0.038542021065950394,0.10459057241678238,-0.022197451442480087,0.09463854134082794,-0.05128234997391701,-0.0009984783828258514,-0.0659811794757843,0.01193930208683014,0.06588359922170639,-0.040754057466983795,0.04927097260951996,-0.021380212157964706,-0.12272262573242188,0.0458371639251709,0.0991712287068367,0.08155650645494461,-0.12341580539941788,-0.07185682654380798,-0.0776781216263771,0.15486186742782593,-0.021950488910079002,-0.10537692904472351,-0.08681409806013107,0.010876715183258057,-0.09144458174705505,-0.11295469850301743,0.002091415459290147,0.007871128618717194,-0.2318742871284485,0.07067856937646866,0.015195785090327263,-0.04529206082224846,-0.07398819178342819,-0.022111499682068825,0.01361214742064476,-0.05866363272070885,-0.016675138846039772,0.16984842717647552,-0.02192285656929016
Pentyl propionate (Amyl propionate),0.002149635925889015,-0.05987285077571869,-0.06602032482624054,0.08822470158338547,-0.10732881724834442,0.0525861531496048,0.008721768856048584,-0.09955403208732605,0.0649731308221817,0.08926361799240112,0.025865986943244934,0.07103806734085083,0.12645061314105988,0.11050266772508621,-0.022485854104161263,-0.23696963489055634,0.08540160208940506,-0.1673949807882309,0.15981051325798035,0.1509813517332077,0.03652088716626167,-0.06240406259894371,0.09295538812875748,-0.08169840276241302,-0.028403211385011673,0.041429899632930756,0.005786063149571419,-0.13584785163402557,-0.13141688704490662,0.03973939269781113,0.022266050800681114,0.05407442897558212,0.02750871330499649,-0.22932441532611847,-0.1293734759092331,0.026644952595233917,0.13209663331508636,0.06254474818706512,0.12751604616641998,-0.13465993106365204,-0.17259004712104797,0.013482023030519485,-0.1887943148612976,0.047036487609148026,0.09814348816871643,-0.13024377822875977,-0.031015079468488693,0.12866827845573425,0.21486374735832214,0.049504391849040985,-0.02044873684644699,0.13382777571678162,0.12334837764501572,0.06557098776102066,-0.12167125940322876,0.054689690470695496,-0.15932703018188477,-0.045469287782907486,-0.017496861517429352,0.01491750031709671,0.11262832581996918,-0.11612414568662643,0.02130148559808731,0.09105345606803894,-0.01237488817423582,0.028980452567338943,0.010355239734053612,0.08530187606811523,-0.015147905796766281,-0.14814238250255585,-0.08021122962236404,-0.29552093148231506,0.039617035537958145,0.03033953718841076,-0.020975936204195023,0.13190403580665588,0.09170322865247726,0.21557480096817017,0.056384045630693436,0.04427197948098183,0.06028825044631958,0.04374858736991882,0.036651529371738434,0.02381298318505287,0.05867224186658859,-0.007751443423330784,0.09568101912736893,0.15288938581943512,0.02496638521552086,-0.04675367474555969,0.014086425304412842,0.14822761714458466,0.05228918418288231,0.10676484555006027,0.016476213932037354,-0.14026889204978943,-0.07119227945804596,0.08560465276241302,0.11009816080331802,0.07369391620159149,0.14500361680984497,0.07563196867704391,0.02629867196083069,0.04985423386096954,0.10810114443302155,-0.02764854021370411,0.08032263815402985,0.013691816478967667,0.01610809564590454,0.15198621153831482,-0.038298193365335464,-0.07122030854225159,0.004996739327907562,0.05107671767473221,-0.20295581221580505,0.11736612021923065,-0.00089283287525177,0.0589069239795208,0.18448173999786377,-0.08698825538158417,-0.06454600393772125,-0.003270966000854969,-0.008305639959871769,-0.03607386350631714,0.0073822736740112305,-0.07871674001216888,-0.038050003349781036,-0.13411866128444672,0.12256037443876266,0.24422137439250946,0.052787452936172485,-0.04546928405761719,0.026582803577184677,-0.043118447065353394,-0.13531722128391266,-0.03571047633886337,0.050761617720127106,-0.0703924298286438,-0.16245293617248535,0.01294715330004692,-0.05618562921881676,0.10001148283481598,0.11986769735813141,0.08295384049415588,-0.030233042314648628,0.11300249397754669,-0.06363748759031296,-0.036450669169425964,-0.097238689661026,0.131381556391716,0.0548376739025116,-0.12414592504501343,0.07973521947860718,-0.12322133779525757,-0.0027000512927770615,-0.1014956459403038,0.07884559780359268,-0.10097718983888626,-0.11139050126075745,0.07835093140602112,-0.020655225962400436,-0.13123854994773865,-0.14112326502799988,-0.07576137781143188,-0.04231209307909012,-0.009667625650763512,-0.008323516696691513,0.1691213846206665,-0.09587695449590683,0.10756280273199081,0.03017287701368332,-0.0011093253269791603,0.016355443745851517,-0.0680033415555954,0.3145290017127991,0.008248575031757355,0.002980262041091919,0.05476125329732895,0.08576907217502594,0.06393243372440338,-0.033979713916778564,-0.04508984833955765,-0.06467896699905396,0.02187252603471279,0.03765874356031418,-0.11870604008436203,0.04695751145482063,-0.005928339436650276,-0.019811555743217468,0.008552618324756622,-0.07468955218791962,-0.007625345140695572,0.11360863596200943,-0.08392130583524704,-0.08408896625041962,-0.037492536008358,-0.09061916917562485,-0.07788146287202835,-0.055819518864154816,-0.18362432718276978,0.035706520080566406,-0.03957658261060715,-0.19583775103092194,0.15713383257389069,-0.12737280130386353,-0.0030589811503887177,0.012339148670434952,-0.1604551076889038,-0.09257834404706955,0.027441387996077538,-0.004330869764089584,0.15562109649181366,-0.06625248491764069,0.054260432720184326,0.1046147346496582,-0.056113917380571365,-0.05163753032684326,0.09753875434398651,0.07096011191606522,-0.05404891073703766,0.14038200676441193,0.042078860104084015,0.02798042818903923,-0.024382371455430984,-0.022614656016230583,0.17152990400791168,-0.13888266682624817,0.04044898599386215,-0.11807831376791,-0.06727825850248337,0.06879886239767075,0.0024870354682207108,-0.19477200508117676,-0.025937091559171677,-0.08998414874076843,0.029765119776129723,0.02311759628355503,0.01097840815782547,0.020136341452598572,0.004272928461432457,0.07683204114437103,-0.04843820631504059,-0.00362565740942955,-0.08100875467061996,0.016315892338752747,0.11238211393356323,0.1316988468170166,0.10032062232494354,-0.17796950042247772,-0.032536666840314865,0.04352787882089615,-0.0339641198515892,0.1379760205745697,0.0755319595336914,-0.031076977029442787,-0.034725308418273926,-0.025605477392673492,-0.17955562472343445,-0.09142561256885529,-0.03183899074792862,0.10976679623126984,0.03445860743522644,-0.08195330202579498,-0.04484815523028374,0.13825196027755737,-0.058500878512859344,0.011025396175682545,-0.03556990250945091,0.06255058199167252,0.15260398387908936,0.01932031475007534,0.09869111329317093,0.03433274105191231,-0.13104651868343353,-0.15815992653369904,-0.002504788339138031,-0.008320394903421402,-0.09777231514453888,-0.022689536213874817,0.07077042758464813,0.0761403739452362,-0.15701499581336975,-0.11292564123868942,0.07648178189992905,-0.03834119066596031,0.11294250935316086,0.03735697269439697,0.09308455884456635,0.10636968165636063,0.09335225820541382,0.10022655129432678,-0.008786440826952457
(-)-Camphene,0.10891430079936981,-0.11780837923288345,0.10252916067838669,0.1576603651046753,0.051242344081401825,0.12594640254974365,0.0017747916281223297,0.015089540742337704,-0.21710483729839325,0.054304517805576324,-0.09308697283267975,0.008199401199817657,-0.048779457807540894,0.0415477454662323,-0.008704110980033875,0.008298004977405071,-0.03483668342232704,-0.07654501497745514,-0.06328953802585602,0.061263203620910645,0.11593514680862427,-0.08961863815784454,-0.09293315559625626,-0.012796152383089066,-0.04650024697184563,-0.05842280387878418,0.0487794354557991,0.00991947203874588,-0.1351878046989441,0.1621367633342743,-0.03678332269191742,0.11468737572431564,-0.11966566741466522,0.09617199003696442,-0.10171142220497131,0.10364954173564911,-0.0415075421333313,-0.01538148894906044,0.02040117047727108,-0.08331547677516937,0.08513064682483673,-0.008264698088169098,0.06543003767728806,-0.10365140438079834,0.03731212764978409,0.08753693103790283,0.0009412132203578949,0.13089293241500854,0.1946272850036621,0.08209632337093353,0.06967289745807648,0.2883611023426056,-0.12101268023252487,0.04636043310165405,-0.04668388515710831,0.14268383383750916,-0.12907499074935913,0.1422138214111328,0.10408271104097366,-0.08884844183921814,-0.13225261867046356,0.02349548041820526,-0.2593342661857605,-0.10203702002763748,-0.04441684111952782,0.027974586933851242,-0.2377217411994934,0.06532973051071167,0.011700935661792755,-0.05015935003757477,0.12740051746368408,-0.053042441606521606,0.015757491812109947,-0.07666893303394318,0.054878734052181244,-0.012479460798203945,0.11125814914703369,0.018951736390590668,-0.03735027834773064,0.028927631676197052,-0.139530211687088,0.013807807117700577,0.15446510910987854,0.03983152285218239,0.06251601129770279,-0.01252741925418377,-0.11988000571727753,-0.0661669671535492,-0.027024243026971817,-7.348135113716125e-05,-0.05474361404776573,-0.20556974411010742,0.0322628989815712,-0.12882618606090546,-0.05969773232936859,-0.04595150053501129,-0.025925440713763237,-0.06633680313825607,0.014998450875282288,-0.05957048758864403,0.011091258376836777,-0.03876755014061928,-0.09156607836484909,0.11073818057775497,-0.059055179357528687,-0.0031817927956581116,-0.1361650824546814,0.0035041458904743195,0.1517799198627472,-0.011144014075398445,0.04252191260457039,-0.021647386252880096,0.10778998583555222,0.09708711504936218,0.11535581201314926,0.0881100445985794,-0.05616158992052078,0.013344984501600266,-0.08486112952232361,0.16917645931243896,-0.08348383009433746,0.09559082239866257,-0.024758942425251007,-0.08478177338838577,-0.029973220080137253,-0.10699634253978729,-0.027740033343434334,-0.014722870662808418,-0.017955148592591286,0.21860496699810028,-0.12621822953224182,0.07620064914226532,-0.12499584257602692,-0.016601331532001495,-0.05831177532672882,-0.022393669933080673,-0.046618834137916565,-0.1322205662727356,-0.07876735180616379,-0.16290798783302307,0.08861472457647324,-0.001066824421286583,0.05284753814339638,0.2325522005558014,0.17063596844673157,0.09396830946207047,-0.164044588804245,-0.04809433966875076,-0.1762603521347046,-0.12444629520177841,0.09576214849948883,0.17469945549964905,-0.23199661076068878,-0.07777874171733856,-0.19744347035884857,-0.007951412349939346,-0.0678296610713005,-0.04608519375324249,-0.06212088093161583,-0.01151057705283165,0.028070345520973206,0.12868380546569824,0.0834498479962349,-0.06436489522457123,-0.16052094101905823,0.0279055405408144,-0.19644540548324585,0.13514772057533264,-0.13993799686431885,-0.04271642118692398,0.021762844175100327,0.1286393254995346,0.09243285655975342,-0.11960440874099731,-0.08805985748767853,-0.03955426812171936,-0.11115597933530807,0.06690111011266708,-0.08777569234371185,-0.10122635960578918,-0.013905016705393791,-0.08425546437501907,0.09212691336870193,-0.053794533014297485,0.10031786561012268,-0.3573227524757385,0.0008834563195705414,-0.014537129551172256,-0.05469534546136856,0.06893163174390793,-0.22010718286037445,0.1924445480108261,0.02199489250779152,-0.17760953307151794,0.07023867964744568,-0.012683114968240261,0.0520487055182457,0.09459039568901062,0.008936800062656403,-0.038112469017505646,0.1345895230770111,0.054107554256916046,0.11652296781539917,0.228201225399971,-0.05484194681048393,0.020840119570493698,0.01710209995508194,-0.1321471929550171,-0.13668426871299744,0.04196786880493164,0.10395575314760208,-0.024182068184018135,0.13271400332450867,0.013836730271577835,0.03139830380678177,0.029397809877991676,-0.18999236822128296,-0.13076333701610565,-0.03499097377061844,0.10382107645273209,-0.1624874323606491,0.15067768096923828,0.046634167432785034,-0.10317941009998322,-0.08890105783939362,0.07446177303791046,-0.12301389873027802,-0.04322180896997452,0.08546706289052963,0.010299362242221832,-0.06355252116918564,0.055765267461538315,-0.0917067676782608,0.06373105943202972,0.06140889227390289,0.10637874156236649,0.011970192193984985,0.03087392821907997,0.014787822961807251,0.06840978562831879,0.10823805630207062,0.10268989205360413,0.09508821368217468,-0.051408566534519196,-0.09381619095802307,7.868930697441101e-05,0.09922955185174942,0.1242135688662529,-0.1030891090631485,-0.011580955237150192,-0.056755468249320984,0.12531232833862305,-0.18487633764743805,0.011188626289367676,0.08537190407514572,0.010007372125983238,0.11413456499576569,-0.023300621658563614,-0.03218827769160271,-0.06487682461738586,0.02281568944454193,0.1188075914978981,-0.06184989959001541,0.04843408614397049,-0.11656756699085236,-0.05419820174574852,0.06019831448793411,0.1316869854927063,0.0024352744221687317,-0.20518158376216888,-0.1141439825296402,-0.07862246036529541,0.1496909111738205,0.17286646366119385,-0.038225557655096054,-0.13382676243782043,0.13983258605003357,-0.15372809767723083,-0.19037780165672302,-0.018263598904013634,-0.05190649256110191,-0.2000482678413391,0.17759296298027039,0.06115259975194931,0.008407351560890675,0.07214050740003586,0.11031466722488403,-0.01996118575334549,-0.015990298241376877,0.011618765071034431,0.23811689019203186,-0.05112176015973091
a-Amylcinnamaldehyde dimethyl acetal,-0.07783611118793488,-0.0602661669254303,0.09727252274751663,0.028894465416669846,-0.02255561761558056,-0.006332023069262505,-0.07439921796321869,-0.09790389239788055,-0.2511596083641052,0.030385931953787804,0.10045322775840759,-0.007019557990133762,0.030330900102853775,-0.08295594155788422,0.021744504570961,0.0030451409984380007,-0.02379690110683441,0.04504306614398956,0.08713272958993912,-0.03823705017566681,-0.017866086214780807,-0.08918637782335281,-0.08932558447122574,-0.049669910222291946,-0.1319572925567627,-0.005537666380405426,-0.021975191310048103,0.02701977640390396,-0.01041296124458313,-0.04027856886386871,0.09963099658489227,0.1004282757639885,-0.08314050734043121,0.12944701313972473,0.010806355625391006,0.08776535093784332,-0.02511437237262726,-0.041071921586990356,0.0061546615324914455,-0.005449671298265457,0.07480460405349731,-0.05764579027891159,-0.012681465595960617,-0.02201809361577034,-0.01058335043489933,0.05552035570144653,0.12450402975082397,0.10314476490020752,0.23660102486610413,0.029476001858711243,0.0732845887541771,0.12046582996845245,0.030278686434030533,-0.03562554717063904,0.05426076054573059,0.017725102603435516,-0.08398689329624176,0.10722117125988007,-0.031388409435749054,-0.007258337922394276,-0.11059825122356415,-0.146111398935318,-0.15615025162696838,0.0431983545422554,-0.11006797850131989,-0.07382671535015106,-0.1725209504365921,0.01402479037642479,-0.054600417613983154,-0.08529483526945114,0.15395405888557434,0.026022225618362427,0.006179450545459986,0.005742061883211136,-0.0026895031332969666,0.1345304399728775,0.07508847117424011,0.046647362411022186,-0.016206514090299606,0.030452337116003036,-0.11121153086423874,-0.037787266075611115,0.11799278855323792,-0.004025314003229141,0.0447440966963768,-0.04236684739589691,0.0004987064749002457,-0.11182932555675507,-0.004275482147932053,-0.08322296291589737,-0.08442036807537079,-0.05930999666452408,0.04636702314019203,0.04696502909064293,0.08515477180480957,0.0298954788595438,-0.002898481674492359,-0.011290423572063446,-0.044046856462955475,-0.03139292076230049,0.031711794435977936,0.04978679120540619,-0.06607404351234436,-0.06238812208175659,0.059099238365888596,-0.00044170767068862915,-0.09304926544427872,-0.019530292600393295,0.06859967857599258,-0.05905837193131447,0.03490232303738594,-0.07375374436378479,0.13711827993392944,0.02132832258939743,0.06596977263689041,-0.07789075374603271,-0.15749332308769226,-0.07824477553367615,-0.10537342727184296,0.17333027720451355,-0.14088527858257294,-0.005067820660769939,0.08524587005376816,0.07700006663799286,-0.09558753669261932,-0.024162832647562027,-0.006364417262375355,-0.08121174573898315,-0.1007590964436531,0.18301059305667877,0.006550661288201809,0.08603549748659134,-0.07179038226604462,-0.05831361189484596,0.05264180153608322,-0.048394400626420975,-0.017858434468507767,0.0002671084366738796,-0.11114440113306046,-0.14588530361652374,0.09689038246870041,-0.07762026786804199,0.11432777345180511,0.10161152482032776,0.0961412638425827,0.17018482089042664,-0.04865822196006775,-0.08366706967353821,-0.007184209302067757,0.06409937143325806,0.04221739619970322,0.0642947256565094,0.12924893200397491,0.06441506743431091,0.03505851700901985,0.03889663144946098,-0.0839119404554367,-0.005876393988728523,-0.02789880335330963,0.04290410503745079,0.12707191705703735,-0.12426739186048508,0.02246403694152832,-0.027262136340141296,-0.1026751920580864,0.05440350994467735,-0.06018604338169098,0.11561162024736404,-0.056748099625110626,0.12899406254291534,0.021353725343942642,0.02773941680788994,-0.022419806569814682,0.030200650915503502,0.1289624571800232,0.07227255403995514,-0.03318621963262558,-0.004216991364955902,-0.032092783600091934,0.0752890333533287,0.03528381884098053,0.06056756526231766,0.029629824683070183,0.04484225809574127,-0.017879918217658997,-0.1866249442100525,-0.09509450197219849,0.07375650107860565,-0.1027606725692749,0.016091547906398773,-0.02420075610280037,0.08940523862838745,0.03170900419354439,-0.05842611938714981,-0.021081987768411636,0.045721471309661865,-0.05838087201118469,0.12632617354393005,0.031580571085214615,-0.09295886009931564,-0.09187842160463333,-0.06406109035015106,-0.005462251603603363,0.08399483561515808,0.09486129879951477,-0.015879493206739426,0.021518755704164505,-0.1307341456413269,-0.19366943836212158,-0.0956084132194519,0.16645902395248413,0.02885122410953045,0.06390731781721115,-0.02391776069998741,-0.1273878663778305,-0.08145059645175934,-0.1259864866733551,-0.05935441702604294,-0.014742858707904816,0.08012859523296356,0.013596931472420692,0.17963406443595886,-0.010461869649589062,-0.027506761252880096,-0.02629741095006466,0.06797163188457489,-0.022073663771152496,0.015889020636677742,-0.046491313725709915,0.03917519003152847,0.010931737720966339,0.11997012048959732,0.07922026515007019,0.1637600064277649,-0.10152588784694672,-0.11189881712198257,-0.03854603320360184,-0.12332184612751007,0.09535827487707138,0.022362956777215004,0.15329961478710175,0.020285185426473618,-0.05057143792510033,-0.017457615584135056,0.09987325221300125,0.09610854089260101,0.05606918781995773,0.2803723216056824,-0.00856526754796505,0.1252731829881668,0.0035852715373039246,0.06488094478845596,-0.047729820013046265,-0.0815163105726242,0.1022602841258049,-0.028934285044670105,-0.0281117744743824,-0.006871207617223263,-0.015392381697893143,-0.03121219575405121,0.0910147875547409,-0.0672316923737526,0.004628928378224373,-0.039357706904411316,-0.04963558539748192,-0.15521444380283356,-0.04934091120958328,0.007034994661808014,-0.011643566191196442,-0.09132401645183563,0.00038038170896470547,-0.1516953408718109,0.1309165209531784,0.10148636996746063,0.015797723084688187,-0.0809781476855278,-0.025693388655781746,-0.11819279938936234,0.009574633091688156,0.005636570975184441,0.05816543474793434,-0.16501721739768982,0.016695398837327957,0.11006439477205276,-0.05079131945967674,0.015816189348697662,0.14338213205337524,0.04609262943267822,-0.019766494631767273,0.005131766200065613,0.0867670476436615,0.08779077231884003
beta-ionone,-0.08232717216014862,-0.1055571660399437,-0.022736262530088425,0.12599462270736694,0.09580322355031967,-0.0030505491886287928,-0.1505514681339264,0.038864850997924805,-0.1311323493719101,0.021509725600481033,-0.049327753484249115,0.028586048632860184,0.01473170891404152,-0.013351685367524624,-0.021375417709350586,0.09911961853504181,-0.04799114540219307,0.015158899128437042,0.00894874706864357,0.052268266677856445,0.07519587874412537,-0.04167112708091736,-0.08347532898187637,-0.0167827345430851,-0.05826485529541969,-0.02685483545064926,0.03817276656627655,-0.04153470695018768,-0.1484682857990265,-0.050524961203336716,-0.05760186165571213,0.07386014610528946,-0.01478281058371067,0.108878955245018,-0.08240462839603424,0.0423467680811882,-0.0034377966076135635,0.013689324259757996,-0.017905645072460175,-0.06366828083992004,0.15621763467788696,0.04070674628019333,-0.05720162391662598,-0.09758269041776657,0.010680287145078182,0.04626119136810303,0.07858619838953018,0.05016167461872101,0.011608168482780457,0.03823765367269516,-0.0013004811480641365,0.12635549902915955,0.05806364491581917,0.06069808825850487,0.02608085609972477,0.19806239008903503,-0.025270113721489906,0.19237852096557617,0.03237699717283249,-0.06144872307777405,-0.016740625724196434,0.08668478578329086,-0.13553635776042938,0.015235232189297676,-0.07951243966817856,0.0016889087855815887,-0.23316995799541473,-0.022621724754571915,0.07633714377880096,0.08221153914928436,0.21879270672798157,-0.14749549329280853,-0.07824788987636566,-0.029558513313531876,-0.03252828121185303,0.022197168320417404,0.03936993330717087,-0.024218011647462845,-0.044462643563747406,-0.03842221945524216,-0.05136425048112869,-0.06777817010879517,0.06090693920850754,-0.04729221388697624,0.02190021425485611,-0.05931931361556053,-0.1191781610250473,-0.09856224060058594,0.09138800203800201,0.052762001752853394,-0.1672147810459137,-0.07395371794700623,0.0296911783516407,-0.10369201749563217,-0.03413569927215576,-0.029843676835298538,0.0754949301481247,-0.034446150064468384,-0.03460932523012161,-0.09527407586574554,0.06987722218036652,0.03409924358129501,-0.10281652212142944,0.045221611857414246,0.06550712883472443,0.04552794247865677,-0.08746718615293503,0.03630763664841652,-0.027808332815766335,0.09012842178344727,0.060478318482637405,-0.13101330399513245,0.10616975277662277,0.0245664119720459,0.10544014722108841,-0.04046153277158737,-0.15578693151474,0.053259436041116714,-0.02581120654940605,0.09189897775650024,-0.14491914212703705,0.019222863018512726,0.004476011730730534,-0.007103554904460907,0.03793337196111679,-0.00677097961306572,0.007773235440254211,0.08309480547904968,0.0011573091614991426,0.16664926707744598,-0.00804530642926693,0.05318312719464302,-0.04276256263256073,0.09190038591623306,0.006696052849292755,0.053203683346509933,-0.04387775808572769,-0.05101533606648445,-0.009840430691838264,-0.11693745851516724,0.002666845917701721,0.019155353307724,-0.004602164030075073,0.09599830210208893,0.060249846428632736,0.21324215829372406,-0.06780228763818741,-0.0535486564040184,-0.08296360820531845,-0.1202644482254982,0.0003185272216796875,0.01803683117032051,-0.052636001259088516,0.02584313414990902,-0.18979378044605255,0.09591150283813477,-0.13467073440551758,0.02707522362470627,-0.009256809949874878,0.03968416526913643,0.11311636120080948,0.0413082093000412,0.027062267065048218,0.0010711923241615295,-0.02848772704601288,0.0989941954612732,-0.04760568588972092,0.07136229425668716,-0.06661669909954071,-0.06253515183925629,0.033198289573192596,-0.011068667285144329,-0.005656730383634567,-0.0139637291431427,0.12511487305164337,-0.06718314439058304,-0.07793938368558884,0.03995032608509064,-0.003939592279493809,-0.15595054626464844,-0.08805006742477417,0.02744302526116371,0.10465993732213974,-0.04467606544494629,-0.018413186073303223,-0.14251115918159485,-0.1377663016319275,-0.03016517497599125,0.049050092697143555,0.025536656379699707,-0.11758649349212646,0.11862795054912567,0.1055971086025238,-0.06918755918741226,0.10983878374099731,0.013013329356908798,0.006433859467506409,0.029763590544462204,-0.005451058968901634,-0.048987023532390594,0.048742640763521194,-0.09598934650421143,-0.01235266774892807,0.026201527565717697,0.06536080688238144,0.03174479678273201,0.017100367695093155,0.0467626228928566,-0.06736281514167786,-0.009064903482794762,0.052449099719524384,-0.15677130222320557,0.026360131800174713,-0.03939228504896164,-0.0564594492316246,-0.06750892102718353,-0.08945772796869278,0.1512824147939682,0.039840348064899445,-0.007780972868204117,-0.08883132040500641,0.05080082267522812,-0.09371942281723022,-0.13123610615730286,-0.03457597643136978,0.004282355308532715,-0.14049115777015686,-0.0006438121199607849,0.007476474158465862,0.1497422307729721,-0.01553877629339695,0.011826697736978531,0.052095040678977966,0.06354476511478424,0.07043194770812988,-0.021535677835345268,0.12102232873439789,0.049478743225336075,0.0035096555948257446,0.08684539049863815,0.16386227309703827,0.09129947423934937,-0.0036138035356998444,-0.07260188460350037,-0.04492471367120743,0.008397780358791351,0.015092834830284119,0.09865215420722961,-0.125854954123497,0.04568428918719292,0.04033729434013367,0.07027582824230194,-0.0472983792424202,-0.10977953672409058,0.0830211490392685,-0.03897043317556381,-0.008500095456838608,0.008571108803153038,-0.0012166835367679596,0.12419107556343079,0.09529274702072144,0.1563747674226761,0.004253773018717766,0.10284344106912613,0.010942298918962479,0.01028658077120781,0.01863894984126091,-0.046394072473049164,0.059274591505527496,-0.07972685247659683,-0.0782487541437149,-0.10219449549913406,-0.007644401863217354,0.010427050292491913,-0.03725096210837364,-0.0976189598441124,0.0033063888549804688,-0.04466930776834488,-0.03314972668886185,0.005693035200238228,0.0659259706735611,-0.0941842719912529,0.07172806560993195,-0.0884658470749855,-0.0770483985543251,0.08251137286424637,0.12672793865203857,0.08621115982532501,0.010056726634502411,0.015806732699275017,0.13769365847110748,-0.05690735951066017
