,0,1,2,3,4,5,6,7,8,9,10,11,12,13,14,15,16,17,18,19,20,21,22,23,24,25,26,27,28,29,30,31,32,33,34,35,36,37,38,39,40,41,42,43,44,45,46,47,48,49,50,51,52,53,54,55,56,57,58,59,60,61,62,63,64,65,66,67,68,69,70,71,72,73,74,75,76,77,78,79,80,81,82,83,84,85,86,87,88,89,90,91,92,93,94,95,96,97,98,99,100,101,102,103,104,105,106,107,108,109,110,111,112,113,114,115,116,117,118,119,120,121,122,123,124,125,126,127,128,129,130,131,132,133,134,135,136,137,138,139,140,141,142,143,144,145,146,147,148,149,150,151,152,153,154,155,156,157,158,159,160,161,162,163,164,165,166,167,168,169,170,171,172,173,174,175,176,177,178,179,180,181,182,183,184,185,186,187,188,189,190,191,192,193,194,195,196,197,198,199,200,201,202,203,204,205,206,207,208,209,210,211,212,213,214,215,216,217,218,219,220,221,222,223,224,225,226,227,228,229,230,231,232,233,234,235,236,237,238,239,240,241,242,243,244,245,246,247,248,249,250,251,252,253,254,255,256,257,258,259,260,261,262,263,264,265,266,267,268,269,270,271,272,273,274,275,276,277,278,279,280,281,282,283,284,285,286,287,288,289,290,291
1-pentanol,-0.11110564321279526,0.036858756095170975,-0.19062680006027222,-0.07027129828929901,-0.20602504909038544,0.05080844834446907,0.049245305359363556,-0.1548604518175125,0.11603458225727081,-0.012321839109063148,0.028636272996664047,-0.006216902751475573,0.0019134171307086945,0.09266868978738785,-0.0822741836309433,-0.09403165429830551,0.005767364054918289,-0.0888902097940445,0.02900715172290802,0.041643839329481125,-0.0409977063536644,0.07350827753543854,0.25913894176483154,0.03835270553827286,0.02970901131629944,-0.04337702691555023,0.011871145106852055,-0.1321733593940735,-0.013602778315544128,0.06520985811948776,0.012667177245020866,-0.05251627042889595,0.06965043395757675,-0.1602030098438263,-0.048195090144872665,-0.012274682521820068,0.25869688391685486,0.06904923170804977,0.16236017644405365,-0.17476896941661835,-0.1627248227596283,0.03180542215704918,-0.10269340127706528,0.12478306889533997,0.08972734212875366,-0.09275991469621658,0.06510366499423981,0.12323568761348724,0.04482655227184296,0.07389448583126068,0.009304391220211983,-0.06213391199707985,-0.05348995327949524,-0.0966038703918457,-0.14701339602470398,0.05419577658176422,-0.010291347280144691,0.011480443179607391,-0.027155235409736633,0.012298796325922012,-0.09971780329942703,0.0920310989022255,0.2250414937734604,0.17547155916690826,-0.020886998623609543,0.007634956389665604,0.21442106366157532,0.06319522857666016,-0.06130477041006088,0.047736756503582,-0.27694767713546753,-0.20851868391036987,0.05327363684773445,0.09314586967229843,-0.11259447038173676,-0.028496308252215385,0.05963447690010071,0.09240913391113281,0.0026321737095713615,0.06909506767988205,0.2457863688468933,0.08315028995275497,-0.060519542545080185,0.05654415488243103,-0.0012068413197994232,-0.01390234474092722,0.2667010426521301,0.20784053206443787,-0.12059049308300018,0.09457997232675552,-0.09230560064315796,0.18280580639839172,-0.018336083739995956,0.06272819638252258,-0.033029474318027496,-0.13561388850212097,-0.04906225949525833,0.05681426078081131,0.11026335507631302,0.08526340126991272,0.0949043408036232,-0.08120086044073105,0.12419942766427994,0.061802178621292114,0.07629579305648804,0.008214537054300308,0.016333233565092087,0.037070974707603455,-0.11520934849977493,0.13095684349536896,-0.12799467146396637,-0.00964809488505125,-0.057994529604911804,0.20739486813545227,-0.19764748215675354,0.14854922890663147,0.11193089187145233,0.09143918752670288,0.17901749908924103,-0.14942798018455505,0.01105642318725586,-0.11011189967393875,0.09885717928409576,0.06596165895462036,0.11340603232383728,0.04929104447364807,-0.04521898925304413,0.1081027016043663,0.043914057314395905,0.16020886600017548,-0.022438064217567444,-0.0872049406170845,0.05161641910672188,-0.10516779124736786,-0.12328033149242401,-0.14016473293304443,0.012789187021553516,0.023003624752163887,0.09039875119924545,0.23156383633613586,-0.16181954741477966,0.11764639616012573,-0.07732972502708435,0.045041799545288086,-0.12114818394184113,0.07743856310844421,0.015925204381346703,0.1530958116054535,-0.017343174666166306,0.08326652646064758,-0.03523413836956024,0.0092124342918396,-0.007980125024914742,0.04588691517710686,-0.09098359942436218,-0.0442606620490551,0.018171459436416626,-0.04163358360528946,0.03334954380989075,-0.0478217676281929,-0.054955437779426575,-0.08394751697778702,-0.008682593703269958,-0.058312688022851944,0.22095566987991333,0.02753159962594509,-0.018697261810302734,-0.00026060640811920166,-0.007507633417844772,-0.10661990195512772,0.09778059273958206,-0.0010458920150995255,0.031238678842782974,-0.11448079347610474,0.06214754283428192,-0.028049800544977188,-0.015747256577014923,0.16116611659526825,0.17697784304618835,-0.045869890600442886,-0.11658071726560593,0.09881262481212616,-0.08991936594247818,0.11030495911836624,0.05482354760169983,0.04286975413560867,-0.0253494493663311,-0.0024582184851169586,-0.03591508790850639,-0.22619929909706116,0.15663596987724304,0.04046140983700752,-0.07793612033128738,0.12928353250026703,-0.08255051076412201,-0.1649078130722046,0.0017036311328411102,-0.052652761340141296,0.10043764859437943,0.0017895950004458427,-0.00125905591994524,0.009212322533130646,-0.17381694912910461,0.030865538865327835,-0.06660300493240356,0.05109674856066704,0.019131828099489212,-0.08909899741411209,0.16318339109420776,0.04612541198730469,-0.0267091765999794,0.04260457307100296,-0.11966901272535324,0.032894253730773926,-0.03527194634079933,0.03812031447887421,0.18074153363704681,-0.02358977124094963,0.04885823279619217,-0.1974671334028244,0.11209095269441605,-0.20268946886062622,-0.04742298647761345,-0.16954633593559265,0.19581027328968048,-0.10835577547550201,0.045870907604694366,-0.18797653913497925,-0.04559347406029701,-0.09037459641695023,-0.08774757385253906,-0.029660405591130257,-0.11332876980304718,-0.08138201385736465,-0.2518835663795471,-0.16614210605621338,0.02718047983944416,-0.011362701654434204,-0.04148619994521141,-0.0006006155163049698,0.1230892539024353,0.1319705843925476,-0.05450067296624184,-0.08747465163469315,-0.030917230993509293,-0.05335932597517967,-0.12157315015792847,-0.0004780115559697151,-0.023709265515208244,0.0002878531813621521,0.0017070863395929337,-0.008334245532751083,0.15759240090847015,0.06963527202606201,-0.08518266677856445,0.06961062550544739,0.09109769761562347,-0.11762838810682297,0.00821051374077797,-0.17671950161457062,-0.04118061810731888,0.08579856157302856,-0.09765837341547012,0.03232097625732422,0.11750389635562897,-0.07656253129243851,-0.08418375253677368,0.005124501883983612,0.009197764098644257,0.09297263622283936,0.03681888431310654,0.07449295371770859,-0.04186403751373291,-0.1797138750553131,-0.10733392834663391,-0.004775434732437134,-0.07133360207080841,0.04439709708094597,0.0748186782002449,-0.010209877975285053,0.10957987606525421,0.13679713010787964,-0.074517160654068,-0.03975604102015495,-0.1140361875295639,-0.012238182127475739,-0.14401790499687195,0.055966831743717194,-0.02844945155084133,0.11232853680849075,-0.05407951772212982,-0.09796761721372604
trans-2-Undecenal,0.05468682199716568,-0.04689505696296692,-0.0454125739634037,0.10501856356859207,0.048847030848264694,0.033460818231105804,-0.031545769423246384,-0.09758196026086807,0.08605561405420303,0.06929215043783188,-0.006672626361250877,0.02087346464395523,0.034196969121694565,0.020862143486738205,-0.020897258073091507,-0.1043921634554863,0.11430857330560684,-0.0889485627412796,0.06351908296346664,0.12382254004478455,0.07668859511613846,-0.10850829631090164,-0.040038980543613434,-0.05004609003663063,-0.033385682851076126,0.06744489818811417,0.13395731151103973,-0.09974859654903412,-0.1176120713353157,0.011939570307731628,0.011974239721894264,0.1086251512169838,-0.021764488890767097,-0.2375255674123764,-0.07172545790672302,0.013278432190418243,0.0506080687046051,0.14218024909496307,0.11705348640680313,-0.06629136204719543,-0.024151677265763283,0.09848777949810028,-0.09726052731275558,0.026973772794008255,0.024889450520277023,-0.12358148396015167,0.015560027211904526,0.15520551800727844,0.18606463074684143,-0.01123405247926712,-0.028089702129364014,0.19342082738876343,0.139054074883461,0.20251396298408508,-0.02510993555188179,0.10708369314670563,-0.08647304028272629,-0.08365537971258163,0.06932877749204636,0.053519658744335175,0.047412317246198654,-0.11385110765695572,-0.0926760882139206,-0.03989674896001816,0.03702588751912117,0.030774449929594994,-0.04919728636741638,0.07358326017856598,-0.0069193243980407715,-0.11501851677894592,0.0076237693428993225,-0.25130051374435425,0.05953574553132057,-0.02606748417019844,0.04728766530752182,0.1409231573343277,0.06792981922626495,0.2485658824443817,0.036843106150627136,-0.0607166513800621,0.05607319623231888,0.05462472513318062,0.05522352457046509,0.017550885677337646,0.05694644898176193,0.011785903014242649,0.046142734587192535,0.09552405029535294,0.05531827732920647,-0.025538980960845947,-0.054926566779613495,0.07833380997180939,0.03128620982170105,0.016310933977365494,0.009360961616039276,-0.08365393429994583,-0.09693779796361923,-0.008200172334909439,0.1592516303062439,0.07031544297933578,0.04002072662115097,0.12354219704866409,-0.028238365426659584,0.034234970808029175,0.01909969374537468,0.03334576636552811,0.04551783204078674,-0.04060240462422371,0.003470342606306076,0.11485477536916733,-0.01232021301984787,-0.116267628967762,0.12676158547401428,0.01138673722743988,-0.09570248425006866,0.1121707558631897,0.019175373017787933,0.011107221245765686,0.07476544380187988,-0.04505245387554169,-0.1419440656900406,-0.04806214198470116,-0.0008864433038979769,-0.08856118470430374,0.10139600932598114,-0.11355732381343842,0.0383298322558403,0.0045141372829675674,0.005634523928165436,0.2317381352186203,0.0667262077331543,0.09637054800987244,-0.04691128432750702,-0.03390156850218773,-0.09895659238100052,0.018423188477754593,-0.051164112985134125,-0.12614791095256805,-0.1350736767053604,-0.07424180209636688,-0.02762678638100624,0.1457391083240509,0.08894568681716919,0.04786243289709091,0.022623766213655472,0.1314440816640854,-0.07311291992664337,-0.01680990308523178,-0.1664140224456787,0.06487882882356644,0.05038892477750778,-0.0015189610421657562,-0.0729464441537857,-0.0780540406703949,-0.13061286509037018,0.011652734130620956,0.039623863995075226,-0.06258010864257812,-0.07774795591831207,-0.008113805204629898,-0.03169284388422966,0.02785312943160534,-0.08325400948524475,-0.10804438591003418,-0.13528922200202942,-0.05261792987585068,-0.011495642364025116,0.1587776392698288,-0.07863400876522064,0.0765121579170227,0.021263105794787407,0.00943846721202135,0.03747880086302757,0.052509963512420654,0.16144590079784393,0.011699212715029716,0.07214844226837158,0.0013407133519649506,0.08067319542169571,0.10383553057909012,-0.029430517926812172,-0.14135819673538208,-0.09854480624198914,-0.17812137305736542,0.1219797283411026,-0.11184456199407578,0.06480379402637482,-0.026303621008992195,0.03521554917097092,0.12530186772346497,-0.16441744565963745,0.03953397274017334,0.13727594912052155,-0.17337080836296082,-0.05607885494828224,0.01367751695215702,-0.046066299080848694,0.021684471517801285,-0.07385993748903275,-0.2270963191986084,0.04299726337194443,0.044122032821178436,-0.1669456660747528,0.19583289325237274,-0.083010733127594,-0.16312840580940247,0.005578536540269852,-0.12122801691293716,-0.14851334691047668,-0.004792951047420502,-0.07132920622825623,0.13575589656829834,-0.11088530719280243,-0.034440867602825165,0.09097789973020554,-0.08154822885990143,-0.12822392582893372,0.07417337596416473,0.06039617210626602,-0.06576671451330185,0.12646332383155823,0.09172194451093674,0.006950703449547291,-0.05408983305096626,-0.11445832997560501,0.11183640360832214,-0.18619655072689056,0.06609359383583069,-0.08856724947690964,-0.03247187286615372,0.04287712275981903,-0.05780896544456482,-0.043219633400440216,-0.06955010443925858,-3.3602118492126465e-05,0.13139675557613373,-0.0333004891872406,0.03595602884888649,-0.03566436469554901,-0.01781168207526207,0.021565444767475128,0.04880161210894585,0.15768486261367798,-0.07032246887683868,-0.018348056823015213,0.04677739366889,0.12713846564292908,0.10123668611049652,-0.13650408387184143,-0.037629518657922745,0.15585969388484955,-0.00789123959839344,-0.01783634163439274,0.06322045624256134,-0.0030362065881490707,-0.1208391785621643,-0.0419820211827755,-0.171886146068573,-0.14047808945178986,0.04879017919301987,0.05623025447130203,0.04115578904747963,-0.0699937641620636,-0.019479896873235703,0.05102057009935379,-0.08241607993841171,0.08053553104400635,0.0030505694448947906,0.024685338139533997,-0.013643685728311539,-0.0620553120970726,0.1145140528678894,0.09520912170410156,0.0066029392182827,-0.1400662511587143,-0.09177891165018082,-0.004442177712917328,-0.18004067242145538,-0.07734385132789612,-0.039913278073072433,-0.05124450474977493,-0.06858985871076584,-0.001727001741528511,0.030751748010516167,0.004616130609065294,0.09604264050722122,0.035803332924842834,0.056292083114385605,0.05202771723270416,0.011180317029356956,0.1870875060558319,-0.03590942174196243
Allyl phenylacetate,0.08563093841075897,-0.04388483613729477,0.017645496875047684,0.11182654649019241,0.0944061204791069,-0.023430824279785156,-0.08875313401222229,-0.09281878173351288,-0.06653933227062225,0.02594132162630558,0.10208316147327423,-0.014294913038611412,-0.013988129794597626,0.0001644287258386612,-0.02984021231532097,-0.09200063347816467,-0.03282152861356735,-0.08812177181243896,-0.024789009243249893,0.002847408875823021,0.04185721278190613,-0.05110546573996544,-0.07482197135686874,-0.14838717877864838,0.035694245249032974,0.03678984194993973,-0.04860474169254303,0.029199786484241486,-0.10332024842500687,0.13121378421783447,0.009925184771418571,0.08667833358049393,-0.008056940510869026,-0.017750632017850876,0.0031074583530426025,-0.020264768972992897,-0.0020253071561455727,-0.00505346804857254,0.04677804186940193,0.04034201800823212,-0.012586921453475952,0.06227494031190872,-0.03368775546550751,-0.02956206724047661,-0.01592959277331829,-0.03774610161781311,-0.06492699682712555,0.03145483881235123,0.21250221133232117,-0.01872885227203369,0.04854350537061691,0.11614282429218292,0.036982059478759766,-0.009089194238185883,-0.043467748910188675,0.06694898009300232,-0.185263529419899,-0.08401767164468765,0.06398957222700119,0.07190356403589249,0.02478448860347271,-0.17529329657554626,-0.06329180300235748,0.018835756927728653,-0.008421248756349087,-0.04075242578983307,-0.025781508535146713,0.06278257071971893,-0.08718115091323853,-0.02954549714922905,0.021684452891349792,0.008585557341575623,-0.08778119087219238,-0.00269138440489769,-0.00942946970462799,0.042316336184740067,-0.03789056837558746,0.0713091790676117,0.1384378969669342,0.09936947375535965,-0.07382220774888992,-0.027315430343151093,0.004986688494682312,-0.03627697005867958,0.022729024291038513,0.1134694442152977,-0.07821179181337357,-0.011210490018129349,0.006362937390804291,-0.08002341538667679,-0.07920533418655396,-0.04522871971130371,0.040056049823760986,0.04487517848610878,0.04453755170106888,-0.09699741750955582,-0.10246521234512329,-0.04933192580938339,-0.012922203168272972,0.03943917900323868,-0.09936866909265518,-0.011318027973175049,-0.07884829491376877,-0.0015277592465281487,0.05237424746155739,-0.02031457982957363,0.04334166646003723,0.00612916424870491,-0.07364852726459503,0.03850645571947098,0.09134015440940857,-0.15695664286613464,0.06631524115800858,-3.415346145629883e-05,-0.0028724074363708496,0.10956613719463348,-0.11561030894517899,0.04150216653943062,-0.014810091815888882,0.008667098358273506,0.09704726934432983,-0.030892089009284973,0.0015694096218794584,-0.09432648867368698,-0.08398894965648651,-0.04130047932267189,-0.04531886428594589,-0.2304309904575348,0.04280593618750572,0.1943558007478714,-0.059997763484716415,0.1336972713470459,0.0025518015027046204,-0.038608454167842865,-0.1186249628663063,0.030502911657094955,0.007959281094372272,-0.0703347697854042,-0.06859210878610611,-0.11057402193546295,-0.01043698936700821,0.1319306641817093,0.09270454943180084,-0.001649530604481697,-0.0016315840184688568,0.03851843252778053,0.07294642180204391,-0.05556672811508179,-0.1746574193239212,0.05081987753510475,0.07621955871582031,-0.026169631630182266,0.07177631556987762,-0.09567563235759735,0.02039698138833046,-0.04497669264674187,0.13515356183052063,-0.0483812540769577,-0.030069585889577866,0.0659303069114685,0.027944646775722504,-0.07532305270433426,-0.037653833627700806,-0.11466173827648163,-0.0475330576300621,0.0020377947948873043,-0.010798811912536621,0.0012891199439764023,-0.05047225207090378,-0.009043850004673004,-0.06818743795156479,-0.06774856150150299,0.08845642954111099,0.10491914302110672,0.0696883499622345,-0.0148165263235569,-0.12896430492401123,0.033196792006492615,0.029310449957847595,-0.009963862597942352,0.1708698272705078,-0.15052330493927002,-0.0694975033402443,-0.066340371966362,0.01769184321165085,-0.13434630632400513,0.15214839577674866,-0.017840541899204254,-0.10821413993835449,-0.06323856115341187,-0.13156062364578247,0.08456629514694214,0.0847509577870369,-0.08963195979595184,-0.1429961621761322,0.020633410662412643,-0.01594505086541176,-0.012744057923555374,-0.007497772574424744,-0.057313092052936554,0.022356554865837097,0.03366244584321976,-0.095650814473629,0.22443099319934845,-0.042013850063085556,-0.06274983286857605,0.0430368036031723,-0.05626882612705231,-0.12056063860654831,-0.02965601347386837,0.0046536885201931,0.07123362272977829,0.016004517674446106,0.02486477792263031,0.07474102824926376,0.04198324307799339,-0.035398826003074646,0.016883671283721924,-0.07260748744010925,0.008512677624821663,0.08085423707962036,0.09646869450807571,0.06228930503129959,-0.06550265848636627,-0.07564809918403625,0.10261760652065277,-0.1254691630601883,0.04737767577171326,-0.019540300592780113,-0.07588380575180054,-0.060632865875959396,0.09158498793840408,-0.15446019172668457,0.05589045584201813,0.07192680239677429,-0.04843907803297043,0.11634372174739838,-0.05437781289219856,0.013842850923538208,-0.03233138099312782,0.019154779613018036,0.07380691170692444,0.05805996432900429,-0.10989084839820862,-0.04327365383505821,0.13182316720485687,0.005052827298641205,-0.007760038133710623,-0.0314248651266098,-0.193775936961174,0.10851456969976425,0.04674071818590164,-0.020525546744465828,0.11876197159290314,-0.01098102517426014,0.018687548115849495,0.04731888324022293,0.039397332817316055,0.005042634904384613,0.08634519577026367,-0.038412101566791534,0.014895443804562092,-0.03201378136873245,0.05170357972383499,0.0394430011510849,-0.03704281523823738,-0.017461653798818588,0.12108806520700455,-0.05703829973936081,0.02259446680545807,-0.01945801079273224,0.006254610139876604,0.20980645716190338,-0.0748475044965744,0.01043558120727539,-0.0876493975520134,0.08798021823167801,-0.07031495869159698,-0.10657430440187454,0.03715139627456665,0.05706901475787163,-0.20038515329360962,-0.03580012917518616,-0.0814356803894043,0.04168388992547989,0.13665005564689636,-0.06874696910381317,-0.008045099675655365,-0.1351069211959839,0.1179412379860878,0.1199992448091507,0.011545170098543167
trans-2-Dodecenal,0.050053372979164124,-0.0020430758595466614,-0.022615116089582443,0.11058831214904785,0.04128711670637131,0.04605892673134804,-0.025060657411813736,-0.12269841134548187,0.08155960589647293,0.0176180899143219,0.00518229603767395,-0.010187503881752491,0.045431796461343765,-0.022135283797979355,-0.0159248448908329,-0.06496135145425797,0.11521323770284653,-0.05599704012274742,0.08996642380952835,0.06690629571676254,0.09877227991819382,-0.11594535410404205,0.03151446580886841,-0.04504815861582756,-0.08380183577537537,0.0791618674993515,0.12395619601011276,-0.11955000460147858,-0.11069532483816147,0.012288354337215424,0.04312382638454437,0.1363566815853119,-0.03673567622900009,-0.1986643224954605,-0.09162341058254242,0.029409274458885193,0.04308152198791504,0.1717739999294281,0.14594867825508118,-0.07955580949783325,-0.02620970457792282,0.11031688749790192,-0.08555789291858673,0.04086241498589516,0.02801501750946045,-0.12108204513788223,-0.015177872031927109,0.13637183606624603,0.22602126002311707,0.08393621444702148,-0.020990021526813507,0.2222599983215332,0.098448246717453,0.2202669382095337,-0.023763641715049744,0.06858749687671661,-0.10858079046010971,-0.05392768234014511,0.011047661304473877,0.03974096477031708,0.02032995969057083,-0.11947241425514221,-0.16415360569953918,-0.04488179087638855,0.02687685564160347,-0.007247310131788254,-0.08745188266038895,0.068228580057621,-0.04111488536000252,-0.11537374556064606,0.0005250349640846252,-0.19258566200733185,0.07496318966150284,-0.06523017585277557,0.05999638885259628,0.12723857164382935,0.06895660609006882,0.2146197259426117,0.040534891188144684,-0.06815583258867264,0.03526907414197922,0.03461397811770439,0.07397304475307465,0.0011922307312488556,0.06302415579557419,0.015042929910123348,0.028759418055415154,0.04805329069495201,0.07276496291160583,-0.006263235583901405,-0.02752261981368065,0.020739637315273285,0.02020394802093506,0.030825607478618622,0.03498735651373863,-0.04501514881849289,-0.13836966454982758,0.021429099142551422,0.15305720269680023,0.06624109297990799,0.033653050661087036,0.12684881687164307,0.019710715860128403,0.07219555228948593,-0.009728740900754929,0.02699238806962967,0.05567567050457001,-0.04264577105641365,0.020785249769687653,0.034643836319446564,0.016563167795538902,-0.06130000576376915,0.14147400856018066,0.05403413623571396,-0.07577219605445862,0.13205718994140625,0.004729829728603363,-0.017773374915122986,0.040635205805301666,-0.00761489849537611,-0.07946692407131195,-0.05768062174320221,0.022954441606998444,-0.08080991357564926,0.0903332531452179,-0.12875235080718994,0.04809343069791794,-0.01904972456395626,-0.019098712131381035,0.2422889620065689,0.05995628610253334,0.13684473931789398,-0.08319973945617676,-0.02392793446779251,-0.09774685651063919,0.004489230923354626,-0.0806516706943512,-0.12329437583684921,-0.1356474906206131,-0.07272475957870483,-0.03936947509646416,0.08278490602970123,0.1577928513288498,0.061760254204273224,0.08972212672233582,0.11193940043449402,-0.0914093479514122,-0.046886056661605835,-0.20555730164051056,0.07862143963575363,0.041102588176727295,0.04200366884469986,-0.10051831603050232,-0.049881380051374435,-0.12905997037887573,0.01277868077158928,0.06821256130933762,-0.04779507964849472,-0.03017568588256836,-0.004411246627569199,-0.024690058082342148,0.023625528439879417,-0.06008727848529816,-0.11102347075939178,-0.15327328443527222,-0.08746711909770966,-0.03890906274318695,0.19054436683654785,-0.117645762860775,0.09110970050096512,0.012144902721047401,0.03901788592338562,0.057671885937452316,0.09931933879852295,0.11598360538482666,0.008099422790110111,0.045189570635557175,0.0103239044547081,0.04075457900762558,0.10450708121061325,0.03780823200941086,-0.14862170815467834,-0.12338665872812271,-0.17132583260536194,0.13069994747638702,-0.14378434419631958,0.07282893359661102,0.0091419517993927,0.004647411406040192,0.12227340787649155,-0.18275418877601624,0.07201630622148514,0.12430283427238464,-0.152876079082489,-0.07835997641086578,0.004261295776814222,-0.06628435105085373,0.040185119956731796,-0.05453730374574661,-0.22027456760406494,0.03656911849975586,0.08689969778060913,-0.1525864601135254,0.189786896109581,-0.05635643005371094,-0.18703316152095795,0.035226427018642426,-0.15868371725082397,-0.15985175967216492,0.004274534061551094,-0.0664457231760025,0.10756619274616241,-0.11897861957550049,-0.08097462356090546,0.0730673298239708,-0.04188268259167671,-0.1309289038181305,0.015750594437122345,0.030943162739276886,-0.051849257200956345,0.0911758691072464,0.07116680592298508,0.04495850205421448,-0.012740164995193481,-0.07029560208320618,0.10336668789386749,-0.16470621526241302,0.03992069512605667,-0.06670204550027847,-0.01713801547884941,0.05970779061317444,-0.0768202468752861,-0.019152460619807243,-0.02616555616259575,-0.014163605868816376,0.09611263126134872,-0.06304876506328583,0.020182903856039047,-0.012917138636112213,-0.012693919241428375,0.06397101283073425,0.009001079946756363,0.1512647271156311,-0.1315445899963379,-0.006529625505208969,0.08482964336872101,0.18719065189361572,0.1326218545436859,-0.09890499711036682,-0.05215906351804733,0.12721088528633118,0.008858943358063698,-0.0547611266374588,0.05841737240552902,0.011006245389580727,-0.10252396762371063,-0.05053776130080223,-0.17914018034934998,-0.14774161577224731,0.003453233279287815,0.040612027049064636,-0.003479256294667721,-0.030310047790408134,-0.05640402436256409,0.0006666891276836395,-0.1107558161020279,0.056112006306648254,0.07591107487678528,0.04951929301023483,-0.05899927765130997,-0.04955272749066353,0.0873718187212944,0.1062229573726654,0.0018806755542755127,-0.1183270514011383,-0.09056717902421951,-0.014899414032697678,-0.2176629900932312,-0.09460682421922684,-0.09935779869556427,-0.027277832850813866,-0.11494389921426773,0.005612723529338837,0.07630953937768936,-0.028510328382253647,0.06549689918756485,0.01357179507613182,0.058753661811351776,0.03674131631851196,-0.0301109217107296,0.2000441998243332,-0.06558584421873093
Pentyl propionate (Amyl propionate),-0.005025917664170265,-0.06565403938293457,-0.08070617914199829,0.0911119133234024,-0.1092371791601181,0.04970088601112366,-0.00012272223830223083,-0.08449241518974304,0.09372694790363312,0.067879818379879,0.0341283343732357,0.07706071436405182,0.11657705903053284,0.1186719462275505,-0.0323467031121254,-0.23826484382152557,0.07561366260051727,-0.18029801547527313,0.16175293922424316,0.15551455318927765,0.011825190857052803,-0.06981699168682098,0.08364550769329071,-0.09052805602550507,-0.019282158464193344,0.039128415286540985,0.003061095252633095,-0.12793196737766266,-0.1348854899406433,0.06591930240392685,-0.006396912969648838,0.0629667118191719,0.009862388484179974,-0.22877754271030426,-0.13101084530353546,0.021828629076480865,0.13200081884860992,0.07139305770397186,0.13080769777297974,-0.1269228309392929,-0.16498464345932007,0.00936761125922203,-0.16953137516975403,0.035670552402734756,0.08274127542972565,-0.13954195380210876,-0.04459226503968239,0.1278240978717804,0.20524314045906067,0.0546090230345726,0.019209837540984154,0.1254255175590515,0.12538176774978638,0.047459397464990616,-0.13629138469696045,0.04989621043205261,-0.13904191553592682,-0.05307487025856972,-0.016783319413661957,-0.0009780446998775005,0.12789581716060638,-0.12147285789251328,0.02743036299943924,0.10152748227119446,-0.024428680539131165,0.021574899554252625,0.012191807851195335,0.09166917204856873,-0.03638622909784317,-0.15254966914653778,-0.06745117157697678,-0.28639349341392517,0.047007013112306595,0.015048880130052567,-0.033950962126255035,0.11982861906290054,0.07623536884784698,0.2115955352783203,0.04690074548125267,0.02670290134847164,0.04503343254327774,0.037012845277786255,0.048682801425457,0.025661621242761612,0.06811576336622238,-0.012925081886351109,0.10463196784257889,0.16676194965839386,0.01653056964278221,-0.04807921499013901,-0.0029461607336997986,0.1273774802684784,0.0665023997426033,0.08394043892621994,-0.017886683344841003,-0.15678972005844116,-0.0799960345029831,0.0925416648387909,0.117854543030262,0.06811852008104324,0.11959905922412872,0.07029961794614792,-0.004324287176132202,0.044446878135204315,0.10228084027767181,-0.026123562827706337,0.06469621509313583,0.002490721642971039,-0.0029866397380828857,0.17398612201213837,-0.02207108959555626,-0.032855551689863205,0.01609642803668976,0.0586516335606575,-0.19356492161750793,0.11311720311641693,-0.0067471712827682495,0.06163403019309044,0.1802263706922531,-0.09010183811187744,-0.05802055075764656,-0.021383162587881088,-0.01901490055024624,-0.049553245306015015,0.02015719562768936,-0.06203112378716469,-0.04343101382255554,-0.12352665513753891,0.12964995205402374,0.207172229886055,0.04286695271730423,-0.05099913477897644,-0.0014817947521805763,-0.04219621419906616,-0.12449817359447479,-0.04709482938051224,0.04975936561822891,-0.05825003981590271,-0.1559390425682068,0.025394055992364883,-0.045811478048563004,0.0945650190114975,0.12135308980941772,0.0689413771033287,-0.05409626662731171,0.10397118330001831,-0.06914248317480087,-0.025620147585868835,-0.11430476605892181,0.12669970095157623,0.05065806210041046,-0.11308987438678741,0.059025511145591736,-0.10491466522216797,-0.006427966058254242,-0.09721363335847855,0.07962337881326675,-0.10326875001192093,-0.12669911980628967,0.0919303297996521,-0.030869167298078537,-0.13173480331897736,-0.15415069460868835,-0.09113559126853943,-0.029899075627326965,-0.03416121006011963,-0.039722226560115814,0.17817364633083344,-0.10978998988866806,0.14757807552814484,0.004259965382516384,0.00599001906812191,0.020457329228520393,-0.0657205730676651,0.3206947445869446,0.01404927670955658,-0.0051971375942230225,0.03616013005375862,0.091814786195755,0.0506533719599247,-0.046154722571372986,-0.05123937875032425,-0.07630652189254761,0.03692661225795746,0.02520284801721573,-0.12820297479629517,0.06559216976165771,-0.021404501050710678,-0.005746275186538696,0.004554130136966705,-0.06884720921516418,0.005683694034814835,0.12412494421005249,-0.06969396024942398,-0.09312786161899567,-0.04431251436471939,-0.07925489544868469,-0.0752764493227005,-0.06259015947580338,-0.16926637291908264,0.031412847340106964,-0.00690227746963501,-0.1741965115070343,0.1627223640680313,-0.1186409741640091,-0.023751631379127502,0.027863163501024246,-0.15680930018424988,-0.10151449590921402,0.016206955537199974,-0.005721565335988998,0.17538471519947052,-0.07853932678699493,0.05115492641925812,0.10724338889122009,-0.06351161003112793,-0.05879098176956177,0.0719129890203476,0.03084605187177658,-0.03213430941104889,0.1280759871006012,0.05512901395559311,0.0372304804623127,-0.029290717095136642,-0.006914427503943443,0.16486765444278717,-0.14863431453704834,0.03127235174179077,-0.11857794970273972,-0.07696826756000519,0.08177240192890167,-0.01630917377769947,-0.21601642668247223,-0.023167874664068222,-0.09788644313812256,0.04422718286514282,0.016187431290745735,0.02000240609049797,0.026102572679519653,-0.03354060649871826,0.06713308393955231,-0.038350075483322144,0.002607818692922592,-0.0900651142001152,0.008245423436164856,0.09540179371833801,0.1345575451850891,0.1100340485572815,-0.16593943536281586,-0.030682090669870377,0.03938392549753189,-0.056521937251091,0.1307520568370819,0.06425376236438751,-0.008087381720542908,-0.061623141169548035,-0.025876231491565704,-0.1837194859981537,-0.08348797261714935,-0.02959541417658329,0.12237636744976044,0.07419884204864502,-0.09569112211465836,-0.051830191165208817,0.13165788352489471,-0.048537205904722214,-0.002594257704913616,-0.029919978231191635,0.049143217504024506,0.1329507827758789,0.028178060427308083,0.10080582648515701,0.01988925412297249,-0.1396774798631668,-0.1556565910577774,-0.016746267676353455,0.008522894233465195,-0.09588165581226349,-0.025270916521549225,0.052232399582862854,0.0722074955701828,-0.13467594981193542,-0.10106504708528519,0.07699776440858841,-0.02783549576997757,0.10099660605192184,0.025492921471595764,0.08960595726966858,0.10438824445009232,0.09635263681411743,0.10716190934181213,-0.00685280654579401
2-Ethylphenol,-0.15294653177261353,-0.05006055533885956,-0.08690955489873886,0.07203377783298492,-0.07914465665817261,0.1542370617389679,-0.07201318442821503,-0.09418760240077972,0.11297959834337234,-0.005722955334931612,0.05562138929963112,0.07135887444019318,0.12277281284332275,0.024611124768853188,-0.02074001543223858,-0.07649552077054977,0.07737814635038376,-0.09092830121517181,0.07147863507270813,0.09091625362634659,0.050646327435970306,0.046006880700588226,0.1804715096950531,-0.009975060820579529,-0.07411828637123108,0.009644344449043274,0.039909858256578445,-0.21997031569480896,-0.1168537363409996,0.027388550341129303,-0.00442199781537056,0.1745554804801941,0.01603309065103531,-0.20644117891788483,-0.15234552323818207,0.1599394977092743,0.15022365748882294,0.035609450191259384,0.1305854767560959,-0.20719057321548462,0.0313703790307045,0.10278742760419846,-0.08974559605121613,-0.017741171643137932,0.14093956351280212,-0.04775766283273697,-0.059634070843458176,0.0663304477930069,0.17618000507354736,0.15162654221057892,0.029279200360178947,0.1877666413784027,0.08044292032718658,0.16117462515830994,-0.11200428009033203,0.17312604188919067,-0.14806625247001648,0.02417387068271637,-0.01675843447446823,-0.06927402317523956,0.011862978339195251,0.03633511811494827,-0.03513056039810181,0.05188412964344025,0.010087925009429455,0.06846785545349121,0.033913008868694305,0.04372943937778473,0.04605703055858612,-0.07238996773958206,-0.07480473816394806,-0.32396313548088074,0.0003036940470337868,-0.018034029752016068,-0.03264692798256874,0.11072386056184769,-0.05107991397380829,0.1735956072807312,0.006601662375032902,0.0008436217904090881,0.10521979629993439,0.12541556358337402,0.025780528783798218,-0.11843690276145935,0.02188514918088913,-0.12596692144870758,0.15098051726818085,0.1113179475069046,0.062031809240579605,0.12532755732536316,-0.19374988973140717,0.13549689948558807,0.021553296595811844,-0.027165312319993973,-0.04700827598571777,-0.19368818402290344,-0.0982830822467804,0.04475349932909012,0.24233509600162506,-0.053617898374795914,0.07215850055217743,0.06697487086057663,-0.01058979146182537,0.039163537323474884,0.030041608959436417,-0.029961716383695602,0.08095353841781616,-0.08539390563964844,0.025433100759983063,0.22204840183258057,-0.11082018911838531,-0.10503128170967102,0.06571916490793228,0.07342958450317383,-0.024878762662410736,0.08694268763065338,0.00503549724817276,0.14316411316394806,0.15056662261486053,-0.06881619989871979,-0.09425029158592224,-0.03865082561969757,0.00391050148755312,-0.06874630600214005,0.10623280704021454,-0.10043953359127045,-0.038895994424819946,0.09178447723388672,0.03465089946985245,0.29951733350753784,0.10320691764354706,-0.013431023806333542,0.042617395520210266,-0.05762888491153717,-0.08669911324977875,-0.08534294366836548,-0.013903697021305561,-0.0826275497674942,-0.032542794942855835,-0.040153905749320984,-0.07563246041536331,-0.03036371059715748,0.13236601650714874,0.10240156948566437,0.018182124942541122,0.17014287412166595,-0.05924631655216217,0.03308669105172157,-0.08516597002744675,-0.028329715132713318,0.06218905746936798,0.009413812309503555,-0.08376741409301758,-0.007328551262617111,-0.20111125707626343,0.02664029970765114,0.08269999176263809,-0.08174759149551392,-0.055664632469415665,0.03685852512717247,0.011390872299671173,0.013687629252672195,-0.1061398833990097,-0.10485151410102844,-0.10832185298204422,0.09536749124526978,-0.048609212040901184,0.18285661935806274,-0.09253434836864471,-0.03240770474076271,0.08864177763462067,0.03819795697927475,0.06475383788347244,-0.028877783566713333,0.12858067452907562,-0.07794865220785141,0.0017741098999977112,0.0895688533782959,0.10332279652357101,0.005832755006849766,-0.10179442167282104,-0.0905342772603035,-0.030935445800423622,-0.04170958697795868,0.08678065240383148,-0.05274486541748047,-0.010991882532835007,-0.06923974305391312,-0.03330527991056442,0.068236343562603,-0.189149409532547,-0.011841163039207458,0.14269475638866425,0.019146127626299858,-0.01799469068646431,-0.060418304055929184,-0.10209816694259644,-0.12723959982395172,-0.0819578617811203,-0.1544613093137741,0.1539037525653839,-0.02122350223362446,-0.08553723245859146,0.13818086683750153,-0.04494962468743324,-0.010924357920885086,-0.02506367117166519,-0.13901925086975098,-0.014141328632831573,0.05934659391641617,-0.061904460191726685,0.04847905784845352,-0.07898721098899841,0.1087292730808258,0.028200380504131317,-0.0984596312046051,-0.03351351618766785,-0.001296169706620276,0.124163918197155,-0.07896824181079865,0.06113319844007492,0.02478310465812683,-0.061735015362501144,0.015291737392544746,0.09076713025569916,-0.0010718628764152527,-0.20666737854480743,0.03162413835525513,-0.08704880625009537,-0.015773985534906387,-0.0166837889701128,-0.016091031953692436,-0.07496453821659088,-0.008593432605266571,-0.07327553629875183,-0.018768759444355965,0.030851127579808235,0.03314178064465523,0.031230397522449493,0.026429271325469017,0.1739426553249359,0.15150997042655945,0.05585768446326256,-0.12877097725868225,-0.02430742233991623,-0.009741730988025665,0.16214480996131897,0.08154630661010742,-0.1790648102760315,0.060537341982126236,-0.020800583064556122,-0.002627742476761341,0.034183673560619354,-0.026535097509622574,0.054862894117832184,-0.1451248675584793,0.015571855008602142,-0.18119044601917267,-0.03436180576682091,-0.043141573667526245,0.039489977061748505,0.07467073202133179,-0.10697173327207565,0.04020307958126068,0.032551925629377365,-0.06462419778108597,0.15625862777233124,-0.04356534034013748,0.06904231756925583,-0.0344696119427681,-0.02706114389002323,-0.008875050581991673,-0.003395259380340576,-0.08967876434326172,-0.16764779388904572,-0.10884260386228561,-0.11005208641290665,-0.05393774062395096,-0.05208871513605118,-0.007083081640303135,-0.005600603297352791,-0.01287919282913208,-0.0398029088973999,0.06874486058950424,-0.0820840448141098,0.16438892483711243,-0.02634413167834282,0.06919434666633606,0.05042798072099686,-0.06709560751914978,0.046426642686128616,-0.1022261306643486
Octyl formate,-0.09274422377347946,0.04061151295900345,-0.08670378476381302,0.0996977686882019,-0.020208390429615974,0.055283479392528534,-0.03406892344355583,-0.1773947775363922,0.0723491907119751,0.04625576734542847,0.04392341151833534,0.04174463450908661,0.053888220340013504,0.05275245010852814,0.003194168210029602,-0.06970667093992233,0.1281382441520691,-0.08412382006645203,0.0870216116309166,0.08944128453731537,0.017936021089553833,-0.09536192566156387,0.10245820134878159,-0.02899625524878502,-0.05373866483569145,0.030824681743979454,0.09969613701105118,-0.13302955031394958,-0.15548288822174072,0.006287872791290283,0.04871765524148941,0.10542058199644089,-0.011232485994696617,-0.23395951092243195,-0.09704691171646118,0.0884886234998703,0.11315236240625381,0.07028828561306,0.10995537042617798,-0.13697223365306854,-0.12207446992397308,0.03540165722370148,-0.11366918683052063,0.044948283582925797,0.04968632012605667,-0.15418727695941925,0.01795833371579647,0.11565786600112915,0.1390947699546814,-0.004869241267442703,-0.04567641019821167,0.1810719072818756,0.13800369203090668,0.18899160623550415,-0.03356049954891205,0.11084350943565369,-0.056294359266757965,-0.07797661423683167,-0.010504759848117828,0.04509730637073517,0.03457914665341377,0.007409334182739258,0.05918606370687485,0.10799399763345718,-0.045128803700208664,0.0299111008644104,0.0021494945976883173,0.07506652921438217,0.07526661455631256,-0.06857173144817352,-0.10358472168445587,-0.2743290662765503,0.1317959576845169,0.055759966373443604,0.0061027780175209045,0.11969686299562454,0.1390233337879181,0.20591896772384644,0.028497129678726196,-0.025383131578564644,0.07764534652233124,0.11348205804824829,0.01784776896238327,0.02288302220404148,-0.029235001653432846,-0.02040467970073223,0.17608152329921722,0.19253873825073242,0.10524292290210724,0.11548425257205963,-0.09734214842319489,0.1712421029806137,0.028668630868196487,0.08911396563053131,-0.045154109597206116,-0.10026728361845016,-0.047785643488168716,0.04904266446828842,0.11233095079660416,0.022306067869067192,0.1882428228855133,0.041779354214668274,0.04598640277981758,0.014369651675224304,0.12651504576206207,0.004619520157575607,0.046465590596199036,-0.06494730710983276,0.02509058266878128,0.19245238602161407,-0.051626089960336685,-0.09290424734354019,0.0501767173409462,0.0634615570306778,-0.19562816619873047,0.12447138130664825,0.033729106187820435,-0.019996125251054764,0.1674365997314453,0.0071845222264528275,-0.1562938094139099,-0.06228901445865631,-0.0011634400580078363,0.031722377985715866,0.0989052951335907,-0.14267893135547638,0.05160897225141525,0.014640115201473236,0.060040149837732315,0.2406616359949112,0.058162376284599304,-0.024769075214862823,-0.07075150310993195,-0.04048990458250046,-0.11626116931438446,-0.07126779854297638,-0.05627952143549919,-0.0530615858733654,-0.18168585002422333,0.005276292562484741,-0.03924764320254326,0.1529548466205597,0.10117912292480469,0.041436031460762024,-0.04189625382423401,0.18917080760002136,-0.1856907606124878,0.007645592093467712,-0.10664932429790497,0.13197433948516846,0.0013240650296211243,-0.042565811425447464,-0.014579875394701958,-0.058326032012701035,-0.06188362091779709,-0.04195363074541092,0.009654037654399872,-0.09026914834976196,-0.08305567502975464,0.03424213454127312,-0.034953828901052475,-0.029938148334622383,-0.09557011723518372,-0.09191645681858063,-0.011876225471496582,0.005387559067457914,0.022776857018470764,0.21372367441654205,-0.07545072585344315,0.04227833449840546,0.09147163480520248,0.008911050856113434,0.021592920646071434,0.020162684842944145,0.1762312799692154,0.015776460990309715,0.056968770921230316,0.14274552464485168,0.13070766627788544,-0.013083470985293388,-0.07214370369911194,-0.043224550783634186,-0.020724782720208168,-0.056429460644721985,0.04488120973110199,-0.10106869786977768,0.015149865299463272,0.09269912540912628,0.01988285407423973,0.08724317699670792,0.03378240764141083,0.035508885979652405,0.13909730315208435,-0.13606345653533936,-0.044723134487867355,-0.05552570894360542,-0.02051530033349991,-0.11229798197746277,-0.06574705243110657,-0.20519645512104034,-0.011617885902523994,0.057409919798374176,-0.20993107557296753,0.13975019752979279,-0.04425382986664772,-0.10632163286209106,0.01476522907614708,-0.12227777391672134,-0.059816814959049225,0.010623397305607796,0.019513534381985664,0.13627375662326813,-0.13109664618968964,-0.030430782586336136,0.099920853972435,-0.04479240998625755,-0.03753527253866196,0.03149218112230301,0.10997564345598221,-0.10509567707777023,0.07000568509101868,-0.03654615581035614,-0.04170727729797363,-0.12152260541915894,0.02756250463426113,0.12302786111831665,-0.08709154278039932,-0.06379366666078568,-0.14308340847492218,-0.016470225527882576,0.013369879685342312,-0.0640464648604393,-0.13710473477840424,-0.07077255845069885,-0.08260266482830048,0.08578542619943619,-0.019254036247730255,-0.009529411792755127,0.03497155010700226,0.004593567922711372,0.1260930299758911,0.03186063840985298,-0.008807901293039322,-0.0856817215681076,-0.012198053300380707,0.0653114765882492,0.17776712775230408,0.11236526072025299,-0.053024597465991974,0.2112574726343155,0.05440685898065567,-0.09090017527341843,0.11497648805379868,-0.01065027341246605,-0.002174651250243187,-0.07186724990606308,-0.0018734745681285858,-0.0656004473567009,-0.19058558344841003,0.012569187209010124,0.11439579725265503,0.10014256834983826,-0.13704562187194824,-0.027488086372613907,0.10218052566051483,-0.09855549037456512,0.007615233771502972,-0.11352504044771194,0.0760066881775856,0.09576389193534851,-0.03669935464859009,0.07043496519327164,0.004016589373350143,-0.04802916944026947,-0.1315516233444214,-0.062426261603832245,-0.06299616396427155,-0.09574788063764572,0.06161044165492058,0.0007483265944756567,-0.011214949190616608,-0.08943448215723038,-0.09752511978149414,0.15011197328567505,-0.0696234256029129,0.08823850005865097,0.009589191526174545,0.09415654093027115,0.016526777297258377,0.019599301740527153,0.1705324351787567,-0.01748250424861908
beta-ionone,-0.07742290198802948,-0.11641164869070053,-0.04305858537554741,0.11200597882270813,0.09314603358507156,-0.0006751178298145533,-0.14440855383872986,0.04534466192126274,-0.10748110711574554,0.01883651316165924,-0.052932336926460266,0.025639716535806656,0.022365164011716843,-0.020688645541667938,-0.009967140853404999,0.09632506221532822,-0.05154590681195259,0.0003644227981567383,0.005343232303857803,0.04239761829376221,0.048343464732170105,-0.0374322235584259,-0.050475187599658966,-0.0287034772336483,-0.04554366692900658,-0.0188586488366127,0.024697935208678246,-0.051259562373161316,-0.1487882137298584,-0.05751388147473335,-0.049706004559993744,0.06229180842638016,0.0004137139767408371,0.1034412533044815,-0.06915158033370972,0.025291360914707184,-0.015418215654790401,0.023174483329057693,-0.017901472747325897,-0.05720638111233711,0.15078313648700714,0.03851727768778801,-0.023754332214593887,-0.0832577645778656,0.018906917423009872,0.03601772338151932,0.06895709782838821,0.05938464403152466,0.031878456473350525,0.05626745522022247,-0.002376941032707691,0.12048837542533875,0.07679148763418198,0.07835839688777924,0.03970064967870712,0.22257599234580994,-0.022988731041550636,0.2245582640171051,0.043290458619594574,-0.06313911080360413,-0.010275661014020443,0.10125332325696945,-0.13687394559383392,0.014810027554631233,-0.06910283863544464,-0.014811083674430847,-0.21946285665035248,-0.02723611146211624,0.06690619885921478,0.08167663216590881,0.22420260310173035,-0.17597247660160065,-0.09464909136295319,-0.02457529678940773,-0.01956915855407715,0.03760170936584473,0.03897624462842941,-0.045260969549417496,-0.023240014910697937,-0.05249080806970596,-0.054483942687511444,-0.06774666905403137,0.0409635528922081,-0.017357420176267624,0.021003253757953644,-0.03892414644360542,-0.11152136325836182,-0.10059942305088043,0.08274619281291962,0.06432648748159409,-0.18122141063213348,-0.05690896511077881,0.018475428223609924,-0.11613046377897263,-0.05164192616939545,-0.028997007757425308,0.06215502321720123,-0.038784950971603394,-0.028099840506911278,-0.07897713780403137,0.06697294116020203,0.033369965851306915,-0.06486710160970688,0.03261113911867142,0.07316656410694122,0.06576486676931381,-0.08114131540060043,0.02282526344060898,-0.024984771385788918,0.09040829539299011,0.06121833994984627,-0.13115888833999634,0.13990497589111328,0.007253553718328476,0.1033330038189888,-0.0451936200261116,-0.15911155939102173,0.05551381781697273,-0.028778549283742905,0.10614475607872009,-0.1423993855714798,0.013436286710202694,-0.003880827920511365,-0.01903948187828064,0.04689865559339523,-0.011873375624418259,0.0016531944274902344,0.09776675701141357,-0.0008397742640227079,0.18517766892910004,0.01705360785126686,0.055767182260751724,-0.024284258484840393,0.08778918534517288,0.014708943665027618,0.0319526307284832,-0.06739491969347,-0.0585307702422142,-0.005560610443353653,-0.1287122368812561,-0.000345572829246521,-0.0009049475193023682,0.009671147912740707,0.07045000791549683,0.06183880195021629,0.19886301457881927,-0.044018663465976715,-0.07550951838493347,-0.06481959670782089,-0.09068452566862106,-0.023057512938976288,-0.014758456498384476,-0.06195349246263504,0.03473430126905441,-0.1655535101890564,0.09223216772079468,-0.11857665330171585,0.04033466428518295,-0.00956001877784729,0.031635407358407974,0.13637971878051758,0.013716356828808784,0.0007945522665977478,-0.004511028528213501,-0.03021422028541565,0.12200234085321426,-0.04560347646474838,0.04227345436811447,-0.07406613230705261,-0.0842522606253624,0.019720368087291718,-0.0068524861708283424,0.009849686175584793,-0.01077871024608612,0.12314452230930328,-0.09093884378671646,-0.07954219728708267,0.04489421844482422,-0.012926393188536167,-0.14727678894996643,-0.07894580066204071,0.020288962870836258,0.104622982442379,-0.0820377841591835,-0.0028849393129348755,-0.12730559706687927,-0.1333630084991455,-0.017609458416700363,0.05836555361747742,0.019004374742507935,-0.13506370782852173,0.12517571449279785,0.08171503245830536,-0.07781820744276047,0.10956467688083649,0.03780531510710716,0.004705708473920822,0.04951341077685356,-0.012816628441214561,-0.046335987746715546,0.058303993195295334,-0.09949034452438354,-0.026085667312145233,0.047806303948163986,0.0610191635787487,0.038224365562200546,0.04818284884095192,0.029275143519043922,-0.04254702478647232,-0.034056223928928375,0.04830612242221832,-0.14401191473007202,0.03560853749513626,-0.043018195778131485,-0.07694759964942932,-0.055905748158693314,-0.08500362187623978,0.13987034559249878,0.045152582228183746,-0.0024642981588840485,-0.10999856889247894,0.038767009973526,-0.10640064626932144,-0.14003117382526398,-0.020651014521718025,0.027741119265556335,-0.1468583047389984,-0.021877508610486984,0.0062003834173083305,0.13725943863391876,-0.015461200848221779,0.02241671457886696,0.05978156626224518,0.03885531425476074,0.0591028556227684,-0.03733024746179581,0.10640837252140045,0.0443282313644886,0.017325736582279205,0.07709162682294846,0.1800341159105301,0.09154072403907776,-0.011882249265909195,-0.08173418790102005,-0.034888092428445816,0.032239485532045364,0.0101097971200943,0.10907071828842163,-0.13398458063602448,0.047601353377103806,0.055421799421310425,0.10034734010696411,-0.07043036818504333,-0.09945476055145264,0.09802789241075516,-0.03294532746076584,-0.02919166162610054,0.017171844840049744,-0.005826834589242935,0.1337936669588089,0.09113511443138123,0.14847315847873688,0.010273991152644157,0.07802379131317139,0.013912815600633621,-0.0029532122425734997,-0.011508417315781116,-0.05693227797746658,0.0616876557469368,-0.0751267597079277,-0.08998154103755951,-0.08545257896184921,-0.011498721316456795,0.0020613782107830048,-0.020952213555574417,-0.11796479672193527,0.019255980849266052,-0.05310095101594925,-0.06254490464925766,-0.02019546553492546,0.08253215253353119,-0.10684304684400558,0.06395091116428375,-0.0927940309047699,-0.04901691898703575,0.08262879401445389,0.12930451333522797,0.09018275141716003,-0.00871538370847702,0.028728550300002098,0.16125993430614471,-0.04008312150835991
Octanal,-0.0656406581401825,0.04349561780691147,-0.12346741557121277,0.03406011685729027,-0.08905774354934692,0.07073349505662918,-0.03603566810488701,-0.13366864621639252,0.02719714120030403,0.09545426070690155,0.06030358001589775,0.08656714856624603,0.035054054111242294,0.10919850319623947,-0.020874658599495888,-0.10360623896121979,0.11073771864175797,-0.1468241661787033,0.06119222193956375,0.1329968273639679,-0.002987140789628029,-0.09778609126806259,0.171982079744339,0.038724686950445175,-0.05135079845786095,-0.008079197257757187,0.005863785743713379,-0.10504025220870972,-0.18429771065711975,0.039989642798900604,0.04594855010509491,0.05407310277223587,-0.043162986636161804,-0.25329431891441345,-0.040803078562021255,0.08843725919723511,0.1898757815361023,0.006485383957624435,0.11953317373991013,-0.12542667984962463,-0.18895773589611053,0.041845109313726425,-0.10907145589590073,0.033196430653333664,0.07084893435239792,-0.13004979491233826,0.07047881186008453,0.10106833279132843,0.11365415900945663,0.025622472167015076,-0.05424421280622482,0.1880803257226944,0.09303039312362671,0.1162799671292305,-0.0533854141831398,0.09212416410446167,-0.049343034625053406,-0.09746464341878891,0.013924375176429749,0.0330524779856205,-0.02319248579442501,0.024545297026634216,0.12176810204982758,0.13326963782310486,-0.03622560575604439,0.005082443356513977,0.06855899095535278,0.10831446945667267,0.11013807356357574,-0.0370146743953228,-0.18344157934188843,-0.23138916492462158,0.211430162191391,0.09222371131181717,-0.018374677747488022,0.059910643845796585,0.07976745814085007,0.16321630775928497,2.3292377591133118e-05,0.009956568479537964,0.11415795981884003,0.15258871018886566,0.029231548309326172,0.0877394825220108,-0.007990870624780655,-0.03121417760848999,0.22299638390541077,0.1582951545715332,0.06610935926437378,0.11478731781244278,-0.07494381070137024,0.22793176770210266,0.00954793393611908,0.0442362017929554,-0.05877864360809326,-0.08256853371858597,-0.03255143761634827,0.02741909585893154,0.060183390974998474,-0.029081381857395172,0.1600136160850525,0.0699414387345314,0.0602613165974617,-0.004612769931554794,0.15534724295139313,-0.0231423731893301,0.07957529276609421,-0.046303991228342056,-0.0283836480230093,0.17155198752880096,-0.046769656240940094,-0.050274427980184555,-0.004610665142536163,0.06280417740345001,-0.2810397148132324,0.1661537140607834,0.0539325587451458,-0.03171175345778465,0.14276571571826935,-0.018879884853959084,-0.11565196514129639,-0.08444872498512268,0.049486204981803894,0.05499915033578873,0.0985565334558487,-0.10578837990760803,0.014234183356165886,-0.025348534807562828,0.13557235896587372,0.19666408002376556,0.04869396239519119,-0.035367075353860855,-0.05564329773187637,-0.10637826472520828,-0.16135235130786896,-0.11144956946372986,-0.05373337119817734,-0.029118191450834274,-0.14247246086597443,0.04838152974843979,-0.0509817861020565,0.21562574803829193,0.051880721002817154,0.04971740394830704,-0.12253780663013458,0.1668447107076645,-0.17265591025352478,0.030041195452213287,-0.09382330626249313,0.15022164583206177,-0.034602079540491104,-0.0528390072286129,0.08022262901067734,-0.038053806871175766,-0.06395523995161057,-0.0862068384885788,0.02531282603740692,-0.04469422996044159,-0.05819516256451607,0.022027451545000076,-0.06652005016803741,-0.060961030423641205,-0.09627863764762878,-0.08208246529102325,0.09820695221424103,0.04356146603822708,0.02333054691553116,0.1598857194185257,-0.043637119233608246,0.05554002895951271,0.07087302207946777,0.03242020681500435,0.0018720850348472595,-0.021673323586583138,0.17637743055820465,0.01871146261692047,0.03205084428191185,0.15450093150138855,0.12179981172084808,-0.05868387222290039,-0.1082237958908081,-0.03904927521944046,-0.02309860847890377,0.03611902892589569,0.031082265079021454,-0.09201798588037491,0.0055528730154037476,0.0905541479587555,-0.03303772211074829,-0.006757654249668121,0.08351556956768036,0.08741744607686996,0.08895919471979141,-0.05781368911266327,-0.023161862045526505,-0.06689528375864029,-0.035957492887973785,-0.08367889374494553,-0.05424764007329941,-0.15532179176807404,0.04979638010263443,0.024369297549128532,-0.22025854885578156,0.16576038300991058,-0.07366391271352768,-0.028985900804400444,0.0705379769206047,-0.08824215084314346,0.019966674968600273,0.014805110171437263,0.03451919928193092,0.09785406291484833,-0.04284854233264923,-0.009673349559307098,0.06827567517757416,-0.024063970893621445,0.02884848043322563,-0.03651601821184158,0.11279907077550888,-0.15821067988872528,0.05971439182758331,-0.07435178756713867,-0.010754487477242947,-0.16032521426677704,0.025147318840026855,0.10396119952201843,-0.03860500454902649,-0.15129056572914124,-0.11206014454364777,-0.018172377720475197,-0.03991810977458954,-0.05232050269842148,-0.1548130214214325,-0.06318479031324387,-0.13054168224334717,-0.027544423937797546,-0.026168592274188995,-0.02259426936507225,0.02221311628818512,-0.019084637984633446,0.1322356015443802,0.002511795610189438,-0.1033862829208374,-0.08443611860275269,-0.010053098201751709,0.03731095418334007,0.17414411902427673,0.11209792643785477,-0.03878045082092285,0.25206515192985535,0.07536587864160538,-0.09822091460227966,0.15131638944149017,0.01186603307723999,-0.042476244270801544,-0.024821504950523376,0.04506726190447807,-0.046914853155612946,-0.20490998029708862,-0.03553488850593567,0.09192432463169098,0.09768234193325043,-0.12919200956821442,-0.03403851389884949,0.08872155845165253,-0.04200628027319908,0.0017554638907313347,-0.14000466465950012,0.10234256833791733,0.13323761522769928,0.034699149429798126,0.07127461582422256,0.011764869093894958,-0.0434587299823761,-0.1867576539516449,-0.06873131543397903,-0.08380760997533798,-0.07754041254520416,0.09934186190366745,0.004012664780020714,0.04374854639172554,-0.0990840271115303,-0.08623009920120239,0.10707759112119675,-0.04952240362763405,0.03804243355989456,-0.05097176134586334,0.06143297255039215,0.0023643486201763153,0.05394700914621353,0.15407587587833405,-0.004495901055634022
2-Methyl-1-propanethiol,-0.14740417897701263,0.03541351109743118,-0.13436484336853027,-0.04770911484956741,-0.2376275509595871,0.05878058448433876,-0.01665624976158142,-0.13961200416088104,0.08802622556686401,-0.003825077787041664,0.037238311022520065,-5.8195553719997406e-05,0.021888602524995804,0.08990534394979477,-0.07217566668987274,-0.03609156981110573,-0.015210630372166634,-0.14054284989833832,0.06300126016139984,0.02478502131998539,-0.011557823978364468,-0.03121505305171013,0.2786741256713867,0.06238403543829918,0.029448729008436203,-0.06893444061279297,0.10973883420228958,-0.15204866230487823,-0.08759433776140213,0.06367775052785873,0.07102824002504349,-0.010147154331207275,0.022678716108202934,-0.1523134559392929,-0.03593287989497185,0.0444338321685791,0.23836864531040192,0.06070088595151901,0.12251242995262146,-0.12912942469120026,-0.18664418160915375,0.02312948741018772,-0.08526642620563507,0.07627065479755402,0.0688275396823883,-0.04130067676305771,0.03360237181186676,0.07469440996646881,-0.009056158363819122,0.10074394941329956,0.0014116168022155762,0.024157937616109848,-0.06121490150690079,-0.0009468235075473785,-0.14679312705993652,0.0968378335237503,0.017598126083612442,0.04938072711229324,-0.02671033889055252,0.014519349671900272,-0.09975681453943253,0.12917280197143555,0.13160713016986847,0.12826652824878693,-0.020102906972169876,0.055901460349559784,0.13409832119941711,0.057870008051395416,0.0020032450556755066,0.024679435417056084,-0.23476633429527283,-0.1645941287279129,0.0683339536190033,0.07017289102077484,-0.15332020819187164,-0.07676010578870773,0.10736086964607239,0.027327850461006165,-0.01398950070142746,0.08189237862825394,0.25231361389160156,0.08783185482025146,-0.0001657828688621521,0.05075153335928917,-0.0400068424642086,0.005328831262886524,0.2079818844795227,0.18490813672542572,-0.12365442514419556,0.15772511065006256,-0.08996550738811493,0.14769791066646576,0.017221245914697647,0.07143575698137283,-0.027865968644618988,-0.11175183206796646,-0.04456637054681778,0.08143697679042816,0.046094611287117004,0.06940626353025436,0.1443452686071396,-0.08140132576227188,0.17453309893608093,0.06518600136041641,0.12473730742931366,-0.05277465283870697,0.05690200626850128,0.07758039236068726,-0.13454726338386536,0.09760916978120804,-0.12841559946537018,0.02281089499592781,-0.05504002422094345,0.23544007539749146,-0.18951967358589172,0.11789602041244507,0.12428180873394012,0.024030640721321106,0.19165264070034027,-0.08255875110626221,0.0006284825503826141,-0.07605548948049545,0.11600837111473083,0.08955563604831696,0.07341712713241577,0.03536982461810112,-0.046662718057632446,0.12632247805595398,0.07671038061380386,0.16253934800624847,-0.01945040374994278,-0.15864971280097961,-0.01945827342569828,-0.08967761695384979,-0.1136307343840599,-0.14597883820533752,-0.008272716775536537,0.02292020246386528,0.08321841061115265,0.23826807737350464,-0.14183828234672546,0.11143333464860916,-0.03777451813220978,0.11446064710617065,-0.13503509759902954,0.10732217133045197,-0.09208760410547256,0.1273016482591629,-0.0206891056150198,0.09336569905281067,-0.0029098838567733765,0.02731620892882347,-0.04944417625665665,0.006099328398704529,-0.129987433552742,-0.07912369817495346,-0.007414359599351883,-0.048566460609436035,-0.01801362633705139,-0.05115213617682457,-0.04137864708900452,-0.04424457252025604,0.0029040947556495667,-0.0693851113319397,0.22263774275779724,0.05573347955942154,-0.012407839298248291,0.03372720628976822,-0.009221784770488739,-0.10673794895410538,0.09208016097545624,0.028447896242141724,0.03726586326956749,-0.08397604525089264,0.11564889550209045,-0.04879426211118698,-0.02057892084121704,0.17661455273628235,0.13580483198165894,-0.10684309899806976,-0.12830790877342224,0.10801172256469727,-0.024718141183257103,0.13192816078662872,0.08274994790554047,0.0032216832041740417,-0.06514221429824829,0.047523219138383865,-0.04364551231265068,-0.16066908836364746,0.16950272023677826,0.05331571400165558,-0.034409984946250916,0.07115185260772705,-0.045113515108823776,-0.1648271232843399,0.01879126764833927,-0.033544182777404785,0.10838661342859268,0.0034363344311714172,0.030942117795348167,0.00881237629801035,-0.13111966848373413,-0.01100301556289196,-0.08285244554281235,0.11861300468444824,0.04736587405204773,-0.0848207101225853,0.16048187017440796,0.047507308423519135,0.059047963470220566,0.027235958725214005,-0.06316415965557098,0.013465516269207,-0.021359842270612717,0.0579695999622345,0.1780291199684143,-0.059058722108602524,0.05177588015794754,-0.14102435111999512,-0.01254558376967907,-0.25190240144729614,-0.04017448052763939,-0.1779889166355133,0.20170146226882935,-0.10666994005441666,0.0855100229382515,-0.21891100704669952,-0.05926021561026573,-0.040831148624420166,-0.049334313720464706,-0.00442701019346714,-0.11518914997577667,-0.0699298232793808,-0.18559835851192474,-0.09273526817560196,0.014933936297893524,-0.008774422109127045,-0.06662905961275101,0.031161339953541756,0.12914146482944489,0.07529285550117493,-0.0736769586801529,-0.13570952415466309,-0.042072758078575134,-0.04667675122618675,0.01280926913022995,0.03537382185459137,-0.02573251537978649,0.11836349964141846,-0.04659952223300934,-0.03896119445562363,0.15481142699718475,0.03980457782745361,-0.08028937876224518,0.1069597378373146,0.1250072419643402,-0.12219533324241638,0.027635594829916954,-0.10747992992401123,-0.031351469457149506,0.09282158315181732,-0.11603272706270218,-0.02126232162117958,0.13440681993961334,-0.0524199940264225,-0.10317986458539963,-0.047255441546440125,0.0051292479038238525,0.1465863138437271,0.05858197808265686,0.07962609827518463,-0.06024232134222984,-0.10784102976322174,-0.11680467426776886,-0.022947460412979126,-0.08961029350757599,0.06349599361419678,0.0965995192527771,-0.013062813319265842,0.08364920318126678,0.07623426616191864,-0.05021214857697487,0.0387411043047905,-0.0965464785695076,0.03365965932607651,-0.10027865320444107,0.004118907265365124,0.0005882605910301208,0.04342079162597656,0.0032652728259563446,-0.03924200311303139
(+)-Dihydrocarvone,0.09502734243869781,-0.10510339587926865,0.06132098659873009,0.1255512833595276,-0.04109305143356323,0.029759228229522705,-0.032330747693777084,-0.0548819899559021,-0.1701156347990036,0.08251176029443741,-0.06937508285045624,-0.02715192921459675,0.06070652976632118,-0.00030083488672971725,-0.029669344425201416,-0.07392680644989014,0.10313036292791367,0.0069305263459682465,0.004832230508327484,0.026000607758760452,0.11465458571910858,-0.04503238573670387,-0.040218740701675415,-0.04584663733839989,-0.15247982740402222,-0.02958129346370697,-0.1775343120098114,-0.011916344985365868,-0.12193179875612259,0.05094658583402634,-0.030479559674859047,0.1404314637184143,-0.13593198359012604,-0.048941586166620255,-0.021631475538015366,0.15488354861736298,-0.04349285364151001,-0.07421916723251343,0.12633271515369415,-0.10332053899765015,0.05256223306059837,0.07672831416130066,0.004344802349805832,-0.03470838814973831,0.06211920455098152,0.03762079030275345,-0.003184862434864044,0.1591441035270691,0.3167697489261627,0.037307217717170715,0.039526619017124176,0.28453299403190613,0.06022513657808304,0.07112795114517212,-0.008139362558722496,0.11680179834365845,-0.184489905834198,-0.030678685754537582,0.17640137672424316,-0.06678736209869385,-0.1548110991716385,-0.1304120421409607,-0.21443477272987366,0.04911937564611435,-0.050301458686590195,0.009274378418922424,-0.1534142941236496,0.0807499885559082,-0.01811620593070984,-0.05750921368598938,0.17910537123680115,-0.19034510850906372,-0.006501846946775913,-0.09311342239379883,0.10886544734239578,0.1014319583773613,-0.03315982222557068,0.14930477738380432,0.061313387006521225,0.10453563183546066,-0.17986539006233215,0.0404796302318573,0.12370261549949646,-0.0021075718104839325,0.045523352921009064,0.011294336058199406,0.0565543994307518,-0.1047440767288208,0.10871261358261108,-0.15816468000411987,-0.05341654270887375,-0.07771193981170654,-0.03998841717839241,-0.0023729344829916954,-0.011843129992485046,0.023478103801608086,-0.08725962787866592,-0.03850572556257248,0.014362203888595104,-0.01404686737805605,-0.04432182013988495,0.1637619137763977,-0.258053719997406,-0.031630635261535645,-0.08459870517253876,-0.004282049834728241,-0.03277848660945892,-0.09369659423828125,0.07132123410701752,-0.04706219956278801,0.06774554401636124,-0.09059268236160278,0.15355965495109558,0.14893926680088043,0.07709570974111557,0.06335821747779846,-0.1853742003440857,0.019882235676050186,-0.07338906079530716,0.0439567044377327,-0.16772960126399994,0.046383023262023926,-0.03975030407309532,-0.18455719947814941,0.004308775067329407,-0.18589113652706146,0.05330740660429001,-0.08357060700654984,-0.018800094723701477,0.24565334618091583,-0.1242179423570633,0.23110656440258026,-0.10388544201850891,-0.012900318950414658,-0.02749265916645527,-0.1038324311375618,-0.05186930298805237,-0.19807477295398712,-0.18671730160713196,-0.17418840527534485,0.050775155425071716,-0.0006557796150445938,0.1764686107635498,0.12197078764438629,0.18381564319133759,0.1276428997516632,-0.028229080140590668,-0.13637983798980713,-0.2520683705806732,-0.007111217826604843,0.06084220111370087,0.06760385632514954,-0.0333673469722271,0.058851420879364014,-0.17278209328651428,0.034167807549238205,-0.008797049522399902,-0.04503541439771652,-0.13429999351501465,0.033693570643663406,0.03657972812652588,-0.0421932116150856,-0.046386316418647766,-0.04922086000442505,-0.193746417760849,-0.07248707860708237,-0.19409456849098206,0.1611497402191162,-0.18346795439720154,0.13518355786800385,0.003136053681373596,0.1440402865409851,-0.012978937476873398,-0.008245370350778103,-0.001759953796863556,-0.0705648735165596,-0.14460337162017822,0.010991811752319336,-0.05021292716264725,0.03080986626446247,0.06620068103075027,-0.17187780141830444,0.01110466942191124,-0.008902570232748985,0.17241732776165009,-0.34448426961898804,0.04146771505475044,0.023705817759037018,-0.11966787278652191,0.030468270182609558,-0.25867995619773865,0.18838492035865784,0.09847119450569153,-0.15714707970619202,-0.03842753544449806,-0.007959618233144283,-0.05509548634290695,0.09392362833023071,-0.03811578452587128,-0.08531790971755981,0.07767775654792786,-0.08634375780820847,-0.05813642591238022,0.31180015206336975,0.01419799029827118,-0.0575590506196022,0.027100011706352234,-0.192585289478302,-0.24481216073036194,0.09720727056264877,-0.022725068032741547,0.0032592657953500748,-0.005480192601680756,-0.06938052177429199,-0.013919130899012089,-0.0027359314262866974,-0.27924248576164246,-0.03265827149152756,-0.005362972617149353,-0.07617206871509552,0.0241937804967165,0.2244967818260193,0.023125145584344864,-0.04467324912548065,-0.26158222556114197,0.09777712821960449,-0.21904097497463226,-0.03602234274148941,-0.020381394773721695,-0.000954688061028719,-0.06344212591648102,0.04991154372692108,0.011942872777581215,0.08110879361629486,-0.0040163323283195496,0.0176007691770792,-0.08869728446006775,0.04489188268780708,0.08597847074270248,0.04254303127527237,0.14061258733272552,0.09265892207622528,0.04550784081220627,-0.007844007574021816,0.041991740465164185,0.05384593829512596,0.13524657487869263,0.13905641436576843,-0.13046152889728546,-0.2100057601928711,0.10588610917329788,0.10129911452531815,-0.14382413029670715,-0.031049687415361404,0.17259138822555542,-0.003008037805557251,-0.041824888437986374,-0.04072710871696472,-0.1568446159362793,0.0605476014316082,0.11524531245231628,0.028773825615644455,-0.12023582309484482,-0.10116823017597198,-0.1500634104013443,-0.04378773272037506,0.08771449327468872,0.0634266585111618,0.14906936883926392,-0.18352648615837097,-0.11183401942253113,-0.0330086313188076,0.11771748960018158,0.0690174549818039,-0.11874857544898987,-0.15537449717521667,0.08263496309518814,-0.23132167756557465,-0.13820266723632812,-0.009806514717638493,-0.050434790551662445,-0.15188676118850708,0.1103915125131607,0.11592146009206772,-0.02095128409564495,0.004133529961109161,0.05158492922782898,0.11670655757188797,-0.04423149675130844,0.056559473276138306,0.13521994650363922,-0.059312645345926285
Eugenol methyl ether,-0.11089172959327698,-0.1516941785812378,0.02866453304886818,0.12877687811851501,0.10398749262094498,0.004821049049496651,-0.13372200727462769,-0.08760726451873779,-0.06492851674556732,0.011682981625199318,0.05912311002612114,0.04086272791028023,0.04233622923493385,-0.09080357849597931,-0.03567589819431305,0.002005643444135785,0.018238626420497894,0.03029743582010269,-0.06177228316664696,0.036160439252853394,0.06391695141792297,-0.015717240050435066,0.007666774094104767,-0.009970929473638535,-0.028503138571977615,-0.05101199448108673,-0.08059892803430557,-0.12700724601745605,-0.19699141383171082,0.1288534700870514,-0.070240318775177,0.14206919074058533,-0.01871153898537159,-0.08085927367210388,-0.14815548062324524,0.14492790400981903,0.042516518384218216,-0.04669523239135742,0.10225731879472733,-0.15734094381332397,0.22841857373714447,0.1015239953994751,-0.05848434567451477,-0.044346414506435394,0.20934778451919556,0.025103682652115822,-0.005331728607416153,0.05329963564872742,0.23854589462280273,0.07963676750659943,0.06065588444471359,0.20582926273345947,0.07466711103916168,0.021613311022520065,-0.09450782835483551,0.265340119600296,-0.1840122938156128,-0.013612434267997742,-0.010913193225860596,-0.048468686640262604,-0.07134285569190979,0.004303283989429474,-0.13350404798984528,0.09651294350624084,-0.08026028424501419,-0.06468446552753448,-0.10183460265398026,0.01855986937880516,-0.040711626410484314,-0.02623865008354187,0.06934920698404312,-0.19407778978347778,-0.042248375713825226,-0.03571648523211479,-0.007464587688446045,0.08458133786916733,-0.09322528541088104,0.02709949016571045,0.06929877400398254,-0.06314510107040405,-0.010745570063591003,0.026097122579813004,0.08883878588676453,-0.14337566494941711,0.04569833725690842,-0.033234257251024246,-7.021613419055939e-05,-0.09307520091533661,0.054996516555547714,0.05966051295399666,-0.21623638272285461,0.011812418699264526,-0.1216852217912674,-0.08881330490112305,-0.026232413947582245,-0.10396599024534225,-0.08514762669801712,0.020123479887843132,0.22660988569259644,-0.04524056985974312,-0.05040838569402695,0.02862299233675003,-0.0913897380232811,0.008787807077169418,0.023537304252386093,-0.02214452251791954,-0.022234082221984863,-0.10037189722061157,-0.07361030578613281,0.11534225940704346,0.023527059704065323,-0.12548524141311646,0.13073211908340454,0.05075613409280777,0.12581336498260498,0.02409590408205986,-0.14121153950691223,0.12286603450775146,-0.015306062065064907,0.04220336303114891,-0.05849127098917961,-0.021841228008270264,0.05660022795200348,-0.1356211006641388,0.011372901499271393,-0.0865420401096344,-0.10183491557836533,0.006142646074295044,0.026183467358350754,0.29041749238967896,-0.027690842747688293,0.16003425419330597,0.02858847752213478,-0.02748146653175354,-0.014210028573870659,-0.04761669412255287,-0.0325588583946228,-0.09267258644104004,-0.026462318375706673,-0.1580640822649002,-0.04204366356134415,-0.11694040894508362,0.2051687389612198,0.06341756135225296,0.054042983800172806,0.15736129879951477,0.06766343116760254,-0.04252939671278,-0.15231876075267792,-0.08515702188014984,-0.03191734105348587,0.053545430302619934,-0.10550034046173096,-0.04502692446112633,-0.23567041754722595,0.09518779814243317,0.05784334987401962,-0.012804659083485603,-0.07185360789299011,0.002840586006641388,0.04431993514299393,0.0025961343199014664,-0.09680962562561035,-0.1637011468410492,-0.11998651176691055,0.05631990358233452,-0.12560993432998657,0.08496446907520294,-0.08986665308475494,-0.11532560735940933,0.014850445091724396,0.12380537390708923,0.15818023681640625,0.08425618708133698,0.03351326286792755,-0.12622874975204468,-0.08134298771619797,0.07231137901544571,0.00659354031085968,-0.09343637526035309,0.054732032120227814,-0.10810302942991257,-0.06641871482133865,-0.04107767343521118,0.09292036294937134,-0.1433998942375183,0.006630297750234604,-0.13416044414043427,-0.06345172226428986,-0.04863402247428894,-0.1955297887325287,0.009985797107219696,0.10439682006835938,0.022711817175149918,-0.005313839763402939,-0.02456069365143776,-0.17931674420833588,-0.011149290949106216,-0.0496603399515152,-0.06653174012899399,0.1627587378025055,-0.05997467041015625,-0.027179963886737823,0.17514897882938385,0.06438370794057846,0.03029581531882286,0.0021856799721717834,-0.14633119106292725,-0.0684054046869278,0.07646173238754272,-0.025137290358543396,-0.09725635498762131,-0.008791275322437286,0.10818476974964142,-0.06818471103906631,-0.08962954580783844,-0.13863509893417358,0.02866620197892189,-0.019775673747062683,-0.02142886444926262,-0.018350670114159584,0.07665849477052689,-0.04162120446562767,-0.07623085379600525,0.06023452430963516,0.06219092011451721,-0.2509801983833313,0.08979132771492004,-0.0003352891653776169,-0.05036202818155289,-0.0846063494682312,0.021433334797620773,0.06530778855085373,0.1285271942615509,-0.0008907914161682129,-0.0548919215798378,0.11042530089616776,0.07154463231563568,0.06406501680612564,0.054580241441726685,0.23211093246936798,0.24191950261592865,0.030954355373978615,-0.08903823792934418,-0.019056148827075958,-0.0021811537444591522,0.02444734424352646,0.029270436614751816,-0.12210038304328918,-0.03810857608914375,-0.019958842545747757,0.07909301668405533,-0.05708865076303482,0.01430433988571167,0.11755353957414627,-0.04188975691795349,0.005205219611525536,0.01617661491036415,0.05411592125892639,0.009057380259037018,-0.009448595345020294,0.14783042669296265,-0.04866839945316315,0.11136522144079208,-0.06366714835166931,-0.10318780690431595,0.14321425557136536,0.07620289921760559,0.10698587447404861,-0.12334974855184555,-0.033011265099048615,-0.06306665390729904,0.13081270456314087,-0.05666350573301315,-0.15643027424812317,-0.11353038996458054,0.005760934203863144,-0.05152827501296997,-0.17207372188568115,-0.0004940193030051887,0.025937777012586594,-0.17763414978981018,-0.01856146939098835,-0.09243813902139664,-0.010892295278608799,0.08671001344919205,-0.08894814550876617,0.11481130123138428,-0.099591463804245,-0.03758344426751137,0.10755960643291473,-0.17528608441352844
beta-Damascone,0.0352499783039093,-0.12418245524168015,0.09402399510145187,0.06510617583990097,-0.09693796932697296,-0.015217608772218227,-0.030331384390592575,-0.022361822426319122,-0.20070795714855194,0.08948243409395218,0.09414002299308777,0.04401569068431854,-0.01081002876162529,0.017022358253598213,0.0013508498668670654,-0.10632568597793579,-0.04129071533679962,0.0216468945145607,0.07718309015035629,0.07737047970294952,-0.04425780847668648,-0.06984037160873413,-0.10718481987714767,-0.10199308395385742,-0.036177653819322586,-0.0806308388710022,-0.02646944858133793,0.06676367670297623,-0.0836414322257042,0.05147046595811844,0.06190790981054306,0.09170212596654892,-0.031436122953891754,0.10678321868181229,-0.07324016094207764,0.07309076935052872,0.0008294442668557167,-0.07282649725675583,0.03975958749651909,0.01785564422607422,-0.0231790654361248,-0.04848641902208328,0.03644145280122757,-0.022174552083015442,0.03261542320251465,0.03154426068067551,-0.0859885960817337,0.11924053728580475,0.16418957710266113,0.030111372470855713,-0.01544856745749712,0.13035741448402405,0.0405600406229496,-0.080347940325737,-0.04744314029812813,0.07239344716072083,-0.12579533457756042,0.11575986444950104,0.047999151051044464,-0.05070258677005768,0.025002943351864815,-0.1985381543636322,-0.1456717848777771,0.029389768838882446,-0.07885415107011795,0.03330694139003754,-0.08798864483833313,0.045896075665950775,-0.07926492393016815,-0.078162781894207,0.1596771478652954,0.015240028500556946,-0.15813465416431427,-0.014865968376398087,-0.016275692731142044,0.01791946031153202,0.014843493700027466,0.04855233430862427,0.03622768074274063,0.06475486606359482,-0.15463480353355408,-0.10238825529813766,0.14955849945545197,0.01908929832279682,-0.015982339158654213,0.1373678743839264,-0.013700922951102257,-0.01904911920428276,-0.07264763116836548,-0.132423996925354,0.006422154605388641,-0.14477036893367767,0.042657576501369476,0.02024802565574646,0.04781995713710785,0.04361288994550705,-0.06526532024145126,-0.0015408694744110107,-0.04832330346107483,0.061383385211229324,0.035944148898124695,-0.016736209392547607,-0.07322599738836288,0.03444918245077133,0.028199996799230576,-0.015033774077892303,-0.0749245434999466,0.01774318888783455,0.08790168166160583,-0.013214404694736004,0.06922648847103119,-0.044626276940107346,0.06711091846227646,0.05572915077209473,-0.030210167169570923,-0.02223539724946022,-0.2211908996105194,0.060268696397542953,-0.08668728172779083,0.09806277602910995,-0.010077942162752151,0.06361982226371765,-0.02264610305428505,-0.07900672405958176,-0.16573122143745422,-0.06989391148090363,0.008452232927083969,-0.15379658341407776,0.018433162942528725,0.1766236573457718,-0.06610018014907837,0.06529320031404495,-0.04324261099100113,-0.058088041841983795,0.01722225733101368,-0.09780309349298477,0.04658634960651398,-0.10863092541694641,-0.08200404047966003,-0.05673892796039581,0.019799813628196716,-0.004004077985882759,0.17039339244365692,0.1648983657360077,0.025912094861268997,0.009460628032684326,-0.10051997750997543,-0.09455829858779907,-0.06514543294906616,-0.028745822608470917,0.01580452173948288,-0.04406082257628441,0.01684129424393177,-0.05836702510714531,0.08483950793743134,-0.034804124385118484,0.05787244439125061,0.03632396459579468,-0.11000551283359528,0.006309233605861664,0.04847622662782669,-0.15327243506908417,0.013850800693035126,-0.08047616481781006,-0.10575074702501297,-0.030495302751660347,-0.04843790829181671,0.11503169685602188,-0.10804035514593124,0.08229295164346695,0.013889509253203869,0.036072250455617905,-0.02829699218273163,-0.04962862282991409,0.12494902312755585,0.004552805796265602,-0.17826145887374878,-0.015323832631111145,-0.037827394902706146,-0.01774343103170395,0.1065797284245491,-0.006161779165267944,0.0714748278260231,0.13577279448509216,-0.05787830054759979,-0.18727019429206848,0.03153524175286293,-0.06885448098182678,-0.10573504865169525,0.004367515444755554,-0.053942013531923294,0.10927300155162811,0.07081155478954315,-0.10755404829978943,-0.15367168188095093,-0.060225289314985275,-0.01725468970835209,-0.01560894027352333,0.03749942034482956,-0.0754847303032875,0.10142016410827637,-0.10287779569625854,-0.10394662618637085,0.09895974397659302,-0.051556896418333054,0.04057228937745094,0.07804933935403824,-0.1079443171620369,-0.18421801924705505,0.029755299910902977,0.10232279449701309,0.16917990148067474,0.10887867957353592,-0.0026077181100845337,0.005301369354128838,-0.00532202422618866,-0.1401015818119049,0.04927505925297737,-0.024748317897319794,0.05349934101104736,0.02372962422668934,0.1684255301952362,0.06433907896280289,-0.06018206849694252,-0.13783501088619232,0.1600313037633896,-0.0801534503698349,-0.003949116915464401,-0.03186146914958954,-0.0509524941444397,-0.023445921018719673,0.18286770582199097,-0.16359159350395203,0.0910988450050354,0.006226886063814163,0.019045080989599228,0.11395671963691711,-0.060726098716259,0.04196541756391525,0.07388897240161896,0.03200196474790573,0.11107297241687775,-0.025061044842004776,-0.10789477825164795,0.024712517857551575,0.06059660390019417,0.0458819642663002,0.11853005737066269,-0.04171203076839447,-0.0788458064198494,-0.05433656647801399,0.0023404397070407867,0.009016023948788643,-0.04917612299323082,0.021943459287285805,0.09694449603557587,-0.013240564614534378,0.03262915834784508,0.0560610368847847,-0.04196218028664589,0.09118965268135071,-0.044218193739652634,-0.04638218879699707,0.015107577666640282,-0.01588357612490654,-0.12635119259357452,-0.1267247200012207,0.08626292645931244,-0.06904654949903488,-0.06553031504154205,-0.0552961528301239,-0.006274333689361811,0.2068735659122467,0.003597516566514969,0.04108736664056778,-0.025657765567302704,0.1089426800608635,-0.05544871836900711,-0.12278825789690018,0.06524292379617691,0.0188930444419384,-0.17079991102218628,0.061451420187950134,0.1231827661395073,-0.0028759739361703396,0.1211487427353859,0.11487959325313568,-0.051961950957775116,-0.0376618318259716,0.1225101575255394,0.09300448000431061,0.019212208688259125
(+)-Pulegone,-0.015426388010382652,-0.016287416219711304,0.015146126039326191,0.13148701190948486,0.012155274860560894,0.1261071413755417,-0.02001865580677986,-0.15859529376029968,-0.15807802975177765,0.03497428074479103,0.03247341141104698,0.005257206037640572,0.01828189566731453,-0.003207269124686718,0.027969226241111755,-0.025720784440636635,0.13702571392059326,0.056151628494262695,0.0010637268424034119,0.10033933818340302,0.020771920680999756,-0.07998477667570114,-0.05702384561300278,-0.1158733069896698,-0.14066854119300842,-0.025960110127925873,-0.05451085418462753,-0.02379145845770836,-0.05359017103910446,0.007010594010353088,0.07174088805913925,0.15589863061904907,-0.05569881200790405,-0.03991019353270531,-0.050026196986436844,0.2869468331336975,0.05431153625249863,-0.09006143361330032,0.12636710703372955,-0.145308718085289,0.030012447386980057,0.0675281211733818,-0.01544874906539917,0.06975682079792023,0.06136942282319069,0.004831831902265549,-0.03615401312708855,0.18154704570770264,0.2758082151412964,0.02850603312253952,0.026332279667258263,0.27102091908454895,0.04247074946761131,0.05951373651623726,0.02730281464755535,0.11183811724185944,-0.05375353991985321,0.05543702840805054,0.08417034894227982,-0.059394583106040955,-0.04672372713685036,-0.15542617440223694,-0.07831330597400665,0.09487222135066986,-0.08807963877916336,0.01476222276687622,-0.0069159846752882,0.010878302156925201,-0.06863555312156677,-0.036851223558187485,0.10210499912500381,-0.15277113020420074,0.09121067076921463,0.0726623684167862,0.0924902930855751,0.10081862658262253,-0.06757746636867523,0.17920489609241486,-0.05111696198582649,-0.018984688445925713,-0.09280601888895035,0.11988785117864609,0.13049595057964325,-0.05969460681080818,-0.040629804134368896,0.06895510852336884,0.1612786203622818,-0.04401840642094612,0.021298836916685104,0.042812779545784,-0.12928497791290283,-0.11572719365358353,-0.06125037744641304,0.03954726457595825,-0.026399090886116028,0.05527062714099884,-0.1700640320777893,-0.016989998519420624,0.17291459441184998,0.001334422267973423,0.11056841909885406,0.13015156984329224,-0.13942256569862366,-0.01982068084180355,-0.021819625049829483,0.046797044575214386,-0.07551239430904388,-0.1617969125509262,0.13599257171154022,0.07748304307460785,0.021673616021871567,-0.06947938352823257,0.23036670684814453,0.09450551122426987,0.006043300032615662,0.03230685368180275,-0.15782132744789124,0.08277995884418488,-0.07276013493537903,0.08987671136856079,-0.14355526864528656,-0.03468887507915497,0.02553398534655571,-0.03933923691511154,-0.020111029967665672,-0.2238379269838333,0.06988087296485901,-0.04035240411758423,-0.12375866621732712,0.2679769992828369,-0.06155190244317055,0.15839174389839172,-0.029454652220010757,-0.09996018558740616,-0.007736252620816231,-0.11685677617788315,-0.09726510941982269,-0.15970712900161743,-0.17340871691703796,-0.1676831692457199,0.045681849122047424,-0.08021946251392365,0.1912863850593567,0.15866731107234955,0.1874513030052185,0.1149081289768219,-0.15566417574882507,-0.123877614736557,-0.1859746277332306,0.047484058886766434,-0.04287153109908104,0.07997038960456848,-0.07194036990404129,0.11235696077346802,-0.09967587143182755,0.03949258103966713,0.09646939486265182,0.04662400111556053,-0.09775848686695099,0.013938266783952713,0.045411817729473114,-0.005668932572007179,-0.023998931050300598,-0.05150514096021652,-0.18337708711624146,-0.02432803437113762,-0.17030245065689087,0.18220636248588562,-0.1367764174938202,0.1218433529138565,0.0280911885201931,0.17499205470085144,-0.02038063108921051,0.08478750288486481,-0.03752139210700989,-0.023331165313720703,-0.04547476768493652,0.047418657690286636,-0.008194106630980968,0.0677635446190834,0.06404195725917816,-0.17392754554748535,-0.039091646671295166,-0.008487103506922722,0.06339913606643677,-0.17980802059173584,0.05178447440266609,0.0345536433160305,-0.14133644104003906,0.07386257499456406,-0.15377779304981232,0.1620260626077652,0.1468866765499115,-0.16521179676055908,-0.13539506494998932,-0.02938847243785858,-0.17450159788131714,-0.06347256898880005,0.053969696164131165,-0.16962194442749023,0.01868545264005661,-0.13166768848896027,-0.09768958389759064,0.2920262813568115,0.05894850194454193,-0.11482498049736023,0.03762046992778778,-0.17517352104187012,-0.2216251790523529,0.043784864246845245,0.07551628351211548,0.09782540053129196,-0.015453152358531952,-0.09592406451702118,-0.05886460840702057,-0.0654272735118866,-0.2389112114906311,-0.08957754820585251,0.05904444307088852,-0.09779738634824753,0.05134281516075134,0.19869616627693176,-0.06541240215301514,0.04320722445845604,-0.16657336056232452,0.1445174217224121,-0.11743177473545074,0.0046570803970098495,-0.09046775102615356,-0.08103148639202118,0.019238371402025223,0.12467962503433228,-0.02385871671140194,0.14422380924224854,-0.03578031808137894,-0.0345291942358017,-0.016514405608177185,-0.01334555447101593,0.07174407690763474,0.12128084152936935,0.20160143077373505,0.1520616114139557,-0.038310062140226364,-0.022306928411126137,0.04721362143754959,0.0828392505645752,0.1118348017334938,0.142154723405838,-0.0572519451379776,0.05970750376582146,-0.010284899733960629,0.05554473400115967,-0.10532767325639725,-0.14494454860687256,0.16826699674129486,-0.04981754720211029,-0.08101707696914673,0.023869287222623825,-0.1284550130367279,-0.07570207118988037,0.11684548854827881,0.06619074195623398,-0.04459007829427719,-0.022309591993689537,-0.14418359100818634,-0.20370060205459595,0.07058482617139816,0.0812322124838829,0.04475037008523941,-0.23791538178920746,-0.08149035274982452,0.006497587542980909,0.17222976684570312,0.1414196789264679,-0.1396389901638031,-0.17385217547416687,0.07530830055475235,-0.1649021953344345,-0.049091167747974396,0.043526582419872284,-0.0841197818517685,-0.10026215761899948,0.06335024535655975,0.1700155884027481,-0.03560231253504753,-0.022200949490070343,0.09674620628356934,0.048845838755369186,-0.051427461206912994,0.014639010652899742,0.12127110362052917,0.010712550021708012
1-hexanol,-0.12898029386997223,0.050338249653577805,-0.15518935024738312,-0.07365882396697998,-0.19183748960494995,0.05087779462337494,-0.0007545687258243561,-0.17427949607372284,0.09522958844900131,0.00768902525305748,0.017999492585659027,0.02607584372162819,0.007712189108133316,0.0984947681427002,-0.07872544229030609,-0.09248138219118118,0.048002369701862335,-0.09429451823234558,0.05703163146972656,0.06483744829893112,-0.024522356688976288,0.05269765481352806,0.26919645071029663,0.03995291143655777,0.010282998904585838,-0.03724425286054611,-7.789582014083862e-06,-0.12806662917137146,-0.06832735985517502,0.04352984577417374,0.019299110397696495,-0.044691458344459534,0.03299006074666977,-0.18471135199069977,-0.049905646592378616,0.016167934983968735,0.2618221640586853,0.017901016399264336,0.14820784330368042,-0.16865478456020355,-0.17122797667980194,0.02101069875061512,-0.08832909166812897,0.10038675367832184,0.0849163606762886,-0.10824555158615112,0.08602233231067657,0.14394794404506683,0.08492925018072128,0.08138568699359894,0.0382564514875412,0.018300075083971024,-0.013403072953224182,-0.06423588842153549,-0.12950193881988525,0.08914227783679962,-0.020711863413453102,-0.011430822312831879,0.018762953579425812,-0.013185599818825722,-0.1307131052017212,0.07089734077453613,0.23877884447574615,0.2288205623626709,-0.04632791131734848,0.006488174200057983,0.18057841062545776,0.07560740411281586,-0.05058369040489197,0.04066251963376999,-0.23414671421051025,-0.23803368210792542,0.09364911913871765,0.07674786448478699,-0.10468842834234238,-0.03603098541498184,0.03952791169285774,0.09819060564041138,-0.0035993047058582306,0.07290071994066238,0.23568573594093323,0.0849912092089653,-0.04068199545145035,0.06902724504470825,-0.031475137919187546,-0.019887711852788925,0.29092299938201904,0.1825808733701706,-0.08864385634660721,0.11350614577531815,-0.12329201400279999,0.19743193686008453,-0.025971468538045883,0.0736604779958725,-0.03533977270126343,-0.10835591703653336,-0.052082765847444534,0.06069827079772949,0.10022691637277603,0.057237811386585236,0.13119111955165863,-0.024532128125429153,0.11008959263563156,0.041057996451854706,0.10259020328521729,-0.020131532102823257,0.031622692942619324,0.004385404288768768,-0.10977571457624435,0.11395049840211868,-0.10262130945920944,-0.01288794819265604,-0.03779667243361473,0.19030997157096863,-0.2483988106250763,0.14712728559970856,0.09737797826528549,0.07243673503398895,0.18143890798091888,-0.11986769735813141,-0.03274181857705116,-0.10101346671581268,0.13098224997520447,0.09341886639595032,0.10454164445400238,-0.034536030143499374,-0.032739389687776566,0.07617959380149841,0.06644095480442047,0.17453224956989288,-0.004708912223577499,-0.06600266695022583,0.020126577466726303,-0.11998777091503143,-0.1135367602109909,-0.16986161470413208,-0.02238437533378601,-0.004390309099107981,0.036150626838207245,0.19635356962680817,-0.14239300787448883,0.11257977783679962,-0.056822292506694794,0.0681496262550354,-0.123369500041008,0.11061334609985352,-0.02091749757528305,0.09771615266799927,-0.03786119073629379,0.07410059124231339,-0.08044961094856262,0.002115737646818161,0.01732816733419895,0.057412587106227875,-0.10544350743293762,-0.05470597371459007,0.01254994422197342,-0.06458582729101181,0.008807703852653503,-0.02220112457871437,-0.05573166161775589,-0.10280957818031311,-0.03242528438568115,-0.07297313213348389,0.19577933847904205,0.03850196301937103,-0.04700078070163727,0.05745462328195572,-0.021546203643083572,-0.04601390287280083,0.10719197243452072,0.050177209079265594,0.020639568567276,-0.06356599181890488,0.09462915360927582,-0.05203510820865631,-0.04616773873567581,0.15453511476516724,0.15731726586818695,-0.07472945004701614,-0.10281750559806824,0.08381056785583496,-0.06930819153785706,0.10500560700893402,0.04645712673664093,0.004551425576210022,-0.03354841098189354,0.04310733452439308,-0.05897795408964157,-0.22066012024879456,0.13528594374656677,0.05863269418478012,-0.05107878893613815,0.11429889500141144,-0.11124885082244873,-0.19765329360961914,-0.031069573014974594,-0.06698788702487946,0.056140244007110596,-0.05090789869427681,0.0003303135745227337,-0.017644857987761497,-0.2015833854675293,0.0689161866903305,-0.06233455240726471,0.03823653236031532,0.028585977852344513,-0.14456656575202942,0.11508304625749588,0.0326278954744339,-0.017741721123456955,0.03842109441757202,-0.09807805716991425,0.024751663208007812,-0.016946986317634583,-0.012950848788022995,0.1350117027759552,-0.02549610659480095,0.07805439084768295,-0.21609124541282654,0.10382065176963806,-0.17445091903209686,-0.05290021374821663,-0.18848371505737305,0.13173770904541016,-0.07160259038209915,0.04262910410761833,-0.20723408460617065,-0.06769289076328278,-0.057475555688142776,-0.05787191912531853,-0.029470907524228096,-0.10306137055158615,-0.038991913199424744,-0.26939356327056885,-0.1364162564277649,-0.013060174882411957,-0.012614421546459198,-0.015758372843265533,-0.0034081973135471344,0.1690361052751541,0.09547024965286255,-0.07126593589782715,-0.08249009400606155,-0.000976651906967163,-0.0014840029180049896,-0.06282773613929749,0.036522749811410904,-0.04217725247144699,0.06286098062992096,0.02992500551044941,-0.025059085339307785,0.15801753103733063,0.0637192577123642,-0.08926788717508316,0.0671171247959137,0.0687994658946991,-0.10508889704942703,-0.07524560391902924,-0.14378200471401215,-0.008598309010267258,0.08468872308731079,-0.12733769416809082,-0.01413011085242033,0.08946149796247482,-0.0651698186993599,-0.0760347917675972,-0.022311225533485413,0.039183370769023895,0.10019421577453613,0.04743936285376549,0.04883952811360359,-0.013125626370310783,-0.15843386948108673,-0.13849155604839325,-0.025525368750095367,-0.07191109657287598,0.006767177954316139,0.0798175036907196,-0.004665111191570759,0.09264937043190002,0.08288296312093735,-0.11225785315036774,0.009167393669486046,-0.11901193112134933,-0.014645658433437347,-0.15086430311203003,0.0853138267993927,0.014783628284931183,0.09063539654016495,-0.03848806396126747,-0.10265105962753296
Piperonyl alcohol,-0.06578315049409866,-0.18137043714523315,0.14927972853183746,0.14024116098880768,-0.0825580358505249,0.052581414580345154,-0.024828854948282242,-0.0965375229716301,-0.022400207817554474,-0.051316410303115845,0.07950036227703094,-0.02993057668209076,0.022814307361841202,-0.05901122838258743,0.01276584342122078,-0.06697117537260056,0.05604920536279678,-0.03487713262438774,-0.04635244235396385,0.014504356309771538,0.09770660847425461,-0.06237431988120079,0.04752910137176514,0.015794027596712112,0.0006316713988780975,-0.011030986905097961,0.027939366176724434,-0.10440947115421295,-0.17772775888442993,0.14109009504318237,-0.0484769344329834,0.11899463087320328,0.01867653615772724,-0.02756580337882042,-0.10676531493663788,0.10081885755062103,0.02819816768169403,-0.06970681250095367,0.0771542564034462,-0.11340820789337158,0.015464644879102707,0.07938797026872635,-0.017849843949079514,-0.16142797470092773,0.17086270451545715,0.11144203692674637,-0.18641023337841034,-0.046816371381282806,0.15878745913505554,0.120022714138031,-0.022150028496980667,0.1358845978975296,-0.024863295257091522,0.06425677984952927,-0.11537358909845352,0.168516606092453,-0.17935247719287872,0.03905262053012848,-0.03110017627477646,-0.03666406869888306,-0.13235385715961456,-0.03759061172604561,-0.20708441734313965,-0.05199208855628967,-0.01992196962237358,0.03896677494049072,-0.02552555315196514,0.028195731341838837,-0.02756544202566147,-0.0294402614235878,-0.02709193527698517,-0.020065560936927795,-0.053321342915296555,-0.012873467057943344,0.0032614022493362427,-0.07472684234380722,-0.08461403846740723,-0.0036737993359565735,0.128840371966362,0.04539313167333603,-0.07868535071611404,0.00693347305059433,0.1840604692697525,-0.026442859321832657,0.03256162256002426,0.045966971665620804,-0.03373785316944122,-0.03088345006108284,-0.030700353905558586,0.016129780560731888,-0.148264080286026,-0.15680310130119324,-0.09864994883537292,-0.09016905725002289,-0.006652258336544037,-0.015965018421411514,-0.1803007572889328,0.04879987984895706,0.09708476066589355,-0.023584403097629547,-0.011323202401399612,-0.060961656272411346,-0.02106533944606781,0.13196897506713867,-0.05210747569799423,-0.005443498492240906,0.017733320593833923,-0.02987704798579216,-0.07391565293073654,0.07087411731481552,0.06952027976512909,-0.0424293577671051,0.023824267089366913,0.2086799442768097,0.07201758772134781,0.01714346557855606,-0.07409948855638504,0.01189747080206871,-0.027755022048950195,0.0068480088375508785,0.02109190821647644,-0.01307837013155222,-0.06529153883457184,-0.09779863804578781,-0.07184183597564697,-0.08421771228313446,-0.07028114050626755,-0.01680726744234562,0.05788547918200493,0.24894966185092926,-0.1018160730600357,0.16874992847442627,-0.1361006200313568,-0.06393405795097351,-0.012913202866911888,-0.09684061259031296,0.09136072546243668,-0.10624035447835922,-0.019206976518034935,-0.07474587857723236,-0.05903668701648712,-0.0803067684173584,0.1826300024986267,0.20754624903202057,0.086534783244133,0.06664668023586273,-0.07801724225282669,-0.041321367025375366,-0.17765218019485474,-0.09138040244579315,0.03324330598115921,0.1035500168800354,-0.055881254374980927,-0.17196910083293915,-0.14617478847503662,0.05911274626851082,0.1673525869846344,0.06512099504470825,-0.1285630315542221,-0.05514347180724144,-0.10958592593669891,0.04091642051935196,0.043227214366197586,-0.08426549285650253,-0.05668170005083084,-0.02906622737646103,-0.0724211111664772,0.10341111570596695,-0.11771302670240402,-0.17620712518692017,-0.050484560430049896,0.1875150501728058,0.0885409563779831,0.07572728395462036,-0.025629699230194092,-0.11489108949899673,-0.15816253423690796,0.05450224131345749,0.036180898547172546,-0.15742012858390808,0.14363333582878113,-0.11099337786436081,0.025521984323859215,0.04217737540602684,0.033598966896533966,-0.2533603310585022,0.07377299666404724,-0.05292245000600815,-0.10696322470903397,-0.0349300242960453,-0.24673597514629364,0.08683041483163834,0.03153404965996742,-0.09100104868412018,-0.03446932137012482,-0.08270005136728287,-0.08564655482769012,-0.04670532047748566,0.007914207875728607,-0.045142728835344315,0.28945985436439514,0.06943213194608688,-0.03537345677614212,0.08104690909385681,-0.02610899694263935,0.052462611347436905,0.059654299169778824,-0.08167069405317307,-0.10079043358564377,0.17908801138401031,-0.096987284719944,-0.058872707188129425,-0.008662022650241852,0.025066889822483063,-0.0061735725030303,0.09225811809301376,-0.11980298906564713,-0.05969240143895149,-0.04656009376049042,-0.030918769538402557,-0.023299286141991615,0.04985291510820389,0.09286971390247345,0.006687621586024761,-0.0036386195570230484,0.04835215210914612,-0.11117716133594513,-0.018364092335104942,-0.050636716187000275,-0.17166009545326233,-0.17605732381343842,0.006450444459915161,-0.1644897609949112,0.013816408812999725,0.010225970298051834,-0.001530613750219345,0.11787518858909607,0.008014116436243057,0.03557460755109787,0.0006297286599874496,0.1392471045255661,0.15262474119663239,0.08288812637329102,-0.19252124428749084,0.04702571779489517,-0.05397896468639374,0.15323415398597717,0.04937484860420227,-0.09404194355010986,-0.07019798457622528,-0.11999005824327469,0.04035785794258118,0.01551428996026516,0.03450249135494232,0.115985207259655,0.006021726876497269,-0.0025264061987400055,0.07785529643297195,0.026553397998213768,-0.0876111388206482,0.0019839107990264893,0.040486134588718414,-0.09087087213993073,0.08763391524553299,0.017818419262766838,-0.09912626445293427,0.05250278860330582,0.1185784861445427,0.06832801550626755,-0.1213047057390213,0.0017499017994850874,0.07036566734313965,0.10444365441799164,-0.0217850673943758,-0.02872725948691368,-0.10597532242536545,-0.037464044988155365,-0.05855648219585419,-0.3249223828315735,0.0007731377263553441,-0.10533836483955383,-0.1883254051208496,0.1646965891122818,0.014769749715924263,0.03445279970765114,0.13311898708343506,-0.10235319286584854,-0.03558746352791786,-0.1248873919248581,0.03946542739868164,0.09698410332202911,-0.11106973886489868
